tree
version=v4
num_class=1
num_tree_per_iteration=1
label_index=0
max_feature_idx=1
objective=regression
feature_names=Column_0 Column_1
feature_infos=[-1263:1421] [0:1]
tree_sizes=2897 2887 2893 2886 2896 2875 2896 2903 2907 2911 2905 2917 2924 2918 2904 2926 2921 2919 2922 2918 2931 2909 2936 2917 2934 2932 2932 2934 2911 2944 2939 2937 2931 2929 2929 2926 2940 2940 2933 2937 2938 2936 2934 2931 2908 2945 2939 2935 2939 2928 2944 2958 2945 2944 2940 2961 2941 2951 2930 2954 2963 2932 2941 2951 2935 2928 2943 2939 2945 2934 2946 2945 2926 2940 2947 2949 2932 2947 2916 2947 2952 2945 2915 2950 2950 2948 2912 2946 2951 2923 2949 2952 2956 2962 2953 2938 2924 2951 2946 2946 2934 2926 2935 2919 2967 2941 2960 2961 2947 2936 2961 2949 2958 2958 2959 2946 2927 2963 2975 2950 2904 2941 2956 2934 2957 2930 2945 2971 2933 2968 2945 2952 2925 2960 2948 2957 2941 2958 2946 2941 2944 2946 2963 2964 2956 2923 2933 2955 2951 2956 2939 2970 2952 2950 2928 2916 2955 2930 2926 2950 2942 2936 2953 2957 2946 2953 2918 2934 2928 2920 2922 2922 2937 2967 2975 2949 2932 2942 2949 2973 2947 2968 2968 2961 2939 2944 2969 2959 2963 2969 2983 2974 2952 2971 2951 2960 2975 2965 2945 2938 2984 2952 2980 2959 2931 2978 2997 2971 2975 2973 2953 3001 2950 2985 2965 2954 2964 2948 2966 2949 2966 2961 2972 2977 2972 2995 2967 2964 2982 2977 2977 2985 2955 2952 2979 2983 2977 2979 2963 2971 2945 2949 2946 2967 2954 2965 2995 2944 2992 2948 2929 2971 2988 2991 2940 2982 3009 2936 2936 2951 2937 2998 2953 2956 2955 2987 2964 2963 2931 2962 2969 2962 2996 2967 2977 2955 2971 2975 2961 2960 2958 2973 2963 2967 2946 2962 2969 2949 2969 2986 2941 2961 2999 2949 2998 2926 2968 2961 2979 2964 2964 2950 2930 2937 2980 2949 2993 2975 3016 2937 2970 2943 2962 3005 2943 2960 2962 2956 2981 2981 2986 2971 2952 3021 2973 2984 2997 2953 2992 2972 2932 2934 2971 2946 2961 3004 2960 3000 2996 2955 2916 2965 2947 2998 2960 3000 2921 2961 2973 2963 2960 3010 2963 2972 2984 2999 2985 2978 2967 3005 2965 2917 2977 2986 2999 2965 2971 2981 2977 3007 2985 3001 2995 2961 2996 2980 3004 2955 2974 3010 3003 2980 3021 2994 3041 2999 3002 3019 2975 3014 3024 2976 3010 3027 3034 2957 3034 2979 2994 3002 3031 2990 3008 2965 2988 2987 2995 2996 2997 2988 2957 3020 2955 2993 2955 3045 2988 3011 2956 3038 2983 3036 2977 2979 2979 2990 2988 3043 2931 2943 2977 2989 2971 2947 2993 2985 2991 2983 2947 2955 2943 3025 2946 2999 2952 3018 2940 3000 3017 2998 2937 3000 2999 2961 2975 3003 3006 2961 2986 3012 2973 3033 2971 2981 3002 2969 3028 2958 2947 2948 3016 2959 2998 3030 2956 2928 2972 3000 2965 3042 3042 3017 2993 3037 3049 3002 3050 2997 3000 3032 2998 3008 3040 2999 3041 2981 3006 3046 3006 3052 3001 3002 3029 3046 3000 3047 3029 3033 3034 3003 2942 3032 3052 3023 3022 3039 2931 3035 2933 3034 2930 3002 3024 3050 3005 3013 3010 3041 3007 3010 2939 2995 3015 3039 3007 3002 3007 3005 3013 3009 3007 3007 2921 3036 3006 3010 3043 3007 3009 2998 2930 2939 3008 2999 3010 2931 3018 3012 3027 3036 2996 2993 2937 2939 3002 3020 3006 3024 2966 3015 3041 3039 3020 2944 3034 3024 3030 3021 2993 3035 3021 3031 3042 2943 3008 3024 3025 3033 2919 3034 3040 3039 3028 2975 2986 3020 3013 3012 2969 3015 3030 2981 2962 2985 2946 3024 3025 3017 2993 3016 2955 3018 3011 2988 3024 3033 3024 2982 3010 3027 3017 3015 2983 2996 3017 3040 3020 2951 3030 2996 3022 2982 3019 2987 2971 3027 3025 2977 3015 3020 2978 3025 3016 2949 3027 3023 3013 2978 3020 2985 2976 3018 2976 3028 3013 2973 3017 3011 2965 2982 2993 3022 3027 2983 2994 2981 2973 2962 2987 3027 3022 3026 2974 2978 2995 3021 3028 3019 2962 3012 3020 3020 2972 3012 3023 3014 2984 3033 3000 3025 3023 2997 3038 2979 3033 3033 3007 2980 3012 3022 2981 2993 3016 3029 2991 3002 3022 2980 3036 2985 2984 3022 3023 2987 3023 3012 2992 3022 2983 2983 2985 2998 2990 3033 3001 3028 3041 2995 2997 2969 2995 3022 3021 3010 2997 2990 3025 2990 3002 2997 3000 2973 3017 3038 2976 3008 3009 2993 3019 3043 2983 2991 3020 3031 2979 2972 3036 3026 2989 2996 3035 2979 3021 3044 2991 3004 3026 3028 3007 2988 2992 3010 3045 2982 2973 3030 3027 2986 3001 2995 3029 3046 2987 3017 3022 2975 2993 2997 3014 3003 3000 3035 3003 2984 3008 3049 2980 2987 3002 3019 2982 3041 2999 3014 2974 3028 2999 3023 3043 2989 2986 2988 2986 3000 3027 3042 2984 3029 2999 3008 3018 2977 2990 3005 2989 2999 3043 3004 3048 2997 2978 3026 3001 3035 2987 2992 2997 3046 2989 3020 2992 3029 3003 3000 3046 3028 2993 2984 3048 2999 2999 3022 2982 3032 2995 3045 2989 2994 2983 3028 2996 3030 3029 3000 2963 3016 2997 3033 3018 3000 3032 2972 2987 2989 3024 2969 3014 2974 3033 3034 3012 2989 3033 3018 2986 3029 2975 3016 2985 2985 3027 2985 3016 3018 3038 2972 2988 3036 3045 2991 3035 3006 3016 3014 3036 2975 3016 2999 3041 2991 2972 3017 3040 2988 3023 3016 3012 2976 3032 3017 3025 3047 2997 3038 3042 3020 3001 3038 2979 3044 3025 2998 3040 3004 3016 2995 2979 3037 3027 3041 2995 2990 3026 3048 2999 2984 3045 3024 3006 3024 2975 3047 3006 3019 3001 3031 2999 3002 3038 3020 2976 3011 3035 3023 3000 3053 3002 3026 3041 3017 2982 3050 3039 3032 3037 3019 2997 3020 3038 3027 3040 3043 3011 3033 3006 2982 3052 2991 3043 3040 2992 3019 2994 3006 3020 3008 3043 2980 3004 2998

Tree=0
num_leaves=31
num_cat=0
split_feature=0 0 0 0 0 0 0 0 0 0 0 0 0 1 1 0 1 0 1 0 1 0 0 0 0 0 0 0 0 1
split_gain=17671.7 3464.25 3463.59 931.557 623.754 447.355 440.777 145.164 113.111 64.6647 58.0992 57.1363 44.6798 34.8436 33.6552 28.8379 28.7377 22.0248 18.4355 37.653 15.6278 15.5202 22.9229 13.0767 12.9634 11.7914 11.1039 10.519 9.96641 9.25867
threshold=244.50000000000003 536.50000000000011 24.500000000000004 763.50000000000011 410.50000000000006 -104.49999999999999 150.50000000000003 861.00000000000011 330.50000000000006 640.50000000000011 455.50000000000006 84.500000000000014 -230.49999999999997 1.0000000180025095e-35 1.0000000180025095e-35 -66.499999999999986 1.0000000180025095e-35 179.50000000000003 1.0000000180025095e-35 504.50000000000006 1.0000000180025095e-35 446.50000000000006 427.50000000000006 479.50000000000006 299.50000000000006 594.50000000000011 342.50000000000006 380.50000000000006 492.50000000000006 1.0000000180025095e-35
decision_type=2 2 2 2 2 2 2 2 2 2 2 2 2 2 2 2 2 2 2 2 2 2 2 2 2 2 2 2 2 2
left_child=2 4 5 9 8 12 11 16 24 13 20 -4 -1 25 26 -7 -5 -8 -12 23 21 22 -6 -20 -2 -3 -10 -28 -25 -26
right_child=1 3 6 7 10 15 17 -9 14 -11 18 -13 -14 -15 -16 -17 -18 -19 19 -21 -22 -23 -24 28 29 -27 27 -29 -30 -31
leaf_value=-0.0066437379631006412 0.0056970117949428269 0.019080803034709101 -0.0016591224481556379 0.035022347503390755 0.011227536189197976 -0.0045602720783205711 0.001566295959226222 0.04658736001042478 0.011561954867246912 0.023678884300975509 0.015898732349985196 -0.0001997608270440501 -0.0056932497168594208 0.015145586999164892 0.0071107881342037946 -0.0034465483830197785 0.02374137286197545 0.0028179173112654592 0.017723649989959268 0.0066802440542039088 0.0097207118498427482 0.009225776938244154 0.015395243628790724 0.010033642889850043 0.0075739837885922092 0.021806833708311067 0.0086065743551399787 0.010447008060899956 0.016319824139721349 0.0058149980419124649
leaf_weight=10802 2705 400 5414 138 268 3191 2119 158 265 493 792 5318 9122 175 741 8566 27 4178 98 72 279 115 260 61 803 263 804 506 43 477
leaf_count=10802 2705 400 5414 138 268 3191 2119 158 265 493 792 5318 9122 175 741 8566 27 4178 98 72 279 115 260 61 803 263 804 506 43 477
internal_value=-0.000860778 0.0112883 -0.00334073 0.0245022 0.00865162 -0.00529574 0.000296402 0.0397365 0.00711077 0.0208052 0.0135354 -0.000935969 -0.00620857 0.0191146 0.00886826 -0.00374883 0.0331764 0.00239673 0.0151252 0.0128894 0.0116972 0.0125548 0.0132798 0.0151026 0.00608936 0.0201622 0.0096951 0.00931746 0.0126327 0.00691849
internal_weight=0 9943 48710 1654 8289 31681 17029 323 6301 1331 1988 10732 19924 838 2316 11757 165 6297 1066 274 922 643 528 202 3985 663 1575 1310 104 1280
internal_count=58653 9943 48710 1654 8289 31681 17029 323 6301 1331 1988 10732 19924 838 2316 11757 165 6297 1066 274 922 643 528 202 3985 663 1575 1310 104 1280
is_linear=0
shrinkage=1


Tree=1
num_leaves=31
num_cat=0
split_feature=0 0 0 0 0 0 0 0 0 0 0 0 0 1 1 0 1 0 1 0 1 0 0 0 0 0 0 0 0 1
split_gain=17320 3395.31 3394.67 913.018 611.342 438.453 432.005 142.276 110.86 63.3778 56.943 55.9992 43.7906 34.1503 32.9854 28.264 28.1658 21.5865 18.0686 36.9037 15.3168 15.2113 22.4667 12.8165 12.7054 11.5567 10.8829 10.3097 9.76808 9.11028
threshold=244.50000000000003 536.50000000000011 24.500000000000004 763.50000000000011 410.50000000000006 -104.49999999999999 150.50000000000003 861.00000000000011 330.50000000000006 640.50000000000011 455.50000000000006 84.500000000000014 -230.49999999999997 1.0000000180025095e-35 1.0000000180025095e-35 -66.499999999999986 1.0000000180025095e-35 179.50000000000003 1.0000000180025095e-35 504.50000000000006 1.0000000180025095e-35 446.50000000000006 427.50000000000006 479.50000000000006 299.50000000000006 594.50000000000011 342.50000000000006 380.50000000000006 492.50000000000006 1.0000000180025095e-35
decision_type=2 2 2 2 2 2 2 2 2 2 2 2 2 2 2 2 2 2 2 2 2 2 2 2 2 2 2 2 2 2
left_child=2 4 5 9 8 12 11 16 24 13 20 -4 -1 25 26 -7 -5 -8 -12 23 21 22 -6 -20 -2 -3 -10 -28 -25 -13
right_child=1 3 6 7 10 15 17 -9 14 -11 18 29 -14 -15 -16 -17 -18 -19 19 -21 -22 -23 -24 28 -26 -27 27 -29 -30 -31
leaf_value=-0.0057251308136995749 0.0064922116158802117 0.019742165009351446 -0.00079036140011772807 0.035524294095356831 0.011967430611468117 -0.0036624997888803509 0.0024028026980777335 0.046973656282489062 0.012298505465658206 0.024294265927350182 0.016591915158899455 0.001006677048286875 -0.0047841477441994832 0.015846301011528289 0.007891850057039183 -0.00255991311384308 0.02435612896802249 0.0036419080786129249 0.018398583464286463 0.0074656115655994254 0.010475674511924866 0.0099856890271539274 0.016093461341009689 0.010785476473602848 0.0077014716468911506 0.02244093590858658 0.0093726785243627847 0.011194707768336086 0.017008795963470328 0.00016810317385788332
leaf_weight=10802 2705 400 5414 138 268 3191 2119 158 265 493 792 3084 9122 175 741 8566 27 4178 98 72 279 115 260 61 1280 263 804 506 43 2234
leaf_count=10802 2705 400 5414 138 268 3191 2119 158 265 493 792 3084 9122 175 741 8566 27 4178 98 72 279 115 260 61 1280 263 804 506 43 2234
internal_value=0 0.0120276 -0.00245515 0.0251093 0.00941727 -0.00439062 0.00114561 0.0401913 0.00789183 0.0214493 0.0142522 -7.44393e-05 -0.00529431 0.0197756 0.00963174 -0.00285917 0.0336968 0.00322494 0.0158261 0.0136127 0.0124324 0.0132814 0.0139992 0.0158037 0.00688063 0.0208127 0.0104503 0.0100765 0.0133586 0.000654407
internal_weight=0 9943 48710 1654 8289 31681 17029 323 6301 1331 1988 10732 19924 838 2316 11757 165 6297 1066 274 922 643 528 202 3985 663 1575 1310 104 5318
internal_count=58653 9943 48710 1654 8289 31681 17029 323 6301 1331 1988 10732 19924 838 2316 11757 165 6297 1066 274 922 643 528 202 3985 663 1575 1310 104 5318
is_linear=0
shrinkage=0.01


Tree=2
num_leaves=31
num_cat=0
split_feature=0 0 0 0 0 0 0 0 0 0 0 0 0 1 1 0 1 0 1 0 1 0 0 0 0 0 0 0 0 1
split_gain=16975.4 3327.74 3327.11 894.849 599.176 429.728 423.408 139.444 108.654 62.1166 55.8098 54.8848 42.9192 33.4707 32.329 27.7015 27.6053 21.1569 17.709 36.1693 15.012 14.9086 22.0196 12.5615 12.4526 11.3267 10.6663 10.1045 9.57369 9.08934
threshold=244.50000000000003 536.50000000000011 24.500000000000004 763.50000000000011 410.50000000000006 -104.49999999999999 150.50000000000003 861.00000000000011 330.50000000000006 640.50000000000011 455.50000000000006 84.500000000000014 -230.49999999999997 1.0000000180025095e-35 1.0000000180025095e-35 -66.499999999999986 1.0000000180025095e-35 179.50000000000003 1.0000000180025095e-35 504.50000000000006 1.0000000180025095e-35 446.50000000000006 427.50000000000006 479.50000000000006 299.50000000000006 594.50000000000011 342.50000000000006 380.50000000000006 492.50000000000006 1.0000000180025095e-35
decision_type=2 2 2 2 2 2 2 2 2 2 2 2 2 2 2 2 2 2 2 2 2 2 2 2 2 2 2 2 2 2
left_child=2 4 5 9 8 12 11 16 24 13 20 -4 -1 25 26 29 -5 -8 -12 23 21 22 -6 -20 -2 -3 -10 -28 -25 -7
right_child=1 3 6 7 10 15 17 -9 14 -11 18 -13 -14 -15 -16 -17 -18 -19 19 -21 -22 -23 -24 28 -26 -27 27 -29 -30 -31
leaf_value=-0.0056678794298004667 0.0064272893755085592 0.019544743171893059 -0.00078245765221827111 0.035169050759919315 0.011847756570239842 -0.0040799749931302934 0.0023787747922258073 0.046503919194676453 0.012175520267970157 0.024051322865604026 0.016425995590974286 0.00064786256908643306 -0.0047363059235421426 0.015687838018153395 0.0078129314559332117 -0.0025343139477027655 0.024112567345577256 0.0036054889943539633 0.018214597267155744 0.0073909554454601482 0.010370917645580131 0.0098858323997777445 0.015932526568237407 0.010677621554827592 0.0076244570369754005 0.022216526009992275 0.0092789519334875691 0.011082760682046548 0.016838708111020024 -0.0029986058465238147
leaf_weight=10802 2705 400 5414 138 268 1851 2119 158 265 493 792 5318 9122 175 741 8566 27 4178 98 72 279 115 260 61 1280 263 804 506 43 1340
leaf_count=10802 2705 400 5414 138 268 1851 2119 158 265 493 792 5318 9122 175 741 8566 27 4178 98 72 279 115 260 61 1280 263 804 506 43 1340
internal_value=0 0.0119073 -0.0024306 0.0248582 0.0093231 -0.00434671 0.00113415 0.0397894 0.00781291 0.0212348 0.0141096 -7.36948e-05 -0.00524137 0.0195778 0.00953543 -0.00283058 0.0333598 0.00319269 0.0156679 0.0134766 0.012308 0.0131486 0.0138592 0.0156457 0.00681183 0.0206046 0.0103458 0.00997569 0.013225 -0.00362587
internal_weight=0 9943 48710 1654 8289 31681 17029 323 6301 1331 1988 10732 19924 838 2316 11757 165 6297 1066 274 922 643 528 202 3985 663 1575 1310 104 3191
internal_count=58653 9943 48710 1654 8289 31681 17029 323 6301 1331 1988 10732 19924 838 2316 11757 165 6297 1066 274 922 643 528 202 3985 663 1575 1310 104 3191
is_linear=0
shrinkage=0.01


Tree=3
num_leaves=31
num_cat=0
split_feature=0 0 0 0 0 0 0 0 0 0 0 0 0 1 1 0 1 0 1 0 1 0 0 0 0 0 0 0 0 1
split_gain=16637.5 3261.52 3260.9 877.042 587.252 421.176 414.983 136.669 106.492 60.8805 54.6992 53.7927 42.0652 32.8046 31.6857 27.1503 27.056 20.7359 17.3566 35.4495 14.7132 14.6119 21.5814 12.3115 12.2048 11.1013 10.4541 9.90346 9.38318 9.07442
threshold=244.50000000000003 536.50000000000011 24.500000000000004 763.50000000000011 410.50000000000006 -104.49999999999999 150.50000000000003 861.00000000000011 330.50000000000006 640.50000000000011 455.50000000000006 84.500000000000014 -230.49999999999997 1.0000000180025095e-35 1.0000000180025095e-35 -66.499999999999986 1.0000000180025095e-35 179.50000000000003 1.0000000180025095e-35 504.50000000000006 1.0000000180025095e-35 446.50000000000006 427.50000000000006 479.50000000000006 299.50000000000006 594.50000000000011 342.50000000000006 380.50000000000006 492.50000000000006 1.0000000180025095e-35
decision_type=2 2 2 2 2 2 2 2 2 2 2 2 2 2 2 2 2 2 2 2 2 2 2 2 2 2 2 2 2 2
left_child=2 4 5 9 8 12 11 16 24 13 20 -4 -1 25 26 -7 -5 -8 -12 23 21 22 -6 -20 -2 -3 -10 -28 -25 -26
right_child=1 3 6 7 10 15 17 -9 14 -11 18 -13 -14 -15 -16 -17 -18 -19 19 -21 -22 -23 -24 28 29 -27 27 -29 -30 -31
leaf_value=-0.0056112009356444094 0.0063630164351431359 0.019349295735359193 -0.00077463341768663121 0.034817360003033412 0.011729278637499396 -0.0035896158590431248 0.0023549869478297382 0.046038880940089059 0.012053764866770438 0.023810809563550698 0.016261735662672142 0.00064138375510941123 -0.0046889428416464285 0.015530960019145692 0.0077348023003320767 -0.0025089710158614836 0.02387144237894703 0.0035694340262391929 0.018032451562431395 0.0073170457438876237 0.01026720862208088 0.0097869739487119346 0.015773201095388056 0.01057084548790924 0.0081971546445660185 0.021994360854190566 0.0091861622798747721 0.010971933321736517 0.016670320631806242 0.0064557586961759717
leaf_weight=10802 2705 400 5414 138 268 3191 2119 158 265 493 792 5318 9122 175 741 8566 27 4178 98 72 279 115 260 61 803 263 804 506 43 477
leaf_count=10802 2705 400 5414 138 268 3191 2119 158 265 493 792 5318 9122 175 741 8566 27 4178 98 72 279 115 260 61 803 263 804 506 43 477
internal_value=0 0.0117883 -0.0024063 0.0246096 0.00922987 -0.00430324 0.00112281 0.0393915 0.00773479 0.0210225 0.0139686 -7.29581e-05 -0.00518895 0.019382 0.00944007 -0.00280227 0.0330262 0.00316076 0.0155112 0.0133418 0.012185 0.0130171 0.0137206 0.0154892 0.00674371 0.0203985 0.0102424 0.00987593 0.0130927 0.00754821
internal_weight=0 9943 48710 1654 8289 31681 17029 323 6301 1331 1988 10732 19924 838 2316 11757 165 6297 1066 274 922 643 528 202 3985 663 1575 1310 104 1280
internal_count=58653 9943 48710 1654 8289 31681 17029 323 6301 1331 1988 10732 19924 838 2316 11757 165 6297 1066 274 922 643 528 202 3985 663 1575 1310 104 1280
is_linear=0
shrinkage=0.01


Tree=4
num_leaves=31
num_cat=0
split_feature=0 0 0 0 0 0 0 0 0 0 0 0 0 1 1 0 1 0 1 0 1 0 0 0 0 0 0 0 0 1
split_gain=16306.5 3196.62 3196.01 859.589 575.566 412.871 406.724 133.95 104.372 59.669 53.6107 52.7222 38.5395 32.1518 31.0551 30.1699 26.5176 20.3232 17.0112 34.7441 14.4204 14.3212 21.1519 12.0665 11.9619 10.8804 10.246 9.70638 9.19645 8.92898
threshold=244.50000000000003 536.50000000000011 24.500000000000004 763.50000000000011 410.50000000000006 -107.49999999999999 150.50000000000003 861.00000000000011 330.50000000000006 640.50000000000011 455.50000000000006 84.500000000000014 -230.49999999999997 1.0000000180025095e-35 1.0000000180025095e-35 -66.499999999999986 1.0000000180025095e-35 179.50000000000003 1.0000000180025095e-35 504.50000000000006 1.0000000180025095e-35 446.50000000000006 427.50000000000006 479.50000000000006 299.50000000000006 594.50000000000011 342.50000000000006 380.50000000000006 492.50000000000006 1.0000000180025095e-35
decision_type=2 2 2 2 2 2 2 2 2 2 2 2 2 2 2 2 2 2 2 2 2 2 2 2 2 2 2 2 2 2
left_child=2 4 5 9 8 12 11 16 24 13 20 -4 -1 25 26 -7 -5 -8 -12 23 21 22 -6 -20 -2 -3 -10 -28 -25 -13
right_child=1 3 6 7 10 15 17 -9 14 -11 18 29 -14 -15 -16 -17 -18 -19 19 -21 -22 -23 -24 28 -26 -27 27 -29 -30 -31
leaf_value=-0.0055550888796059147 0.0062993863847592155 0.019155802912078797 -0.00076688677727753632 0.034469186961652958 0.011611986031422198 -0.0035878104402467092 0.0023314371951917252 0.045578491662310643 0.011933227134657639 0.023572701650858684 0.016099118463127084 0.00098371761475494015 -0.0046644749389438411 0.015375650062731335 0.0076574541414948377 -0.0024838811885603031 0.023632727215170034 0.0035337396204102563 0.017852126954465499 0.0072438752382165865 0.010164536807192055 0.0096891043986315328 0.015615469296892675 0.010465137196063509 0.0074727302674873495 0.021774417537586771 0.0090943004498582579 0.010862213896804678 0.016503617704607721 0.00015352967601676363
leaf_weight=10802 2705 400 5414 138 268 3482 2119 158 265 493 792 3084 8831 175 741 8566 27 4178 98 72 279 115 260 61 1280 263 804 506 43 2234
leaf_count=10802 2705 400 5414 138 268 3482 2119 158 265 493 792 3084 8831 175 741 8566 27 4178 98 72 279 115 260 61 1280 263 804 506 43 2234
internal_value=0 0.0116704 -0.00238223 0.0243635 0.00913757 -0.00426021 0.00111158 0.0389976 0.00765744 0.0208122 0.0138289 -7.22283e-05 -0.00515449 0.0191882 0.00934567 -0.00280293 0.0326959 0.00312915 0.0153561 0.0132084 0.0120631 0.0128869 0.0135834 0.0153343 0.00667627 0.0201946 0.0101399 0.00977717 0.0129618 0.00063497
internal_weight=0 9943 48710 1654 8289 31681 17029 323 6301 1331 1988 10732 19633 838 2316 12048 165 6297 1066 274 922 643 528 202 3985 663 1575 1310 104 5318
internal_count=58653 9943 48710 1654 8289 31681 17029 323 6301 1331 1988 10732 19633 838 2316 12048 165 6297 1066 274 922 643 528 202 3985 663 1575 1310 104 5318
is_linear=0
shrinkage=0.01


Tree=5
num_leaves=31
num_cat=0
split_feature=0 0 0 0 0 0 0 0 0 0 0 0 0 1 1 0 1 0 1 0 1 0 0 0 0 0 0 0 0 1
split_gain=15982 3133 3132.41 842.483 564.112 404.655 398.631 131.284 102.295 58.4816 52.5439 51.673 37.7726 31.512 30.4371 29.5695 25.9899 19.9188 16.6727 34.0527 14.1335 14.0362 20.731 11.8264 11.7238 10.6639 10.0421 9.51322 9.01344 8.89384
threshold=244.50000000000003 536.50000000000011 24.500000000000004 763.50000000000011 410.50000000000006 -107.49999999999999 150.50000000000003 861.00000000000011 330.50000000000006 640.50000000000011 455.50000000000006 84.500000000000014 -230.49999999999997 1.0000000180025095e-35 1.0000000180025095e-35 -66.499999999999986 1.0000000180025095e-35 179.50000000000003 1.0000000180025095e-35 504.50000000000006 1.0000000180025095e-35 446.50000000000006 427.50000000000006 479.50000000000006 299.50000000000006 594.50000000000011 342.50000000000006 380.50000000000006 492.50000000000006 1.0000000180025095e-35
decision_type=2 2 2 2 2 2 2 2 2 2 2 2 2 2 2 2 2 2 2 2 2 2 2 2 2 2 2 2 2 2
left_child=2 4 5 9 8 12 11 16 24 13 20 -4 -1 25 26 -7 -5 -8 -12 23 21 22 -6 -20 -2 -3 -10 -28 -25 -26
right_child=1 3 6 7 10 15 17 -9 14 -11 18 -13 -14 -15 -16 -17 -18 -19 19 -21 -22 -23 -24 28 29 -27 27 -29 -30 -31
leaf_value=-0.0054995377921641386 0.0062363924010348628 0.018964244818790759 -0.00075921805148189425 0.034124495342805768 0.011495866399369579 -0.003551932392919825 0.0023081228912287953 0.045122706426095366 0.01181389516957526 0.023336974428324352 0.015938127162264226 0.00062862028070978027 -0.0046178299021901771 0.015221893811225891 0.0075808798799897048 -0.0024590424913728212 0.023396400386398591 0.0034984021597832655 0.017673605800967437 0.007171436618599627 0.010062890986120829 0.0095922127502120064 0.015459314660670668 0.010360485773961075 0.0080404557986938838 0.021556672555299965 0.0090033574860348409 0.010753591726032517 0.01633858136919349 0.0063164734997370707
leaf_weight=10802 2705 400 5414 138 268 3482 2119 158 265 493 792 5318 8831 175 741 8566 27 4178 98 72 279 115 260 61 803 263 804 506 43 477
leaf_count=10802 2705 400 5414 138 268 3482 2119 158 265 493 792 5318 8831 175 741 8566 27 4178 98 72 279 115 260 61 803 263 804 506 43 477
internal_value=0 0.0115537 -0.00235841 0.0241199 0.00904619 -0.00421761 0.00110047 0.0386076 0.00758086 0.0206041 0.0136906 -7.15061e-05 -0.00510294 0.0189963 0.00925222 -0.0027749 0.032369 0.00309786 0.0152025 0.0130763 0.0119425 0.012758 0.0134476 0.015181 0.00660951 0.0199926 0.0100385 0.0096794 0.0128322 0.007398
internal_weight=0 9943 48710 1654 8289 31681 17029 323 6301 1331 1988 10732 19633 838 2316 12048 165 6297 1066 274 922 643 528 202 3985 663 1575 1310 104 1280
internal_count=58653 9943 48710 1654 8289 31681 17029 323 6301 1331 1988 10732 19633 838 2316 12048 165 6297 1066 274 922 643 528 202 3985 663 1575 1310 104 1280
is_linear=0
shrinkage=0.01


Tree=6
num_leaves=31
num_cat=0
split_feature=0 0 0 0 0 0 0 0 0 0 0 0 0 1 1 0 1 0 1 0 1 0 0 0 0 0 0 0 1 0
split_gain=15663.9 3070.66 3070.08 825.718 552.886 396.629 390.698 128.672 100.26 57.3178 51.4982 50.6447 39.5825 30.8849 29.8314 25.5284 25.4727 19.5224 16.3409 33.375 13.8522 13.7568 20.3185 11.591 11.4905 10.4517 9.8423 9.32391 8.90846 8.83407
threshold=244.50000000000003 536.50000000000011 24.500000000000004 763.50000000000011 410.50000000000006 -104.49999999999999 150.50000000000003 861.00000000000011 330.50000000000006 640.50000000000011 455.50000000000006 84.500000000000014 -230.49999999999997 1.0000000180025095e-35 1.0000000180025095e-35 -66.499999999999986 1.0000000180025095e-35 179.50000000000003 1.0000000180025095e-35 504.50000000000006 1.0000000180025095e-35 446.50000000000006 427.50000000000006 479.50000000000006 299.50000000000006 594.50000000000011 342.50000000000006 380.50000000000006 1.0000000180025095e-35 492.50000000000006
decision_type=2 2 2 2 2 2 2 2 2 2 2 2 2 2 2 2 2 2 2 2 2 2 2 2 2 2 2 2 2 2
left_child=2 4 5 9 8 12 11 16 24 13 20 -4 -1 25 26 28 -5 -8 -12 23 21 22 -6 -20 -2 -3 -10 -28 -7 -25
right_child=1 3 6 7 10 15 17 -9 14 -11 18 -13 -14 -15 -16 -17 -18 -19 19 -21 -22 -23 -24 29 -26 -27 27 -29 -30 -31
leaf_value=-0.0054445426087441143 0.0061740286026852357 0.01877460217163025 -0.00075162602699660019 0.033783249669890526 0.011380907496048221 -0.0039318818905703249 0.0022850417006858516 0.044671479938728623 0.011695755983263537 0.023103604288266414 0.015778745818917576 0.00062233408388162289 -0.0045499140911769691 0.015069674603534595 0.0075050706274847672 -0.0024344521531896196 0.023162436096204653 0.003463418381375026 0.017496870130452577 0.0070997223718505765 0.0099622624957646944 0.0094962911696537672 0.015304721106936297 0.010256880727581312 0.0073240228856575416 0.021341106231844924 0.0089133238734733031 0.010646055638909767 -0.0028613264687922298 0.016175195286267027
leaf_weight=10802 2705 400 5414 138 268 1851 2119 158 265 493 792 5318 9122 175 741 8566 27 4178 98 72 279 115 260 61 1280 263 804 506 1340 43
leaf_count=10802 2705 400 5414 138 268 1851 2119 158 265 493 792 5318 9122 175 741 8566 27 4178 98 72 279 115 260 61 1280 263 804 506 1340 43
internal_value=0 0.0114381 -0.00233483 0.0238787 0.00895573 -0.00417543 0.00108946 0.0382216 0.00750505 0.0203981 0.0135537 -7.07912e-05 -0.00503495 0.0188064 0.00915969 -0.00271886 0.0320453 0.00306688 0.0150505 0.0129455 0.0118231 0.0126305 0.0133131 0.0150292 0.00654341 0.0197927 0.00993815 0.00958261 -0.00348232 0.0127039
internal_weight=0 9943 48710 1654 8289 31681 17029 323 6301 1331 1988 10732 19924 838 2316 11757 165 6297 1066 274 922 643 528 202 3985 663 1575 1310 3191 104
internal_count=58653 9943 48710 1654 8289 31681 17029 323 6301 1331 1988 10732 19924 838 2316 11757 165 6297 1066 274 922 643 528 202 3985 663 1575 1310 3191 104
is_linear=0
shrinkage=0.01


Tree=7
num_leaves=31
num_cat=0
split_feature=0 0 0 0 0 0 0 0 0 0 0 0 0 1 1 0 1 0 1 0 1 0 0 0 0 0 0 1 0 0
split_gain=15352.2 3009.55 3008.98 809.286 541.884 388.797 382.923 126.111 98.2645 56.1771 50.4734 49.6369 36.266 30.2703 29.2378 28.515 24.9658 19.1339 16.0157 32.7108 13.5766 13.4831 19.9141 11.3604 11.2619 10.2437 9.64643 9.61405 9.13836 9.13254
threshold=244.50000000000003 536.50000000000011 24.500000000000004 763.50000000000011 410.50000000000006 -107.49999999999999 150.50000000000003 861.00000000000011 330.50000000000006 640.50000000000011 455.50000000000006 84.500000000000014 -230.49999999999997 1.0000000180025095e-35 1.0000000180025095e-35 -77.499999999999986 1.0000000180025095e-35 179.50000000000003 1.0000000180025095e-35 504.50000000000006 1.0000000180025095e-35 446.50000000000006 427.50000000000006 479.50000000000006 299.50000000000006 594.50000000000011 342.50000000000006 1.0000000180025095e-35 380.50000000000006 -28.499999999999996
decision_type=2 2 2 2 2 2 2 2 2 2 2 2 2 2 2 2 2 2 2 2 2 2 2 2 2 2 2 2 2 2
left_child=2 4 5 9 8 12 11 16 24 13 20 -4 -1 25 26 27 -5 -8 -12 23 21 22 -6 -20 -2 -3 -10 -7 -28 -17
right_child=1 3 6 7 10 15 17 -9 14 -11 18 -13 -14 -15 -16 29 -18 -19 19 -21 -22 -23 -24 -25 -26 -27 28 -29 -30 -31
leaf_value=-0.0053900972619765957 0.0061122883832195772 0.018586856633890422 -0.00074410955179764812 0.033445417624560818 0.011267098568226974 -0.004204693448460476 0.0022621911464233975 0.044224764766360204 0.011578798605867151 0.022872568418547647 0.015620958790114865 0.00061611070367183652 -0.0045261523416997738 0.014918978193721602 0.0074300202472178155 -0.0028029468673100573 0.022930811770536283 0.0034287839355268204 0.017321900877512383 0.0070287252267977841 0.0098626397737038175 0.0094013283771017322 0.015151674390143643 0.012576837427376841 0.0072507829461974328 0.021127695125410823 0.0088241906882268357 -0.0029499442613839595 0.010539595356777958 -0.0021828766410500341
leaf_weight=10802 2705 400 5414 138 268 1435 2119 158 265 493 792 5318 8831 175 741 4433 27 4178 98 72 279 115 260 104 1280 263 804 1063 506 5117
leaf_count=10802 2705 400 5414 138 268 1435 2119 158 265 493 792 5318 8831 175 741 4433 27 4178 98 72 279 115 260 104 1280 263 804 1063 506 5117
internal_value=0 0.0113238 -0.00231148 0.0236399 0.00886617 -0.00413368 0.00107857 0.0378394 0.00743 0.0201941 0.0134181 -7.00832e-05 -0.00500149 0.0186183 0.0090681 -0.00271952 0.0317248 0.00303621 0.0149 0.0128161 0.0117048 0.0125042 0.01318 0.0148789 0.00647798 0.0195948 0.00983877 -0.00367075 0.00948678 -0.00247071
internal_weight=0 9943 48710 1654 8289 31681 17029 323 6301 1331 1988 10732 19633 838 2316 12048 165 6297 1066 274 922 643 528 202 3985 663 1575 2498 1310 9550
internal_count=58653 9943 48710 1654 8289 31681 17029 323 6301 1331 1988 10732 19633 838 2316 12048 165 6297 1066 274 922 643 528 202 3985 663 1575 2498 1310 9550
is_linear=0
shrinkage=0.01


Tree=8
num_leaves=31
num_cat=0
split_feature=0 0 0 0 0 0 0 0 0 0 0 0 0 1 1 0 1 0 1 0 1 0 0 1 0 0 0 0 0 0
split_gain=15046.7 2949.66 2949.1 793.181 531.1 381.06 375.303 123.601 96.3091 55.0592 49.469 48.7096 35.727 29.6679 28.6559 27.9475 24.4689 18.7532 15.697 32.0599 13.3064 13.2148 19.5178 12.3954 14.0153 11.1343 11.0378 10.9797 10.0398 9.45447
threshold=244.50000000000003 536.50000000000011 24.500000000000004 763.50000000000011 410.50000000000006 -107.49999999999999 150.50000000000003 861.00000000000011 330.50000000000006 640.50000000000011 455.50000000000006 75.500000000000014 -289.49999999999994 1.0000000180025095e-35 1.0000000180025095e-35 -77.499999999999986 1.0000000180025095e-35 179.50000000000003 1.0000000180025095e-35 504.50000000000006 1.0000000180025095e-35 446.50000000000006 427.50000000000006 1.0000000180025095e-35 117.50000000000001 479.50000000000006 299.50000000000006 -172.49999999999997 594.50000000000011 342.50000000000006
decision_type=2 2 2 2 2 2 2 2 2 2 2 2 2 2 2 2 2 2 2 2 2 2 2 2 2 2 2 2 2 2
left_child=2 4 5 9 8 12 11 16 26 13 20 -4 -1 28 29 -7 -5 -8 -12 25 21 22 -6 24 -13 -20 -2 -14 -3 -10
right_child=1 3 6 7 10 15 17 -9 14 -11 18 23 27 -15 -16 -17 -18 -19 19 -21 -22 -23 -24 -25 -26 -27 -28 -29 -30 -31
leaf_value=-0.0054782943640850554 0.0060511654178466035 0.018400987785239704 -0.00083869834561976612 0.033110963359316542 0.01115442745992219 -0.0036340393284891243 0.0022395692295128933 0.043782516863149927 0.011463010871431456 0.022643842779507987 0.015464748710186944 0.00036276570044873669 -0.004862477144305744 0.014769788091044341 0.0073557201049990664 -0.0024459991583771303 0.022701503965589735 0.0033944963480862169 0.017148681707129035 0.0069584378060497136 0.0097640133293939741 0.0093073147156316309 0.015000157392941988 -1.2267258643414679e-05 0.0016368930605488519 0.012451069293579517 0.0071782750893253254 -0.0042449597181730995 0.02091641812900457 0.0093919144486439704
leaf_weight=7775 2705 400 4658 138 268 2498 2119 158 265 493 792 2034 6934 175 741 9550 27 4178 98 72 279 115 260 2540 1500 104 1280 4924 263 1310
leaf_count=7775 2705 400 4658 138 268 2498 2119 158 265 493 792 2034 6934 175 741 9550 27 4178 98 72 279 115 260 2540 1500 104 1280 4924 263 1310
internal_value=0 0.0112105 -0.00228836 0.0234035 0.00877751 -0.00409234 0.00106778 0.037461 0.0073557 0.0199921 0.013284 -6.93823e-05 -0.00495148 0.0184321 0.00897742 -0.00269232 0.0314076 0.00300585 0.014751 0.0126879 0.0115878 0.0123791 0.0130482 0.000520587 0.000903567 0.0147301 0.0064132 -0.00460605 0.0193988 0.00974038
internal_weight=0 9943 48710 1654 8289 31681 17029 323 6301 1331 1988 10732 19633 838 2316 12048 165 6297 1066 274 922 643 528 6074 3534 202 3985 11858 663 1575
internal_count=58653 9943 48710 1654 8289 31681 17029 323 6301 1331 1988 10732 19633 838 2316 12048 165 6297 1066 274 922 643 528 6074 3534 202 3985 11858 663 1575
is_linear=0
shrinkage=0.01


Tree=9
num_leaves=31
num_cat=0
split_feature=0 0 0 0 0 0 0 0 0 0 0 0 0 1 1 0 1 0 1 0 1 0 0 0 0 0 0 1 0 0
split_gain=14747.3 2890.96 2890.42 777.397 520.532 373.477 367.834 121.142 94.3925 53.9636 48.4846 47.7453 35.0161 29.0775 28.0857 27.4257 23.982 18.38 15.3847 31.4219 13.0416 12.9518 19.1294 10.9127 10.8181 10.7612 9.84004 9.50477 9.41906 9.26632
threshold=244.50000000000003 536.50000000000011 24.500000000000004 763.50000000000011 410.50000000000006 -107.49999999999999 150.50000000000003 861.00000000000011 330.50000000000006 640.50000000000011 455.50000000000006 84.500000000000014 -289.49999999999994 1.0000000180025095e-35 1.0000000180025095e-35 -74.499999999999986 1.0000000180025095e-35 179.50000000000003 1.0000000180025095e-35 504.50000000000006 1.0000000180025095e-35 446.50000000000006 427.50000000000006 479.50000000000006 299.50000000000006 -172.49999999999997 594.50000000000011 1.0000000180025095e-35 -667.49999999999989 342.50000000000006
decision_type=2 2 2 2 2 2 2 2 2 2 2 2 2 2 2 2 2 2 2 2 2 2 2 2 2 2 2 2 2 2
left_child=2 4 5 9 8 12 11 16 24 13 20 -4 28 26 29 27 -5 -8 -12 23 21 22 -6 -20 -2 -14 -3 -7 -1 -10
right_child=1 3 6 7 10 15 17 -9 14 -11 18 -13 25 -15 -16 -17 -18 -19 19 -21 -22 -23 -24 -25 -26 -27 -28 -29 -30 -31
leaf_value=-0.0043247149282764595 0.0059906536373800414 0.018216978391190061 -0.0007297473146521587 0.032779853767782884 0.011042883019414799 -0.0040406183291015378 0.0022171736508948482 0.043344692089889628 0.011348380261746605 0.022417404960055079 0.015310101292990947 0.00060430378310299005 -0.0048138525292899473 0.014622090553385871 0.0072821629853785921 -0.002404705090939117 0.022474488483534918 0.0033605510544864655 0.016977194849097609 0.006888853384104247 0.0096663734143913656 0.0092142419526758407 0.014850156130515433 0.012326558576213967 0.0071064922391087752 -0.0042025102017726676 0.020707253804961537 -0.0028550972953003666 -0.005533764503031508 0.0092979951312175402
leaf_weight=709 2705 400 5414 138 268 1597 2119 158 265 493 792 5318 6934 175 741 9278 27 4178 98 72 279 115 260 104 1280 4924 263 1173 7066 1310
leaf_count=709 2705 400 5414 138 268 1597 2119 158 265 493 792 5318 6934 175 741 9278 27 4178 98 72 279 115 260 104 1280 4924 263 1173 7066 1310
internal_value=0 0.0110984 -0.00226548 0.0231695 0.00868974 -0.00405142 0.0010571 0.0370864 0.00728215 0.0197922 0.0131511 -6.86884e-05 -0.00490196 0.0182478 0.00888764 -0.0026654 0.0310935 0.00297579 0.0146035 0.012561 0.0114719 0.0122553 0.0129177 0.0145828 0.00634907 -0.00455999 0.0192048 -0.00353859 -0.00542351 0.00964298
internal_weight=0 9943 48710 1654 8289 31681 17029 323 6301 1331 1988 10732 19633 838 2316 12048 165 6297 1066 274 922 643 528 202 3985 11858 663 2770 7775 1575
internal_count=58653 9943 48710 1654 8289 31681 17029 323 6301 1331 1988 10732 19633 838 2316 12048 165 6297 1066 274 922 643 528 202 3985 11858 663 2770 7775 1575
is_linear=0
shrinkage=0.01


Tree=10
num_leaves=31
num_cat=0
split_feature=0 0 0 0 0 0 0 0 0 0 0 0 0 1 1 0 1 0 1 0 1 0 0 0 0 0 1 0 0 0
split_gain=14453.8 2833.43 2833.21 761.927 510.173 394.718 335.775 118.731 92.5141 52.8897 47.5197 38.8207 36.6171 28.4989 27.5268 27.4984 23.5048 18.0142 15.0785 30.7966 12.7821 12.6941 18.7488 10.6956 10.6028 10.35 10.8022 9.64423 9.08193 8.95651
threshold=244.50000000000003 536.50000000000011 30.500000000000004 763.50000000000011 410.50000000000006 -104.49999999999999 150.50000000000003 861.00000000000011 330.50000000000006 640.50000000000011 455.50000000000006 84.500000000000014 -230.49999999999997 1.0000000180025095e-35 1.0000000180025095e-35 -28.499999999999996 1.0000000180025095e-35 179.50000000000003 1.0000000180025095e-35 504.50000000000006 1.0000000180025095e-35 446.50000000000006 427.50000000000006 479.50000000000006 299.50000000000006 -80.499999999999986 1.0000000180025095e-35 594.50000000000011 342.50000000000006 380.50000000000006
decision_type=2 2 2 2 2 2 2 2 2 2 2 2 2 2 2 2 2 2 2 2 2 2 2 2 2 2 2 2 2 2
left_child=2 4 5 9 8 12 11 16 24 13 20 -4 -1 27 28 25 -5 -8 -12 23 21 22 -6 -20 -2 26 -7 -3 -10 -30
right_child=1 3 6 7 10 15 17 -9 14 -11 18 -13 -14 -15 -16 -17 -18 -19 19 -21 -22 -23 -24 -25 -26 -27 -28 -29 29 -31
leaf_value=-0.0052306120764280331 0.0059307473787414723 0.018034808223485015 -0.00063837171320798951 0.032452055639114935 0.010932454661563484 -0.004233169126646126 0.002195001760854352 0.042911245153297355 0.011234896799198018 0.022193230775885784 0.015157000557537135 0.00059826052994113566 -0.0043701470048909102 0.014475869299152068 0.0072093409990612789 -0.0020480512235415459 0.022249744413075624 0.0033269456406661152 0.016807422960101039 0.0068199647713400834 0.0095697095101585743 0.0091220989757136491 0.014701654541377838 0.01220329273895074 0.0070354272451222648 -0.0027398455847849447 -0.0027314406580834774 0.020500181275826014 0.0085490495441840567 0.01024729992042152
leaf_weight=10802 2705 400 4857 138 268 1144 2119 158 265 493 792 5318 9122 175 741 5674 27 4178 98 72 279 115 260 104 1280 4672 824 263 804 506
leaf_count=10802 2705 400 4857 138 268 1144 2119 158 265 493 792 5318 9122 175 741 5674 27 4178 98 72 279 115 260 104 1280 4672 824 263 804 506
internal_value=0 0.0109874 -0.00224283 0.0229378 0.00860284 -0.00396675 0.00113114 0.0367155 0.00720933 0.0195943 0.0130196 7.95853e-06 -0.00483666 0.0180653 0.00879876 -0.00255925 0.0307826 0.00294604 0.0144575 0.0124354 0.0113572 0.0121328 0.0127885 0.014437 0.00628558 -0.00299609 -0.0036044 0.0190128 0.00954655 0.00920501
internal_weight=0 9943 48710 1654 8289 32238 16472 323 6301 1331 1988 10175 19924 838 2316 12314 165 6297 1066 274 922 643 528 202 3985 6640 1968 663 1575 1310
internal_count=58653 9943 48710 1654 8289 32238 16472 323 6301 1331 1988 10175 19924 838 2316 12314 165 6297 1066 274 922 643 528 202 3985 6640 1968 663 1575 1310
is_linear=0
shrinkage=0.01


Tree=11
num_leaves=31
num_cat=0
split_feature=0 0 0 0 0 0 0 0 0 0 0 0 0 1 1 0 1 0 1 0 1 0 0 1 0 0 0 0 0 0
split_gain=14166.2 2777.05 2776.85 746.764 500.021 358.752 353.267 116.368 90.673 51.8372 46.5741 46.0392 33.8066 27.9317 26.979 26.404 23.037 17.6557 14.7784 30.1838 12.5277 12.4414 18.3757 12.1534 13.6128 10.4827 10.4165 10.3918 9.45231 9.23162
threshold=244.50000000000003 536.50000000000011 24.500000000000004 763.50000000000011 410.50000000000006 -107.49999999999999 150.50000000000003 861.00000000000011 330.50000000000006 640.50000000000011 455.50000000000006 75.500000000000014 -289.49999999999994 1.0000000180025095e-35 1.0000000180025095e-35 -66.499999999999986 1.0000000180025095e-35 179.50000000000003 1.0000000180025095e-35 504.50000000000006 1.0000000180025095e-35 446.50000000000006 427.50000000000006 1.0000000180025095e-35 117.50000000000001 479.50000000000006 -172.49999999999997 299.50000000000006 594.50000000000011 -667.49999999999989
decision_type=2 2 2 2 2 2 2 2 2 2 2 2 2 2 2 2 2 2 2 2 2 2 2 2 2 2 2 2 2 2
left_child=2 4 5 9 8 12 11 16 27 13 20 -4 29 28 -10 -7 -5 -8 -12 25 21 22 -6 24 -13 -20 -14 -2 -3 -1
right_child=1 3 6 7 10 15 17 -9 14 -11 18 23 26 -15 -16 -17 -18 -19 19 -21 -22 -23 -24 -25 -26 -27 -28 -29 -30 -31
leaf_value=-0.0042291615589039747 0.0058714396459448176 0.017854460226208898 -0.00081494457109638899 0.032127534998175888 0.010823129796103311 -0.0033467448983767866 0.0021730519081139565 0.042482132248674767 0.009451085250100329 0.021971297690542849 0.01500543038340784 0.00035279975177476602 -0.0047182562249951524 0.014331110749046496 0.0071372477111485812 -0.0023140090839215842 0.022027246554692587 0.0032936764031913008 0.016639349263408508 0.0067517650370589564 0.0094740125039211847 0.0090308784023079135 0.014554637555176249 -2.1073191916188738e-05 0.0016084984567443219 0.012081259830604093 -0.0041167835125871617 0.0069650730832581751 0.020295179455962473 -0.005426120650188767
leaf_weight=709 2705 400 4658 138 268 3482 2119 158 1575 493 792 2034 6934 175 741 8566 27 4178 98 72 279 115 260 2540 1500 104 4924 1280 263 7066
leaf_count=709 2705 400 4658 138 268 3482 2119 158 1575 493 792 2034 6934 175 741 8566 27 4178 98 72 279 115 260 2540 1500 104 4924 1280 263 7066
internal_value=0 0.0108776 -0.0022204 0.0227084 0.00851681 -0.0039709 0.00103626 0.0363483 0.00713723 0.0193984 0.0128894 -6.70141e-05 -0.00480451 0.0178847 0.00871078 -0.00261248 0.0304748 0.00291658 0.0143129 0.0123111 0.0112436 0.0120114 0.0126606 0.000506555 0.000885779 0.0142926 -0.0044685 0.00622272 0.0188226 -0.00531697
internal_weight=0 9943 48710 1654 8289 31681 17029 323 6301 1331 1988 10732 19633 838 2316 12048 165 6297 1066 274 922 643 528 6074 3534 202 11858 3985 663 7775
internal_count=58653 9943 48710 1654 8289 31681 17029 323 6301 1331 1988 10732 19633 838 2316 12048 165 6297 1066 274 922 643 528 6074 3534 202 11858 3985 663 7775
is_linear=0
shrinkage=0.01


Tree=12
num_leaves=31
num_cat=0
split_feature=0 0 0 0 0 0 0 0 0 0 0 0 0 1 0 1 1 0 1 0 1 0 0 1 0 0 0 0 0 1
split_gain=13884.3 2721.91 2721.78 731.904 490.07 379.115 322.468 114.053 88.8686 50.8056 45.6473 37.3944 35.2181 27.3759 26.5829 26.4421 22.5786 17.3044 14.4843 29.5831 12.2784 12.1939 18.01 11.5094 11.2554 14.5752 10.2741 10.185 9.96415 10.5872
threshold=244.50000000000003 30.500000000000004 536.50000000000011 763.50000000000011 410.50000000000006 -104.49999999999999 150.50000000000003 861.00000000000011 330.50000000000006 640.50000000000011 455.50000000000006 111.50000000000001 -230.49999999999997 1.0000000180025095e-35 -28.499999999999996 1.0000000180025095e-35 1.0000000180025095e-35 179.50000000000003 1.0000000180025095e-35 504.50000000000006 1.0000000180025095e-35 446.50000000000006 427.50000000000006 1.0000000180025095e-35 57.500000000000007 60.500000000000007 479.50000000000006 299.50000000000006 -80.499999999999986 1.0000000180025095e-35
decision_type=2 2 2 2 2 2 2 2 2 2 2 2 2 2 2 2 2 2 2 2 2 2 2 2 2 2 2 2 2 2
left_child=1 5 4 9 8 12 11 16 27 13 20 24 -1 -4 28 -10 -5 -8 -12 26 21 22 -6 -13 -3 -26 -20 -2 29 -7
right_child=2 6 3 7 10 14 17 -9 15 -11 18 23 -14 -15 -16 -17 -18 -19 19 -21 -22 -23 -24 -25 25 -27 -28 -29 -30 -31
leaf_value=-0.0051268140037109122 0.0058127254829457974 -0.00092413614529741374 0.018634422294758465 0.031806258721466085 0.010714898295448607 -0.0041573704337583969 0.0021513212176354941 0.042057311124628106 0.0093565743310421341 0.021751585082612879 0.014855376036527257 0.0014490605589338027 -0.004282947150554722 0.014187799385402884 -0.002005902469004867 0.0070658749939217745 0.021806973671471632 0.0032607394369528406 0.016472955648312155 0.0066842473882974852 0.0093792724334985332 0.0089405695494750269 0.014409091655881359 0.00020917285051662114 0.0023372725748808253 -0.00022509071451243056 0.011960447553966122 0.0068954223456385083 -0.0026866036556474349 -0.0026706586992232472
leaf_weight=10802 2705 2541 663 138 268 1144 2119 158 1575 493 792 1786 9122 175 5674 741 27 4178 98 72 279 115 260 1289 234 4325 104 1280 4672 824
leaf_count=10802 2705 2541 663 138 268 1144 2119 158 1575 493 792 1786 9122 175 5674 741 27 4178 98 72 279 115 260 1289 234 4325 104 1280 4672 824
internal_value=0 -0.00219819 0.0107688 0.0224813 0.00843164 -0.00388792 0.00110884 0.0359849 0.00706586 0.0192044 0.0127605 8.1396e-06 -0.00474046 0.0177058 -0.00250852 0.00862367 0.03017 0.00288741 0.0141698 0.012188 0.0111312 0.0118913 0.012534 0.000929316 -0.00039082 -9.35722e-05 0.0141497 0.00616049 -0.00293802 -0.00353489
internal_weight=0 48710 9943 1654 8289 32238 16472 323 6301 1331 1988 10175 19924 838 12314 2316 165 6297 1066 274 922 643 528 3075 7100 4559 202 3985 6640 1968
internal_count=58653 48710 9943 1654 8289 32238 16472 323 6301 1331 1988 10175 19924 838 12314 2316 165 6297 1066 274 922 643 528 3075 7100 4559 202 3985 6640 1968
is_linear=0
shrinkage=0.01


Tree=13
num_leaves=31
num_cat=0
split_feature=0 0 0 0 0 0 0 0 0 0 0 0 0 1 1 0 1 0 1 0 1 0 0 1 0 0 0 0 0 0
split_gain=13608 2667.75 2667.62 717.339 480.318 344.607 339.277 111.783 87.1002 49.7946 44.7389 44.4016 32.6986 26.8311 25.9159 25.3651 22.1293 16.96 14.1961 28.9944 12.0341 11.9512 17.6516 11.7461 13.0348 10.7587 10.0696 9.98236 9.57157 9.26421
threshold=244.50000000000003 24.500000000000004 536.50000000000011 763.50000000000011 410.50000000000006 -107.49999999999999 150.50000000000003 861.00000000000011 330.50000000000006 640.50000000000011 455.50000000000006 75.500000000000014 -300.49999999999994 1.0000000180025095e-35 1.0000000180025095e-35 -66.499999999999986 1.0000000180025095e-35 179.50000000000003 1.0000000180025095e-35 504.50000000000006 1.0000000180025095e-35 446.50000000000006 427.50000000000006 1.0000000180025095e-35 117.50000000000001 -172.49999999999997 479.50000000000006 299.50000000000006 -667.49999999999989 594.50000000000011
decision_type=2 2 2 2 2 2 2 2 2 2 2 2 2 2 2 2 2 2 2 2 2 2 2 2 2 2 2 2 2 2
left_child=1 5 4 9 8 12 11 16 27 13 20 -3 28 29 -10 -7 -5 -8 -12 26 21 22 -6 24 -13 -14 -20 -2 -1 -4
right_child=2 6 3 7 10 15 17 -9 14 -11 18 23 25 -15 -16 -17 -18 -19 19 -21 -22 -23 -24 -25 -26 -27 -28 -29 -30 -31
leaf_value=-0.004135601805813338 0.0057545979581816323 -0.00079988860368384413 0.017489571498794248 0.031488197124647517 0.010607749390183017 -0.0032802828611237468 0.0021298078832921096 0.041636738042476813 0.0092630086023951803 0.021534069356585063 0.014706822529892588 0.00034916875645955116 -0.0046358190828571684 0.014045921350430167 0.0069952167470797438 -0.0022680692510335691 0.021588904625839657 0.0032281321671775716 0.016308225766964713 0.0066174049718150255 0.0092854793170487043 0.0088511638592766693 0.014265000638301269 -2.0815370809726826e-05 0.0015779228499368764 -0.0040327862465480277 0.011840842985951054 0.0068264681995433424 -0.0053584253863420486 0.019905883921549333
leaf_weight=709 2705 4658 400 138 268 3482 2119 158 1575 493 792 2034 7412 175 741 8566 27 4178 98 72 279 115 260 2540 1500 4924 104 1280 6588 263
leaf_count=709 2705 4658 400 138 268 3482 2119 158 1575 493 792 2034 7412 175 741 8566 27 4178 98 72 279 115 260 2540 1500 4924 104 1280 6588 263
internal_value=0 -0.00217621 0.0106611 0.0222565 0.00834733 -0.00389198 0.00101583 0.035625 0.0069952 0.0190123 0.0126329 -6.538e-05 -0.00470899 0.0175288 0.00853743 -0.00256061 0.0298683 0.00285854 0.0140281 0.0120661 0.0110199 0.0117724 0.0124087 0.000497896 0.000870711 -0.00439511 0.0140082 0.00609889 -0.00523961 0.0184481
internal_weight=0 48710 9943 1654 8289 31681 17029 323 6301 1331 1988 10732 19633 838 2316 12048 165 6297 1066 274 922 643 528 6074 3534 12336 202 3985 7297 663
internal_count=58653 48710 9943 1654 8289 31681 17029 323 6301 1331 1988 10732 19633 838 2316 12048 165 6297 1066 274 922 643 528 6074 3534 12336 202 3985 7297 663
is_linear=0
shrinkage=0.01


Tree=14
num_leaves=31
num_cat=0
split_feature=0 0 0 0 0 0 0 0 0 0 0 0 0 1 0 1 1 0 1 0 1 0 0 0 0 0 1 0 0 0
split_gain=13337.2 2614.99 2614.54 703.064 470.759 364.128 309.689 109.558 85.3669 48.8037 43.8486 36.024 33.8785 26.2972 25.699 25.4002 21.6889 16.6225 13.9136 28.4174 11.7946 11.7134 17.3003 9.86927 9.78371 9.59284 10.3765 9.07985 8.9012 8.77828
threshold=244.50000000000003 30.500000000000004 536.50000000000011 763.50000000000011 410.50000000000006 -104.49999999999999 150.50000000000003 861.00000000000011 330.50000000000006 640.50000000000011 455.50000000000006 84.500000000000014 -230.49999999999997 1.0000000180025095e-35 -28.499999999999996 1.0000000180025095e-35 1.0000000180025095e-35 179.50000000000003 1.0000000180025095e-35 504.50000000000006 1.0000000180025095e-35 446.50000000000006 427.50000000000006 479.50000000000006 299.50000000000006 -80.499999999999986 1.0000000180025095e-35 594.50000000000011 342.50000000000006 380.50000000000006
decision_type=2 2 2 2 2 2 2 2 2 2 2 2 2 2 2 2 2 2 2 2 2 2 2 2 2 2 2 2 2 2
left_child=1 5 4 9 8 12 11 16 24 13 20 -3 -1 27 25 28 -5 -8 -12 23 21 22 -6 -20 -2 26 -7 -4 -10 -30
right_child=2 6 3 7 10 14 17 -9 15 -11 18 -13 -14 -15 -16 -17 -18 -19 19 -21 -22 -23 -24 -25 -26 -27 -28 -29 29 -31
leaf_value=-0.0050251090443458411 0.005697052071025068 -0.00061430372197731015 0.017314675282291137 0.031173314306399098 0.010501671998010975 -0.0040829936924151964 0.002108509835029841 0.041220371324710452 0.010841840904206037 0.021318728256060102 0.014559754346467372 0.00057695129589386423 -0.0041974471410519401 0.013905462288750071 -0.0019646039459125016 0.0069252646849339884 0.021373014869513336 0.0031958508255581432 0.016145143730527892 0.0065512309710417565 0.0091926244251500141 0.0087626522089476171 0.014122350566554816 0.011722434507145619 0.006758203252990598 -0.0026344071787983399 -0.0026111492429672319 0.019706824554463303 0.0081828523045452094 0.0098641206096607478
leaf_weight=10802 2705 4857 400 138 268 1144 2119 158 265 493 792 5318 9122 175 5674 741 27 4178 98 72 279 115 260 104 1280 4672 824 263 804 506
leaf_count=10802 2705 4857 400 138 268 1144 2119 158 265 493 792 5318 9122 175 5674 741 27 4178 98 72 279 115 260 104 1280 4672 824 263 804 506
internal_value=0 -0.00215445 0.0105545 0.022034 0.00826385 -0.00381066 0.00108698 0.0352688 0.00692525 0.0188222 0.0125066 8.30996e-06 -0.00464617 0.0173535 -0.0024588 0.00845206 0.0295696 0.00282995 0.0138878 0.0119454 0.0109097 0.0116547 0.0122846 0.0138681 0.0060379 -0.0028811 -0.00346673 0.0182636 0.00917038 0.00883226
internal_weight=0 48710 9943 1654 8289 32238 16472 323 6301 1331 1988 10175 19924 838 12314 2316 165 6297 1066 274 922 643 528 202 3985 6640 1968 663 1575 1310
internal_count=58653 48710 9943 1654 8289 32238 16472 323 6301 1331 1988 10175 19924 838 12314 2316 165 6297 1066 274 922 643 528 202 3985 6640 1968 663 1575 1310
is_linear=0
shrinkage=0.01


Tree=15
num_leaves=31
num_cat=0
split_feature=0 0 0 0 0 0 0 0 0 0 0 0 0 1 0 1 1 0 1 0 1 0 0 1 0 0 0 0 0 0
split_gain=13071.8 2562.95 2562.51 689.073 461.391 356.882 303.526 107.378 83.6681 47.8325 42.976 35.5437 33.2358 25.7739 25.1876 24.8947 21.2573 16.3857 13.6367 27.8519 11.5599 11.4803 16.956 11.0242 10.8895 10.7011 14.4328 9.67287 9.58901 9.40194
threshold=244.50000000000003 30.500000000000004 536.50000000000011 763.50000000000011 410.50000000000006 -104.49999999999999 150.50000000000003 861.00000000000011 330.50000000000006 640.50000000000011 455.50000000000006 111.50000000000001 -289.49999999999994 1.0000000180025095e-35 -28.499999999999996 1.0000000180025095e-35 1.0000000180025095e-35 207.50000000000003 1.0000000180025095e-35 504.50000000000006 1.0000000180025095e-35 446.50000000000006 427.50000000000006 1.0000000180025095e-35 -172.49999999999997 57.500000000000007 60.500000000000007 479.50000000000006 299.50000000000006 -80.499999999999986
decision_type=2 2 2 2 2 2 2 2 2 2 2 2 2 2 2 2 2 2 2 2 2 2 2 2 2 2 2 2 2 2
left_child=1 5 4 9 8 12 11 16 28 13 20 25 -1 -4 29 -10 -5 -8 -12 27 21 22 -6 -13 -14 -3 -27 -20 -2 -7
right_child=2 6 3 7 10 14 17 -9 15 -11 18 23 24 -15 -16 -17 -18 -19 19 -21 -22 -23 -24 -25 -26 26 -28 -29 -30 -31
leaf_value=-0.005110256518046836 0.0056400817726048437 -0.00090075287452779068 0.018080961558596283 0.030861581427625559 0.010396655312593359 -0.0034320662324538037 0.0024152242408351223 0.040808166833712328 0.0090786747908308402 0.021105541799682184 0.014414156768964886 0.0014149888405591471 -0.0045326144942974969 0.013766407613895302 -0.0019449579995300956 0.0068560117051145496 0.021159285185513674 0.0034750359667666598 0.015983692223434241 0.0064857185298347357 0.0091006986387441174 0.0086750253809751363 0.013981127177347214 0.00020152003301309005 -0.0039277552316656864 0.0023280420606163863 -0.00022177342740802708 0.011605210048325647 0.0066906214390191968 -0.0026080630626913498
leaf_weight=7775 2705 2541 663 138 268 1968 4001 158 1575 493 792 1786 6934 175 5674 741 27 2296 98 72 279 115 260 1289 5215 234 4325 104 1280 4672
leaf_count=7775 2705 2541 663 138 268 1968 4001 158 1575 493 792 1786 6934 175 5674 741 27 2296 98 72 279 115 260 1289 5215 234 4325 104 1280 4672
internal_value=0 -0.00213291 0.0104489 0.0218136 0.00818121 -0.00377255 0.00107611 0.0349161 0.006856 0.018634 0.0123815 8.22684e-06 -0.00459971 0.01718 -0.00243421 0.00836754 0.0292739 0.00280165 0.0137489 0.011826 0.0108006 0.0115381 0.0121617 0.000906319 -0.00427298 -0.000380735 -9.08989e-05 0.0137294 0.00597752 -0.00285229
internal_weight=0 48710 9943 1654 8289 32238 16472 323 6301 1331 1988 10175 19924 838 12314 2316 165 6297 1066 274 922 643 528 3075 12149 7100 4559 202 3985 6640
internal_count=58653 48710 9943 1654 8289 32238 16472 323 6301 1331 1988 10175 19924 838 12314 2316 165 6297 1066 274 922 643 528 3075 12149 7100 4559 202 3985 6640
is_linear=0
shrinkage=0.01


Tree=16
num_leaves=31
num_cat=0
split_feature=0 0 0 0 0 0 0 0 0 0 0 0 0 1 0 1 0 0 1 1 0 1 0 1 0 0 0 0 0 0
split_gain=12811.6 2512.23 2511.51 675.36 452.21 324.399 319.291 105.241 82.0031 46.9739 42.1208 42.0246 31.0252 24.3993 23.9012 20.8343 16.647 16.1159 14.1207 13.3654 27.2976 11.3553 12.427 11.3298 11.2518 16.6186 10.5238 9.67626 9.48038 9.39819
threshold=244.50000000000003 24.500000000000004 536.50000000000011 763.50000000000011 410.50000000000006 -107.49999999999999 150.50000000000003 861.00000000000011 330.50000000000006 670.50000000000011 455.50000000000006 75.500000000000014 -305.49999999999994 1.0000000180025095e-35 -77.499999999999986 1.0000000180025095e-35 594.50000000000011 179.50000000000003 1.0000000180025095e-35 1.0000000180025095e-35 504.50000000000006 1.0000000180025095e-35 117.50000000000001 1.0000000180025095e-35 446.50000000000006 427.50000000000006 -172.49999999999997 -667.49999999999989 479.50000000000006 299.50000000000006
decision_type=2 2 2 2 2 2 2 2 2 2 2 2 2 2 2 2 2 2 2 2 2 2 2 2 2 2 2 2 2 2
left_child=1 5 4 9 8 12 11 15 29 16 23 -3 27 -10 -7 -5 18 -8 -4 -12 28 22 -13 24 25 -6 -14 -1 -21 -2
right_child=2 6 3 7 10 14 17 -9 13 -11 19 21 26 -15 -16 -17 -18 -19 -20 20 -22 -23 -24 -25 -26 -27 -28 -29 -30 -31
leaf_value=-0.003992892228650147 0.0055836808691816942 -0.00077743070950315281 0.016960719019919634 0.030552965935211684 0.010292688695046662 -0.0033557179773801371 0.0020632725222710451 0.040400085987971179 0.008987888025409646 0.021726140999107829 0.014270014717976206 0.00034245925373397766 -0.0045036619069052167 0.0067874516733996216 -0.0022570414932043524 0.020947692325269735 0.018675643661896689 0.003133915879780604 0.012870846994081949 0.015823855174904956 0.0064208615331962293 -2.4872075045374996e-05 0.0015422241731973677 0.0090096912121794132 0.0085882750393255908 0.013841315630823374 -0.0039112065149778325 -0.0052247782240286943 0.011489157897919471 0.0066237151235181962
leaf_weight=709 2705 4658 400 138 268 2498 2119 158 1575 329 792 2034 7666 741 9550 27 495 4178 107 98 72 2540 1500 279 115 260 4924 6334 104 1280
leaf_count=709 2705 4658 400 138 268 2498 2119 158 1575 329 792 2034 7666 741 9550 27 495 4178 107 98 72 2540 1500 279 115 260 4924 6334 104 1280
internal_value=0 -0.00211158 0.0103444 0.0215955 0.0080994 -0.00377658 0.000986025 0.0345669 0.00678744 0.0184476 0.0122577 -6.2854e-05 -0.00456927 0.00828386 -0.00248484 0.0289812 0.0173712 0.00277363 0.0160976 0.0136114 0.0117077 0.000485137 0.000851697 0.0106926 0.0114228 0.0120401 -0.00427195 -0.00510077 0.0135921 0.00591774
internal_weight=0 48710 9943 1654 8289 31681 17029 323 6301 1331 1988 10732 19633 2316 12048 165 1002 6297 507 1066 274 6074 3534 922 643 528 12590 7043 202 3985
internal_count=58653 48710 9943 1654 8289 31681 17029 323 6301 1331 1988 10732 19633 2316 12048 165 1002 6297 507 1066 274 6074 3534 922 643 528 12590 7043 202 3985
is_linear=0
shrinkage=0.01


Tree=17
num_leaves=31
num_cat=0
split_feature=0 0 0 0 0 0 0 0 0 0 0 0 0 0 1 1 0 0 1 1 0 1 0 0 1 0 0 0 0 0
split_gain=12556.7 2462.27 2461.53 661.92 443.211 342.752 291.498 103.147 80.3712 46.0391 41.2826 34.2143 31.9939 24.4066 23.9138 20.4197 16.3157 15.8865 13.8397 13.0994 26.7544 11.1044 11.0279 16.2879 10.5589 10.3225 14.2208 9.29172 9.21116 8.98083
threshold=244.50000000000003 30.500000000000004 536.50000000000011 763.50000000000011 410.50000000000006 -104.49999999999999 150.50000000000003 861.00000000000011 330.50000000000006 670.50000000000011 455.50000000000006 111.50000000000001 -230.49999999999997 -28.499999999999996 1.0000000180025095e-35 1.0000000180025095e-35 594.50000000000011 207.50000000000003 1.0000000180025095e-35 1.0000000180025095e-35 504.50000000000006 1.0000000180025095e-35 446.50000000000006 427.50000000000006 1.0000000180025095e-35 57.500000000000007 60.500000000000007 479.50000000000006 299.50000000000006 -80.499999999999986
decision_type=2 2 2 2 2 2 2 2 2 2 2 2 2 2 2 2 2 2 2 2 2 2 2 2 2 2 2 2 2 2
left_child=1 5 4 9 8 12 11 15 28 16 21 25 -1 29 -10 -5 18 -8 -4 -12 27 22 23 -6 -13 -3 -27 -21 -2 -7
right_child=2 6 3 7 10 13 17 -9 14 -11 19 24 -14 -15 -16 -17 -18 -19 -20 20 -22 -23 -24 -25 -26 26 -28 -29 -30 -31
leaf_value=-0.0048764441973464436 0.0055278440636243546 -0.00088397087701198656 0.016791112009296196 0.03024743680342816 0.010189761947840452 -0.0033641883853479382 0.0023654031077996562 0.039996084167115108 0.0088980091928726156 0.021508879759363081 0.014127315011585715 0.0013873378588131777 -0.0040721321023514893 -0.001904390416442853 0.0067195771583299403 0.020738215024272599 0.018488887463103641 0.0034089466594102815 0.012742138510552524 0.015665616598360393 0.0063566528135238012 0.0089195945082519434 0.0085023925565183168 0.013702902449151644 0.00019975345493623045 0.0023125356365130563 -0.00021848431250102001 0.01137426654306742 0.0065574778906520807 -0.0025588501087114397
leaf_weight=10802 2705 2541 400 138 268 1968 4001 158 1575 329 792 1786 9122 5674 741 27 495 2296 107 98 72 279 115 260 1289 234 4325 104 1280 4672
leaf_count=10802 2705 2541 400 138 268 1968 4001 158 1575 329 792 1786 9122 5674 741 27 495 2296 107 98 72 279 115 260 1289 234 4325 104 1280 4672
internal_value=0 -0.00209046 0.010241 0.0213795 0.00801841 -0.00369758 0.00105489 0.0342212 0.00671956 0.0182632 0.0121351 8.38195e-06 -0.0045082 -0.002386 0.00820102 0.0286914 0.0171975 0.0027459 0.0159366 0.0134753 0.0115906 0.0105856 0.0113085 0.0119197 0.000889518 -0.000373237 -8.85745e-05 0.0134562 0.00585857 -0.00279754
internal_weight=0 48710 9943 1654 8289 32238 16472 323 6301 1331 1988 10175 19924 12314 2316 165 1002 6297 507 1066 274 922 643 528 3075 7100 4559 202 3985 6640
internal_count=58653 48710 9943 1654 8289 32238 16472 323 6301 1331 1988 10175 19924 12314 2316 165 1002 6297 507 1066 274 922 643 528 3075 7100 4559 202 3985 6640
is_linear=0
shrinkage=0.01


Tree=18
num_leaves=31
num_cat=0
split_feature=0 0 0 0 0 0 0 0 0 0 0 0 0 1 1 0 1 0 1 0 1 0 1 0 0 0 0 0 0 0
split_gain=12306.8 2413.53 2412.55 648.748 434.391 311.61 306.647 101.094 78.7718 45.1703 40.5329 40.461 29.9911 24.6726 23.4379 23.0421 20.0133 15.6248 12.8387 26.222 10.9761 11.8984 10.8834 10.8085 15.9638 10.1761 9.48371 9.10681 9.02787 8.72406
threshold=244.50000000000003 24.500000000000004 536.50000000000011 763.50000000000011 410.50000000000006 -107.49999999999999 150.50000000000003 861.00000000000011 330.50000000000006 640.50000000000011 75.500000000000014 455.50000000000006 -305.49999999999994 1.0000000180025095e-35 1.0000000180025095e-35 -66.499999999999986 1.0000000180025095e-35 179.50000000000003 1.0000000180025095e-35 504.50000000000006 1.0000000180025095e-35 117.50000000000001 1.0000000180025095e-35 446.50000000000006 427.50000000000006 -172.49999999999997 -667.49999999999989 479.50000000000006 299.50000000000006 342.50000000000006
decision_type=2 2 2 2 2 2 2 2 2 2 2 2 2 2 2 2 2 2 2 2 2 2 2 2 2 2 2 2 2 2
left_child=1 5 4 9 8 12 10 16 28 13 -3 22 26 -4 29 -7 -5 -8 -13 27 21 -12 23 24 -6 -14 -1 -20 -2 -10
right_child=2 6 3 7 11 15 17 -9 14 -11 20 18 25 -15 -16 -17 -18 -19 19 -21 -22 -23 -24 -25 -26 -27 -28 -29 -30 -31
leaf_value=-0.0039041987174040834 0.0054725653607184807 -0.00076309672823812996 0.017549096004149653 0.029944961555774554 0.010087864029971857 -0.0031214273741507837 0.0020189858954028439 0.039596124225873733 0.010463776904703031 0.020482329779264893 0.00033896153756165961 0.013986041697397453 -0.0044139601167125812 0.013327727701195649 0.0066523812776343458 -0.0021566765121991804 0.020530833047297269 0.0030731879061960889 0.015508960731783693 0.006293086232617498 -2.4561010262613575e-05 0.0015129286349782102 0.0088303987308001441 0.0084173688499823863 0.013565873510132616 -0.0038313732126040744 -0.0051237661643798475 0.011260523751440746 0.0064919031316821932 0.0084742901625328541
leaf_weight=709 2705 4658 663 138 268 3482 2119 158 265 493 2034 792 7666 175 741 8566 27 4178 98 72 2540 1500 279 115 260 4924 6334 104 1280 1310
leaf_count=709 2705 4658 663 138 268 3482 2119 158 265 493 2034 792 7666 175 741 8566 27 4178 98 72 2540 1500 279 115 260 4924 6334 104 1280 1310
internal_value=0 -0.00206956 0.0101386 0.0211657 0.00793822 -0.00370152 0.000966584 0.033879 0.00665237 0.0180805 -6.13165e-05 0.0120138 -0.00447843 0.0166675 0.00811901 -0.0024355 0.0284045 0.00271844 0.0133405 0.0114747 0.000476861 0.00083725 0.0104798 0.0111954 0.0118005 -0.00418611 -0.005001 0.0133216 0.00579998 0.00880903
internal_weight=0 48710 9943 1654 8289 31681 17029 323 6301 1331 10732 1988 19633 838 2316 12048 165 6297 1066 274 6074 3534 922 643 528 12590 7043 202 3985 1575
internal_count=58653 48710 9943 1654 8289 31681 17029 323 6301 1331 10732 1988 19633 838 2316 12048 165 6297 1066 274 6074 3534 922 643 528 12590 7043 202 3985 1575
is_linear=0
shrinkage=0.01


Tree=19
num_leaves=31
num_cat=0
split_feature=0 0 0 0 0 0 0 0 0 0 0 0 0 0 1 1 0 0 1 1 0 0 0 1 0 0 1 0 0 0
split_gain=12061.9 2365.54 2364.54 635.838 425.746 329.202 279.946 99.0826 77.2043 44.4509 39.6559 32.9348 30.89 23.5971 22.9715 19.6151 15.8291 15.4025 13.2801 12.5832 25.9166 14.0774 10.7696 10.6668 10.5934 15.6461 10.1126 9.95703 14.0112 9.01339
threshold=244.50000000000003 30.500000000000004 536.50000000000011 763.50000000000011 410.50000000000006 -104.49999999999999 150.50000000000003 861.00000000000011 330.50000000000006 670.50000000000011 455.50000000000006 111.50000000000001 -300.49999999999994 -28.499999999999996 1.0000000180025095e-35 1.0000000180025095e-35 594.50000000000011 207.50000000000003 1.0000000180025095e-35 1.0000000180025095e-35 519.50000000000011 479.50000000000006 -172.49999999999997 1.0000000180025095e-35 446.50000000000006 427.50000000000006 1.0000000180025095e-35 57.500000000000007 60.500000000000007 -667.49999999999989
decision_type=2 2 2 2 2 2 2 2 2 2 2 2 2 2 2 2 2 2 2 2 2 2 2 2 2 2 2 2 2 2
left_child=1 5 4 9 8 12 11 15 -2 16 23 27 29 -7 -10 -5 18 -8 -4 -12 21 -21 -14 24 25 -6 -13 -3 -29 -1
right_child=2 6 3 7 10 13 17 -9 14 -11 19 26 22 -15 -16 -17 -18 -19 -20 20 -22 -23 -24 -25 -26 -27 -28 28 -30 -31
leaf_value=-0.0038651567902343743 0.0057419815732994662 -0.00086750014445758012 0.01644770981883048 0.02964551219055294 0.0099869855637544826 -0.0027433622205202679 0.00231660063234514 0.039200162559580441 0.0087209389955692357 0.021088967758250678 0.013846181390966956 0.0013602152960268052 -0.0043641729666197447 -0.0018651477097384498 0.0065858573394899193 0.020325525296783008 0.018124588360454927 0.0033441250934732026 0.012481439491020185 0.015353870732538705 0.0024207934114182819 0.010460895851989385 -0.0037710368086941977 0.0087420943330749745 0.0083331949629861374 0.013430214714965028 0.00019800153398370445 0.0022970415100168722 -0.00021525874423815983 -0.0050517895473204052
leaf_weight=709 3985 2541 400 138 268 6640 4001 158 1575 329 792 1786 7412 5674 741 27 495 2296 107 98 29 147 5215 279 115 260 1289 234 4325 6588
leaf_count=709 3985 2541 400 138 268 6640 4001 158 1575 329 792 1786 7412 5674 741 27 495 2296 107 98 29 147 5215 279 115 260 1289 234 4325 6588
internal_value=0 -0.00204886 0.0100372 0.0209541 0.00785884 -0.00362409 0.00103409 0.0335402 0.00658584 0.0178997 0.0118936 8.5272e-06 -0.00441853 -0.0023387 0.00803782 0.0281204 0.0168526 0.00269125 0.0156106 0.0132071 0.01136 0.0124181 -0.00411921 0.010375 0.0110835 0.0116825 0.00087303 -0.000365888 -8.63098e-05 -0.00493649
internal_weight=0 48710 9943 1654 8289 32238 16472 323 6301 1331 1988 10175 19924 12314 2316 165 1002 6297 507 1066 274 245 12627 922 643 528 3075 7100 4559 7297
internal_count=58653 48710 9943 1654 8289 32238 16472 323 6301 1331 1988 10175 19924 12314 2316 165 1002 6297 507 1066 274 245 12627 922 643 528 3075 7100 4559 7297
is_linear=0
shrinkage=0.01


Tree=20
num_leaves=31
num_cat=0
split_feature=0 0 0 0 0 0 0 0 0 0 0 0 0 1 0 1 0 0 1 1 0 0 1 0 1 0 0 0 1 0
split_gain=11821.9 2318.7 2317.48 623.185 417.274 299.3 294.503 97.1109 75.6679 43.5663 39.0959 38.8667 28.8241 22.5144 22.3279 19.2247 15.5141 15.1486 13.0158 12.3328 25.4009 13.7973 10.6103 11.3915 10.4545 10.3826 15.3347 9.76175 9.58447 9.11317
threshold=244.50000000000003 24.500000000000004 536.50000000000011 763.50000000000011 410.50000000000006 -107.49999999999999 150.50000000000003 861.00000000000011 330.50000000000006 670.50000000000011 75.500000000000014 455.50000000000006 -305.49999999999994 1.0000000180025095e-35 -80.499999999999986 1.0000000180025095e-35 594.50000000000011 179.50000000000003 1.0000000180025095e-35 1.0000000180025095e-35 519.50000000000011 479.50000000000006 1.0000000180025095e-35 117.50000000000001 1.0000000180025095e-35 446.50000000000006 427.50000000000006 -172.49999999999997 1.0000000180025095e-35 -667.49999999999989
decision_type=2 2 2 2 2 2 2 2 2 2 2 2 2 2 2 2 2 2 2 2 2 2 2 2 2 2 2 2 2 2
left_child=1 5 4 9 8 12 10 15 -2 16 -3 24 29 -10 28 -5 18 -8 -4 -13 21 -21 23 -12 25 26 -6 -14 -7 -1
right_child=2 6 3 7 11 14 17 -9 13 -11 22 19 27 -15 -16 -17 -18 -19 -20 20 -22 -23 -24 -25 -26 -27 -28 -29 -30 -31
leaf_value=-0.0038265051740341218 0.0056845615994269337 -0.00074904415657443509 0.016283232791465707 0.029349057595793874 0.0098871155903820628 -0.003846853968706097 0.0019756298625500761 0.038808160805013737 0.0086337293745742914 0.020878078139395566 0.00033550937610086915 0.013707719491312583 -0.0043259510438373979 0.0065199988937274366 -0.0021803908256266664 0.020122269479626857 0.017943342549293632 0.0030136431959649846 0.012356625325351119 0.015200332369683879 0.0023965857415620623 0.010356286897697822 -2.4260139544026956e-05 0.0014841970982092123 0.0086546734875355153 0.0082498629119085228 0.013295912723415173 -0.0037553489763700312 -0.0025304240435580967 -0.0050220104228044394
leaf_weight=709 3985 4658 400 138 268 1292 2119 158 1575 329 2034 792 7666 741 9789 27 495 4178 107 98 29 147 2540 1500 279 115 260 4924 967 6334
leaf_count=709 3985 4658 400 138 268 1292 2119 158 1575 329 2034 792 7666 741 9789 27 495 4178 107 98 29 147 2540 1500 279 115 260 4924 967 6334
internal_value=0 -0.00202837 0.00993684 0.0207445 0.00778025 -0.00362796 0.000947526 0.0332048 0.00651998 0.0177207 -5.98161e-05 0.0117747 -0.00438937 0.00795745 -0.00238719 0.0278392 0.016684 0.00266434 0.0154545 0.0130751 0.0112464 0.0122939 0.000468736 0.000823068 0.0102712 0.0109727 0.0115657 -0.00410279 -0.00328334 -0.00490166
internal_weight=0 48710 9943 1654 8289 31681 17029 323 6301 1331 10732 1988 19633 2316 12048 165 1002 6297 507 1066 274 245 6074 3534 922 643 528 12590 2259 7043
internal_count=58653 48710 9943 1654 8289 31681 17029 323 6301 1331 10732 1988 19633 2316 12048 165 1002 6297 507 1066 274 245 6074 3534 922 643 528 12590 2259 7043
is_linear=0
shrinkage=0.01


Tree=21
num_leaves=31
num_cat=0
split_feature=0 0 0 0 0 0 0 0 0 0 0 0 1 0 0 1 0 0 1 0 1 0 0 1 0 0 0 0 1 1
split_gain=11586.6 2272.61 2271.37 610.784 408.97 316.171 268.853 95.1784 74.2084 42.6993 38.0933 31.8077 31.1495 29.6866 22.8776 18.8421 15.2054 14.9333 12.7568 12.1586 24.3566 15.0407 10.68 10.2465 10.1759 15.0296 8.93182 8.40323 9.9871 7.97547
threshold=244.50000000000003 30.500000000000004 536.50000000000011 763.50000000000011 410.50000000000006 -104.49999999999999 150.50000000000003 861.00000000000011 320.50000000000006 670.50000000000011 455.50000000000006 84.500000000000014 1.0000000180025095e-35 -305.49999999999994 -28.499999999999996 1.0000000180025095e-35 594.50000000000011 207.50000000000003 1.0000000180025095e-35 479.50000000000006 1.0000000180025095e-35 519.50000000000011 -172.49999999999997 1.0000000180025095e-35 446.50000000000006 427.50000000000006 -667.49999999999989 -80.499999999999986 1.0000000180025095e-35 1.0000000180025095e-35
decision_type=2 2 2 2 2 2 2 2 2 2 2 2 2 2 2 2 2 2 2 2 2 2 2 2 2 2 2 2 2 2
left_child=1 5 4 9 8 13 11 15 -2 16 23 -3 -10 26 27 -5 18 -8 -4 -12 -21 -22 -15 24 25 -6 -1 28 -7 -11
right_child=2 6 3 7 10 14 17 -9 12 29 19 -13 -14 22 -16 -17 -18 -19 -20 20 21 -23 -24 -25 -26 -27 -28 -29 -30 -31
leaf_value=-0.0037882401743228578 0.0055120300118059575 -0.00057638154647004624 0.016120400503952987 0.02905556605210987 0.0097882446502474373 -0.0038435275503922697 0.0022687956794948121 0.038420079076026063 0.0084506094317441521 0.021273011127747338 0.01442436541592278 0.00054299137517925013 0.00616444652631358 -0.0042826913847534122 -0.0018260972486317465 0.01992104702094501 0.017763909221894927 0.0032805474559153441 0.012233058632347107 0.013252936327129247 0.010252724249600147 0.0023726198488268359 -0.0036960829105445281 0.0085681270008846639 0.0081673644664494883 0.013162953649934096 -0.0049717902305859377 -0.0024599316323279984 -0.0023995659353689899 0.016653895910049593
leaf_weight=709 3591 4857 400 138 268 1144 4001 158 1825 286 365 5318 885 7666 5674 27 495 2296 107 525 147 29 5215 279 115 260 6334 4672 824 43
leaf_count=709 3591 4857 400 138 268 1144 4001 158 1825 286 365 5318 885 7666 5674 27 495 2296 107 525 147 29 5215 279 115 260 6334 4672 824 43
internal_value=0 -0.00200809 0.00983747 0.0205371 0.00770245 -0.00355207 0.0010137 0.0328728 0.00645478 0.0175435 0.0116569 8.6627e-06 0.00770402 -0.00433062 -0.00229238 0.0275608 0.0165172 0.0026377 0.0153 0.0129443 0.0121737 0.0089543 -0.0040452 0.0101685 0.0108629 0.01145 -0.00485265 -0.00269082 -0.00323894 0.0206693
internal_weight=0 48710 9943 1654 8289 32238 16472 323 6301 1331 1988 10175 2710 19924 12314 165 1002 6297 507 1066 701 176 12881 922 643 528 7043 6640 1968 329
internal_count=58653 48710 9943 1654 8289 32238 16472 323 6301 1331 1988 10175 2710 19924 12314 165 1002 6297 507 1066 701 176 12881 922 643 528 7043 6640 1968 329
is_linear=0
shrinkage=0.01


Tree=22
num_leaves=31
num_cat=0
split_feature=0 0 0 0 0 0 0 0 0 0 0 0 0 1 1 0 1 0 0 1 0 1 0 1 0 0 1 0 0 1
split_gain=11356 2227.6 2226.17 598.629 400.832 287.477 282.841 93.2844 72.8502 41.8683 37.6033 37.3352 27.6823 23.3506 21.5868 21.5329 18.4672 14.6869 11.9167 23.8719 14.7413 10.4011 11.1162 10.0426 9.97345 14.7305 9.60678 8.75408 8.73506 8.64368
threshold=244.50000000000003 24.500000000000004 536.50000000000011 763.50000000000011 410.50000000000006 -107.49999999999999 150.50000000000003 861.00000000000011 330.50000000000006 640.50000000000011 75.500000000000014 455.50000000000006 -305.49999999999994 1.0000000180025095e-35 1.0000000180025095e-35 -66.499999999999986 1.0000000180025095e-35 179.50000000000003 479.50000000000006 1.0000000180025095e-35 519.50000000000011 1.0000000180025095e-35 117.50000000000001 1.0000000180025095e-35 446.50000000000006 427.50000000000006 1.0000000180025095e-35 -667.49999999999989 299.50000000000006 1.0000000180025095e-35
decision_type=2 2 2 2 2 2 2 2 2 2 2 2 2 2 2 2 2 2 2 2 2 2 2 2 2 2 2 2 2 2
left_child=1 5 4 9 8 12 10 16 28 13 -3 23 27 -4 -10 -7 -5 -8 -13 -20 -21 22 -12 24 25 -6 -14 -1 -2 -30
right_child=2 6 3 7 11 15 17 -9 14 -11 21 18 26 -15 -16 -17 -18 -19 19 20 -22 -23 -24 -25 -26 -27 -28 -29 29 -31
leaf_value=-0.0037503578197027126 0.0052484541555622146 -0.00073429557335313552 0.016865334884761544 0.028765010333525531 0.0096903622005857643 -0.0030029258780743897 0.0019331858372961845 0.038035878736460936 0.0084628860366397669 0.019680431684758703 0.00032920061073720639 0.014280121667385548 -0.0042481152463610542 0.012758611959498376 0.0063931544110249327 -0.0020703053861931913 0.019721836427709572 0.002955258927292865 0.013120406925633906 0.010150197031876061 0.0023488934350938636 -2.8098752081745274e-05 0.0014639252239659738 0.008482445907832448 0.0080856906538424294 0.013031324007763313 -0.0036849173523703324 -0.0049220724549323119 0.0068844778540603363 0.005184914730069475
leaf_weight=709 2705 4658 663 138 268 3482 2119 158 1575 493 2034 365 7518 175 741 8566 27 4178 525 147 29 2540 1500 279 115 260 5072 6334 803 477
leaf_count=709 2705 4658 663 138 268 3482 2119 158 1575 493 2034 365 7518 175 741 8566 27 4178 525 147 29 2540 1500 279 115 260 5072 6334 803 477
internal_value=0 -0.00198801 0.00973909 0.0203317 0.00762543 -0.00355586 0.000928842 0.0325441 0.00639024 0.0173681 -5.83524e-05 0.0115404 -0.00430208 0.0160077 0.00780068 -0.00233984 0.0272852 0.00261132 0.0128149 0.0120519 0.00886475 0.000460012 0.000810832 0.0100668 0.0107543 0.0113355 -0.00402123 -0.00480412 0.00557052 0.00625113
internal_weight=0 48710 9943 1654 8289 31681 17029 323 6301 1331 10732 1988 19633 838 2316 12048 165 6297 1066 701 176 6074 3534 922 643 528 12590 7043 3985 1280
internal_count=58653 48710 9943 1654 8289 31681 17029 323 6301 1331 10732 1988 19633 838 2316 12048 165 6297 1066 701 176 6074 3534 922 643 528 12590 7043 3985 1280
is_linear=0
shrinkage=0.01


Tree=23
num_leaves=31
num_cat=0
split_feature=0 0 0 0 0 0 0 0 0 0 0 0 0 0 1 1 0 0 1 0 1 0 1 0 0 1 0 0 0 0
split_gain=11130 2183.34 2181.87 586.716 392.855 303.671 258.199 91.428 71.4004 41.2265 36.5922 30.7473 28.7054 22.1199 21.1572 18.0997 14.7522 14.4783 12.2375 11.6795 23.3968 14.448 9.84274 9.77497 14.4374 9.46259 9.31804 13.9388 8.56123 8.55045
threshold=244.50000000000003 30.500000000000004 536.50000000000011 763.50000000000011 410.50000000000006 -104.49999999999999 150.50000000000003 861.00000000000011 330.50000000000006 670.50000000000011 455.50000000000006 111.50000000000001 -230.49999999999997 -28.499999999999996 1.0000000180025095e-35 1.0000000180025095e-35 594.50000000000011 207.50000000000003 1.0000000180025095e-35 479.50000000000006 1.0000000180025095e-35 519.50000000000011 1.0000000180025095e-35 446.50000000000006 427.50000000000006 1.0000000180025095e-35 57.500000000000007 60.500000000000007 299.50000000000006 342.50000000000006
decision_type=2 2 2 2 2 2 2 2 2 2 2 2 2 2 2 2 2 2 2 2 2 2 2 2 2 2 2 2 2 2
left_child=1 5 4 9 8 12 11 15 28 16 22 26 -1 -7 29 -5 18 -8 -4 -12 -21 -22 23 24 -6 -13 -3 -28 -2 -10
right_child=2 6 3 7 10 13 17 -9 14 -11 19 25 -14 -15 -16 -17 -18 -19 -20 20 21 -23 -24 -25 -26 -27 27 -29 -30 -31
leaf_value=-0.0045932956769775433 0.0051959695529223675 -0.00083822795073719382 0.015790542947873475 0.028477361171465852 0.0095934583239757742 -0.0026387259799137458 0.0022219680735347451 0.037655519265445733 0.010016457473876764 0.020265800258382521 0.014137320412731129 0.0013153584336559263 -0.0038314393974792503 -0.0017884448415934279 0.0063292230478602289 0.019524617858782962 0.0174139315202042 0.0032181893712200085 0.011983142514673941 0.012989202617286217 0.01004869509665739 0.0023254044379653603 0.0083976213179451937 0.0080048338186157787 0.012901010596121735 0.00019111501524055809 0.0022946682548683744 -0.00021113489498942822 0.0061886138913387189 0.0080468654521076259
leaf_weight=10802 2705 2541 400 138 268 6640 4001 158 265 329 365 1786 9122 5674 741 27 495 2296 107 525 147 29 279 115 260 1289 234 4325 1280 1310
leaf_count=10802 2705 2541 400 138 268 6640 4001 158 265 329 365 1786 9122 5674 741 27 495 2296 107 525 147 29 279 115 260 1289 234 4325 1280 1310
internal_value=0 -0.00196813 0.0096417 0.0201284 0.00754917 -0.00348148 0.000993716 0.0322186 0.00632633 0.0171944 0.011425 8.7896e-06 -0.00424449 -0.00224694 0.00772267 0.0270124 0.0161859 0.00258521 0.014987 0.0126867 0.0119314 0.00877611 0.00996616 0.0106468 0.0112222 0.00084409 -0.000352978 -8.25194e-05 0.00551481 0.00837826
internal_weight=0 48710 9943 1654 8289 32238 16472 323 6301 1331 1988 10175 19924 12314 2316 165 1002 6297 507 1066 701 176 922 643 528 3075 7100 4559 3985 1575
internal_count=58653 48710 9943 1654 8289 32238 16472 323 6301 1331 1988 10175 19924 12314 2316 165 1002 6297 507 1066 701 176 922 643 528 3075 7100 4559 3985 1575
is_linear=0
shrinkage=0.01


Tree=24
num_leaves=31
num_cat=0
split_feature=0 0 0 0 0 0 0 0 0 0 0 0 1 0 0 1 0 0 1 0 1 0 1 0 1 0 0 1 1 0
split_gain=10908.6 2140.07 2138.45 575.041 385.037 276.145 271.64 89.6086 69.982 40.4061 36.2719 35.8641 29.5072 26.7586 20.8603 17.7395 14.4586 14.2393 11.994 11.4471 22.9312 14.1605 10.0553 10.642 9.64687 9.58045 14.1501 9.40971 9.22218 8.57987
threshold=244.50000000000003 24.500000000000004 536.50000000000011 763.50000000000011 410.50000000000006 -107.49999999999999 150.50000000000003 861.00000000000011 320.50000000000006 670.50000000000011 75.500000000000014 455.50000000000006 1.0000000180025095e-35 -305.49999999999994 -80.499999999999986 1.0000000180025095e-35 594.50000000000011 179.50000000000003 1.0000000180025095e-35 479.50000000000006 1.0000000180025095e-35 519.50000000000011 1.0000000180025095e-35 117.50000000000001 1.0000000180025095e-35 446.50000000000006 427.50000000000006 1.0000000180025095e-35 1.0000000180025095e-35 -667.49999999999989
decision_type=2 2 2 2 2 2 2 2 2 2 2 2 2 2 2 2 2 2 2 2 2 2 2 2 2 2 2 2 2 2
left_child=1 5 4 9 8 13 10 15 -2 16 -3 24 -10 29 28 -5 18 -8 -4 -13 -21 -22 23 -12 25 26 -6 -15 -7 -1
right_child=2 6 3 7 11 14 17 -9 12 -11 22 19 -14 27 -16 -17 -18 -19 -20 20 21 -23 -24 -25 -26 -27 -28 -29 -30 -31
leaf_value=-0.0036669212238461158 0.005347555774030688 -0.00072079315510374111 0.015632637636957224 0.028192586499279828 0.0094975238923094615 -0.003712336335547183 0.0018916343038052552 0.037278965051887158 0.0082028534818042002 0.020063141864458369 0.00032587378545212783 0.013995947293988238 0.0059777729727701406 -0.0041649747666340341 -0.0020934901416123533 0.019329371753114243 0.017239792114355359 0.0028980119458498687 0.011863310730912196 0.012859311114890234 0.0099482081343616243 0.0023021507121879477 -2.7747898952903477e-05 0.0014361325777508319 0.0083136449171744269 0.0079247854122001197 0.012772000500215935 -0.0036075833752950209 -0.0024210264549203962 -0.0048269187255765749
leaf_weight=709 3591 4658 400 138 268 1292 2119 158 1825 329 2034 365 885 7518 9789 27 495 4178 107 525 147 29 2540 1500 279 115 260 5072 967 6334
leaf_count=709 3591 4658 400 138 268 1292 2119 158 1825 329 2034 365 885 7518 9789 27 495 4178 107 525 147 29 2540 1500 279 115 260 5072 967 6334
internal_value=0 -0.00194845 0.00954529 0.0199271 0.00747368 -0.00348518 0.000910527 0.0318964 0.00626307 0.0170225 -5.6924e-05 0.0113107 0.00747621 -0.00421655 -0.00229338 0.0267422 0.0160241 0.00255936 0.0148371 0.0125599 0.0118121 0.00868835 0.000452181 0.000797121 0.0098665 0.0105403 0.01111 -0.00394042 -0.00315957 -0.00471014
internal_weight=0 48710 9943 1654 8289 31681 17029 323 6301 1331 10732 1988 2710 19633 12048 165 1002 6297 507 1066 701 176 6074 3534 922 643 528 12590 2259 7043
internal_count=58653 48710 9943 1654 8289 31681 17029 323 6301 1331 10732 1988 2710 19633 12048 165 1002 6297 507 1066 701 176 6074 3534 922 643 528 12590 2259 7043
is_linear=0
shrinkage=0.01


Tree=25
num_leaves=31
num_cat=0
split_feature=0 0 0 0 0 0 0 0 0 0 0 0 0 1 1 0 0 1 0 0 1 0 0 0 1 0 0 1 1 0
split_gain=10691.5 2097.56 2095.89 563.597 377.375 291.87 247.967 87.8254 68.7419 43.8142 39.602 35.1504 29.5986 20.2838 17.3865 14.1709 14.0373 11.7553 11.5802 11.2193 22.4749 13.8787 10.0545 9.65617 9.4549 9.3898 13.8685 9.33457 9.06118 8.98878
threshold=244.50000000000003 30.500000000000004 536.50000000000011 763.50000000000011 410.50000000000006 -80.499999999999986 150.50000000000003 861.00000000000011 330.50000000000006 -172.49999999999997 670.50000000000011 455.50000000000006 111.50000000000001 1.0000000180025095e-35 1.0000000180025095e-35 594.50000000000011 207.50000000000003 1.0000000180025095e-35 -345.49999999999994 479.50000000000006 1.0000000180025095e-35 519.50000000000011 -667.49999999999989 -28.499999999999996 1.0000000180025095e-35 446.50000000000006 427.50000000000006 1.0000000180025095e-35 1.0000000180025095e-35 57.500000000000007
decision_type=2 2 2 2 2 2 2 2 2 2 2 2 2 2 2 2 2 2 2 2 2 2 2 2 2 2 2 2 2 2
left_child=1 5 4 10 8 9 12 14 -2 18 15 24 29 -10 -5 17 -8 -4 22 -13 -21 -22 -1 -7 25 26 -6 -11 -14 -3
right_child=2 6 3 7 11 23 16 -9 13 27 -12 19 28 -15 -16 -17 -18 -19 -20 20 21 -23 -24 -25 -26 -27 -28 -29 -30 -31
leaf_value=-0.0036302518520940344 0.0054041686641996545 -0.00082263773234811182 0.015476311256346527 0.027910660928574162 0.0094025487431894927 -0.0023648658068129271 0.0021760982365045538 0.036906174943558398 0.00821244597485629 -0.0037329127848225482 0.01986251068128822 0.013855987823581042 0.0012896213637798406 0.0062061530011787748 0.019136078103824897 0.017067394351755735 0.003157027500007425 0.011744677683634457 -0.0041620024771895272 0.01273071783568178 0.0098487260239990757 0.0022791290989723698 -0.0049060726949785114 -0.0017509730543081501 0.0082305083680550804 0.0078455376985442377 0.012644280766065304 -0.0030024926470237812 0.0001894815621140382 -8.0401105143463412e-05
leaf_weight=709 3985 2541 400 138 268 4672 4001 158 1575 4167 329 365 1786 741 27 495 2296 107 9203 525 147 29 4797 5674 279 115 260 3016 1289 4559
leaf_count=709 3985 2541 400 138 268 4672 4001 158 1575 4167 329 365 1786 741 27 495 2296 107 9203 525 147 29 4797 5674 279 115 260 3016 1289 4559
internal_value=0 -0.00192896 0.00944983 0.0197278 0.00739894 -0.00341229 0.000974122 0.0315775 0.00620044 -0.00406641 0.0168522 0.0111976 8.90756e-06 0.00757054 0.0264748 0.0158638 0.00253376 0.0146888 -0.00437903 0.0124343 0.011694 0.00860146 -0.00474179 -0.00202819 0.00976784 0.0104349 0.0109989 -0.00342622 0.000828457 -0.000346038
internal_weight=0 48710 9943 1654 8289 32238 16472 323 6301 21892 1331 1988 10175 2316 165 1002 6297 507 14709 1066 701 176 5506 10346 922 643 528 7183 3075 7100
internal_count=58653 48710 9943 1654 8289 32238 16472 323 6301 21892 1331 1988 10175 2316 165 1002 6297 507 14709 1066 701 176 5506 10346 922 643 528 7183 3075 7100
is_linear=0
shrinkage=0.01


Tree=26
num_leaves=31
num_cat=0
split_feature=0 0 0 0 0 0 0 0 0 0 0 0 0 1 0 1 0 1 1 0 1 0 0 0 1 0 1 0 1 0
split_gain=10478.8 2139.58 1947.1 552.382 405.491 265.447 231.078 86.0776 65.5714 51.5108 38.8139 34.9011 25.7192 24.2816 20.0434 17.0405 13.8889 13.0313 11.5214 10.996 22.0276 13.6025 10.6856 10.4858 9.7216 10.208 9.12101 8.2495 7.81676 7.64153
threshold=236.50000000000003 536.50000000000011 24.500000000000004 763.50000000000011 394.50000000000006 -107.49999999999999 150.50000000000003 861.00000000000011 320.50000000000006 455.50000000000006 670.50000000000011 75.500000000000014 -305.49999999999994 1.0000000180025095e-35 -66.499999999999986 1.0000000180025095e-35 594.50000000000011 1.0000000180025095e-35 1.0000000180025095e-35 479.50000000000006 1.0000000180025095e-35 519.50000000000011 179.50000000000003 244.50000000000003 1.0000000180025095e-35 117.50000000000001 1.0000000180025095e-35 -667.49999999999989 1.0000000180025095e-35 504.50000000000006
decision_type=2 2 2 2 2 2 2 2 2 2 2 2 2 2 2 2 2 2 2 2 2 2 2 2 2 2 2 2 2 2
left_child=2 4 5 10 8 12 11 15 23 17 16 -4 27 -10 -7 -5 18 -6 -3 -11 29 -22 -8 -2 25 -13 -14 -1 -12 -21
right_child=1 3 6 7 9 14 22 -9 13 19 28 24 26 -15 -16 -17 -18 -19 -20 20 21 -23 -24 -25 -26 -27 -28 -29 -30 -31
leaf_value=-0.0035939494013649703 0.0036456153389514134 0.015321548162377439 -0.00070673443516014066 0.027631554355223974 0.0099993993142385336 -0.0028871658888987763 0.0018509569943232268 0.036537113661901391 0.0078684781340948359 0.013717428177314465 0.020261562858704948 0.00032149262291781292 -0.0040833457725571523 0.0057075104820746075 -0.001987377977961675 0.018944717132382924 0.016896720389111174 0.0078040636023902574 0.011627231222516465 0.011376094522943733 0.0097502386275374765 0.0022563376187764365 0.0027409801945634232 0.0052400385298156981 -2.803578004735984e-05 0.001408875032203893 -0.0035345717762779701 -0.0047313943912340121 0.015688638472279838 0.013789356394430225
leaf_weight=709 466 400 4658 138 892 3482 2119 158 1576 365 286 2034 7518 776 8566 27 495 388 107 258 147 29 3712 3591 2540 1500 5072 6334 43 267
leaf_count=709 466 400 4658 138 892 3482 2119 158 1576 365 286 2034 7518 776 8566 27 495 388 107 258 147 29 3712 3591 2540 1500 5072 6334 43 267
internal_value=0 0.00909972 -0.00196333 0.0195306 0.00712911 -0.00341592 0.000815115 0.0312617 0.00582705 0.0106862 0.0166837 -5.55303e-05 -0.00413298 0.00715551 -0.00224743 0.0262101 0.0157052 0.00933394 0.0145419 0.0123099 0.011577 0.00851545 0.00241754 0.0050569 0.000443862 0.00078303 -0.00386227 -0.00461689 0.0196639 0.0126034
internal_weight=0 10409 48244 1654 8755 31681 16563 323 6409 2346 1331 10732 19633 2352 12048 165 1002 1280 507 1066 701 176 5831 4057 6074 3534 12590 7043 329 525
internal_count=58653 10409 48244 1654 8755 31681 16563 323 6409 2346 1331 10732 19633 2352 12048 165 1002 1280 507 1066 701 176 5831 4057 6074 3534 12590 7043 329 525
is_linear=0
shrinkage=0.01


Tree=27
num_leaves=31
num_cat=0
split_feature=0 0 0 0 0 0 0 0 0 0 0 0 0 1 1 0 1 1 0 1 0 0 0 1 0 0 1 0 0 0
split_gain=10270.3 2097 1908.35 541.389 397.422 260.165 226.48 84.3647 64.2665 50.4858 38.0912 34.2066 25.2074 23.7984 21.8592 19.6533 16.7014 12.772 10.7772 21.5893 13.3318 10.473 10.2772 9.52814 10.0193 8.99059 8.29757 8.08533 7.82233 7.48947
threshold=236.50000000000003 536.50000000000011 24.500000000000004 763.50000000000011 394.50000000000006 -107.49999999999999 150.50000000000003 861.00000000000011 320.50000000000006 455.50000000000006 640.50000000000011 75.500000000000014 -305.49999999999994 1.0000000180025095e-35 1.0000000180025095e-35 -74.499999999999986 1.0000000180025095e-35 1.0000000180025095e-35 479.50000000000006 1.0000000180025095e-35 519.50000000000011 179.50000000000003 244.50000000000003 1.0000000180025095e-35 120.50000000000001 -172.49999999999997 1.0000000180025095e-35 -667.49999999999989 594.50000000000011 504.50000000000006
decision_type=2 2 2 2 2 2 2 2 2 2 2 2 2 2 2 2 2 2 2 2 2 2 2 2 2 2 2 2 2 2
left_child=2 4 5 10 8 12 11 16 22 17 14 -4 27 -10 28 26 -5 -6 -11 29 -21 -8 -2 24 -13 -14 -7 -1 -3 -20
right_child=1 3 6 7 9 15 21 -9 13 18 -12 23 25 -15 -16 -17 -18 -19 19 20 -22 -23 -24 -25 -26 -27 -28 -29 -30 -31
leaf_value=-0.0035580100514236391 0.0036091594251728108 0.015168332885904237 -0.00069966716124995475 0.027355239420481351 0.0098994052408664015 -0.0034331916490585456 0.0018324472255088543 0.036171742394755159 0.0077897934387390726 0.013580253455252067 0.01872245637665958 0.00035254925296545665 -0.0040378129701965247 0.0056504355283386858 0.012075690007103342 -0.0020042669151149532 0.018755270753193786 0.0077260233004956711 0.011262333630284118 0.009652736216599794 0.0022337744641920615 0.0027135704242438551 0.0051876384292664232 -2.7755491007907741e-05 0.0014459951937479535 -0.0034902129436749328 -0.002325512555388945 -0.0046840803401072264 0.017388660591591446 0.013651462771305432
leaf_weight=709 466 400 4658 138 892 1597 2119 158 1576 365 493 2168 7666 776 175 9278 27 388 258 147 29 3712 3591 2540 1366 4924 1173 6334 263 267
leaf_count=709 466 400 4658 138 892 1597 2119 158 1576 365 493 2168 7666 776 175 9278 27 388 258 147 29 3712 3591 2540 1366 4924 1173 6334 263 267
internal_value=0 0.00900872 -0.0019437 0.0193353 0.00705782 -0.00338176 0.000806964 0.0309491 0.00576878 0.0105793 0.0165169 -5.49751e-05 -0.00409165 0.00708395 0.0152193 -0.00222495 0.025948 0.0092406 0.0121868 0.0114613 0.00843029 0.00239337 0.00500633 0.000439423 0.0007752 -0.00382364 -0.00296413 -0.00457072 0.0160491 0.0124774
internal_weight=0 10409 48244 1654 8755 31681 16563 323 6409 2346 1331 10732 19633 2352 838 12048 165 1280 1066 701 176 5831 4057 6074 3534 12590 2770 7043 663 525
internal_count=58653 10409 48244 1654 8755 31681 16563 323 6409 2346 1331 10732 19633 2352 838 12048 165 1280 1066 701 176 5831 4057 6074 3534 12590 2770 7043 663 525
is_linear=0
shrinkage=0.01


Tree=28
num_leaves=31
num_cat=0
split_feature=0 0 0 0 0 0 0 0 0 0 0 0 0 1 0 1 0 1 1 0 1 0 0 0 0 1 0 0 0 0
split_gain=10065.9 2055.27 1870.37 530.616 389.513 254.988 221.973 82.6858 62.9876 49.4811 37.4749 33.5445 24.7183 23.3248 19.3092 16.369 13.3123 12.5178 11.1019 10.5627 21.1597 13.0665 10.2645 10.0727 7.99344 7.6612 7.34042 7.29085 17.9956 7.28745
threshold=236.50000000000003 536.50000000000011 24.500000000000004 763.50000000000011 394.50000000000006 -107.49999999999999 150.50000000000003 861.00000000000011 320.50000000000006 455.50000000000006 670.50000000000011 84.500000000000014 -289.49999999999994 1.0000000180025095e-35 -66.499999999999986 1.0000000180025095e-35 594.50000000000011 1.0000000180025095e-35 1.0000000180025095e-35 479.50000000000006 1.0000000180025095e-35 519.50000000000011 179.50000000000003 244.50000000000003 -172.49999999999997 1.0000000180025095e-35 504.50000000000006 427.50000000000006 446.50000000000006 -667.49999999999989
decision_type=2 2 2 2 2 2 2 2 2 2 2 2 2 2 2 2 2 2 2 2 2 2 2 2 2 2 2 2 2 2
left_child=2 4 5 10 8 12 11 15 23 17 16 -4 29 -10 -7 -5 18 27 -3 -11 26 -22 -8 -2 -14 -12 -21 -6 -29 -1
right_child=1 3 6 7 9 14 22 -9 13 19 25 -13 24 -15 -16 -17 -18 -19 -20 20 21 -23 -24 -25 -26 -27 -28 28 -30 -31
leaf_value=-0.0035224299889441437 0.0035730676765078004 0.01501664911325206 -0.00060852153646421842 0.027081686743413626 0.0090304351699262916 -0.002830615629020641 0.0018141226656636054 0.035810024693985525 0.0077118953826824247 0.013444450992873985 0.019871721984640496 0.00050967324333529515 -0.0039822030127562528 0.0055939311709149366 -0.0019474616635307244 0.018567717555496428 0.016556746184637754 0.0076487628680644276 0.011390201706682968 0.01114971054674581 0.0095562088751506551 0.0022114367089394868 0.0026864347337733963 0.0051357619609872819 -0.003455310838589608 0.015344527543977249 0.013514948085173686 0.012318849643620735 0.0075680940397407697 -0.0045859065279326696
leaf_weight=709 466 400 5414 138 517 3482 2119 158 1576 365 286 5318 6934 776 8566 27 495 388 107 258 147 29 3712 3591 4924 43 267 260 115 7066
leaf_count=709 466 400 5414 138 517 3482 2119 158 1576 365 286 5318 6934 776 8566 27 495 388 107 258 147 29 3712 3591 4924 43 267 260 115 7066
internal_value=0 0.00891863 -0.00192426 0.0191419 0.00698725 -0.00334794 0.000798894 0.0306396 0.0057111 0.0104735 0.0163517 -5.44254e-05 -0.00405073 0.00701311 -0.0022027 0.0256885 0.0153902 0.00914819 0.0142513 0.0120649 0.0113467 0.00834599 0.00236943 0.00495627 -0.00376341 0.01928 0.0123526 0.00980041 0.010862 -0.00448893
internal_weight=0 10409 48244 1654 8755 31681 16563 323 6409 2346 1331 10732 19633 2352 12048 165 1002 1280 507 1066 701 176 5831 4057 11858 329 525 892 375 7775
internal_count=58653 10409 48244 1654 8755 31681 16563 323 6409 2346 1331 10732 19633 2352 12048 165 1002 1280 507 1066 701 176 5831 4057 11858 329 525 892 375 7775
is_linear=0
shrinkage=0.01


Tree=29
num_leaves=31
num_cat=0
split_feature=0 0 0 0 0 0 0 0 0 0 0 0 0 1 0 1 0 1 1 0 1 0 0 0 1 0 1 1 0 1
split_gain=9865.58 2014.37 1833.15 520.056 381.762 249.913 217.555 81.0404 61.7342 48.4964 36.7291 32.9463 24.2618 22.8606 18.9845 16.0433 13.0474 12.2687 10.881 10.3525 20.7386 12.8065 10.0603 9.87222 9.34034 9.77787 8.92953 8.78061 7.77396 7.50874
threshold=236.50000000000003 536.50000000000011 24.500000000000004 763.50000000000011 394.50000000000006 -107.49999999999999 150.50000000000003 861.00000000000011 320.50000000000006 455.50000000000006 670.50000000000011 75.500000000000014 -305.49999999999994 1.0000000180025095e-35 -80.499999999999986 1.0000000180025095e-35 594.50000000000011 1.0000000180025095e-35 1.0000000180025095e-35 479.50000000000006 1.0000000180025095e-35 519.50000000000011 179.50000000000003 244.50000000000003 1.0000000180025095e-35 120.50000000000001 1.0000000180025095e-35 1.0000000180025095e-35 -667.49999999999989 1.0000000180025095e-35
decision_type=2 2 2 2 2 2 2 2 2 2 2 2 2 2 2 2 2 2 2 2 2 2 2 2 2 2 2 2 2 2
left_child=2 4 5 10 8 12 11 15 23 17 16 -4 28 -10 27 -5 18 -6 -3 -11 -21 -22 -8 -2 25 -13 -14 -7 -1 -12
right_child=1 3 6 7 9 14 22 -9 13 19 29 24 26 -15 -16 -17 -18 -19 -20 20 21 -23 -24 -25 -26 -27 -28 -29 -30 -31
leaf_value=-0.0034872054677503907 0.0035373369192798492 0.01486648285863921 -0.00068658523029541205 0.026810869660390462 0.0097024071911629706 -0.0035463741155998675 0.0017959814605295638 0.035451924111104656 0.0076347764712025 0.013310006584369337 0.019673004834424263 0.00034624788533626431 -0.0039660413909659081 0.0055379919503808278 -0.0019899840830473942 0.018382040797560305 0.016391178731853612 0.0075722752854506465 0.011276299624451409 0.012229076789585607 0.0094606468872781707 0.0021893222861248873 0.0026595704014596715 0.0050844042441639502 -3.1227643396265394e-05 0.0014264385597057652 -0.0034230582709079992 -0.0022863585807779379 -0.0045913806617291072 0.015191082514302677
leaf_weight=709 466 400 4658 138 892 1292 2119 158 1576 365 286 2168 7518 776 9789 27 495 388 107 525 147 29 3712 3591 2540 1366 5072 967 6334 43
leaf_count=709 466 400 4658 138 892 1292 2119 158 1576 365 286 2168 7518 776 9789 27 495 388 107 525 147 29 3712 3591 2540 1366 5072 967 6334 43
internal_value=0 0.00882945 -0.00190502 0.0189505 0.00691737 -0.00331446 0.000790905 0.0303332 0.00565398 0.0103688 0.0161882 -5.38811e-05 -0.00401022 0.00694298 -0.00218068 0.0254316 0.0152363 0.00905671 0.0141088 0.0119443 0.0112332 0.00826253 0.00234574 0.0049067 0.000431324 0.000763775 -0.0037473 -0.003007 -0.00448023 0.0190872
internal_weight=0 10409 48244 1654 8755 31681 16563 323 6409 2346 1331 10732 19633 2352 12048 165 1002 1280 507 1066 701 176 5831 4057 6074 3534 12590 2259 7043 329
internal_count=58653 10409 48244 1654 8755 31681 16563 323 6409 2346 1331 10732 19633 2352 12048 165 1002 1280 507 1066 701 176 5831 4057 6074 3534 12590 2259 7043 329
is_linear=0
shrinkage=0.01


Tree=30
num_leaves=31
num_cat=0
split_feature=0 0 0 0 0 0 0 0 0 0 0 0 0 1 0 1 0 1 1 0 1 0 0 0 1 0 1 0 0 0
split_gain=9669.26 1974.28 1796.67 509.707 374.165 244.94 213.226 79.4277 60.5057 47.5313 35.9982 32.2907 23.8322 22.4057 18.6404 15.724 12.7878 12.0246 10.6645 10.1465 20.3259 12.5516 9.86008 9.67576 9.15446 9.59522 7.35932 7.27516 8.57054 13.806
threshold=236.50000000000003 536.50000000000011 24.500000000000004 763.50000000000011 394.50000000000006 -107.49999999999999 150.50000000000003 861.00000000000011 320.50000000000006 455.50000000000006 670.50000000000011 75.500000000000014 -230.49999999999997 1.0000000180025095e-35 -66.499999999999986 1.0000000180025095e-35 594.50000000000011 1.0000000180025095e-35 1.0000000180025095e-35 479.50000000000006 1.0000000180025095e-35 519.50000000000011 179.50000000000003 244.50000000000003 1.0000000180025095e-35 117.50000000000001 1.0000000180025095e-35 72.500000000000014 57.500000000000007 60.500000000000007
decision_type=2 2 2 2 2 2 2 2 2 2 2 2 2 2 2 2 2 2 2 2 2 2 2 2 2 2 2 2 2 2
left_child=2 4 5 10 8 12 11 15 23 17 16 27 -1 -10 -7 -5 18 -6 -3 -11 -21 -22 -8 -2 25 -13 -12 28 -4 -30
right_child=1 3 6 7 9 14 22 -9 13 19 26 24 -14 -15 -16 -17 -18 -19 -20 20 21 -23 -24 -25 -26 -27 -28 -29 29 -31
leaf_value=-0.0042851418738529953 0.0035019637698101786 0.014717817874252796 -0.00086230037279298982 0.026542761195246452 0.0096053830852090988 -0.0027758114489905036 0.0017780217916430899 0.035097404962664919 0.0075584288158317241 0.013176906423860116 0.019476274844955888 0.00030866670365135791 -0.0035847872522845911 0.0054826117572602676 -0.0019080870993518665 0.018198220150338278 0.016227266716253425 0.0074965525997776217 0.011163536596729933 0.012106786046403327 0.0093660403362342288 0.0021674288629457868 0.0026329748327197163 0.0050335603127561034 -3.091531341132803e-05 0.0013629068948576848 0.015039171728976937 -0.0022220266628475011 0.0023067483780547407 -0.00038189016411690932
leaf_weight=10802 466 400 3098 138 892 3482 2119 158 1576 365 286 2034 8831 776 8566 27 495 388 107 525 147 29 3712 3591 2540 1500 43 287 234 1039
leaf_count=10802 466 400 3098 138 892 3482 2119 158 1576 365 286 2034 8831 776 8566 27 495 388 107 525 147 29 3712 3591 2540 1500 43 287 234 1039
internal_value=0 0.00874115 -0.00188597 0.018761 0.0068482 -0.00328132 0.000782996 0.0300299 0.00559744 0.0102651 0.0160263 -5.33423e-05 -0.00397012 0.00687355 -0.00215887 0.0251773 0.015084 0.00896614 0.0139677 0.0118249 0.0111209 0.00817991 0.00232228 0.00485764 0.000427011 0.000756137 0.0188963 -0.000679719 -0.000578451 0.000112329
internal_weight=0 10409 48244 1654 8755 31681 16563 323 6409 2346 1331 10732 19633 2352 12048 165 1002 1280 507 1066 701 176 5831 4057 6074 3534 329 4658 4371 1273
internal_count=58653 10409 48244 1654 8755 31681 16563 323 6409 2346 1331 10732 19633 2352 12048 165 1002 1280 507 1066 701 176 5831 4057 6074 3534 329 4658 4371 1273
is_linear=0
shrinkage=0.01


Tree=31
num_leaves=31
num_cat=0
split_feature=0 0 0 0 0 0 0 0 0 0 0 0 0 1 1 0 1 1 0 1 0 0 0 1 1 0 0 0 0 0
split_gain=9476.84 1934.99 1760.92 499.564 366.719 240.066 208.983 77.8471 59.3016 46.5855 35.3075 31.6687 23.4581 21.9598 20.7088 18.3271 15.4111 11.7853 9.94461 19.9214 12.3019 9.66386 9.48322 8.74661 8.60587 7.61926 7.35091 7.25521 7.19435 7.14577
threshold=236.50000000000003 536.50000000000011 24.500000000000004 763.50000000000011 394.50000000000006 -107.49999999999999 150.50000000000003 861.00000000000011 320.50000000000006 455.50000000000006 640.50000000000011 84.500000000000014 -305.49999999999994 1.0000000180025095e-35 1.0000000180025095e-35 -80.499999999999986 1.0000000180025095e-35 1.0000000180025095e-35 479.50000000000006 1.0000000180025095e-35 519.50000000000011 179.50000000000003 244.50000000000003 1.0000000180025095e-35 1.0000000180025095e-35 -667.49999999999989 594.50000000000011 -28.499999999999996 504.50000000000006 427.50000000000006
decision_type=2 2 2 2 2 2 2 2 2 2 2 2 2 2 2 2 2 2 2 2 2 2 2 2 2 2 2 2 2 2
left_child=2 4 5 10 8 12 11 16 22 17 14 -4 25 -10 26 24 -5 29 -11 28 -21 -8 -2 -14 -7 -1 -3 -17 -20 -6
right_child=1 3 6 7 9 15 21 -9 13 18 -12 -13 23 -15 -16 27 -18 -19 19 20 -22 -23 -24 -25 -26 -27 -28 -29 -30 -31
leaf_value=-0.0034094820830088287 0.0034669437853853285 0.014570639587892221 -0.00059119027269675418 0.026277333617858264 0.0087470529069227834 -0.0034831520993170262 0.0017602417563097467 0.034746430953846705 0.0074828442877813289 0.013045137274704161 0.017989502433710117 0.00049529135087014622 -0.0038883775851816134 0.0054277856609323202 0.011557005652785302 -0.0022348321970063686 0.018016237644133744 0.0074215871381654985 0.010794854602919055 0.0092723797836980846 0.0021457548593652657 0.0026066449089855804 0.0049832247141567282 -0.0033509845285905537 -0.0022357366530098514 -0.0045026152030455523 0.016723021972533173 -0.0016897837367719261 0.013136440272153485 0.010560253962694357
leaf_weight=709 466 400 5414 138 517 1292 2119 158 1576 365 493 5318 7518 776 175 4672 27 388 258 147 29 3712 3591 5072 967 6334 263 5117 267 375
leaf_count=709 466 400 5414 138 517 1292 2119 158 1576 365 493 5318 7518 776 175 4672 27 388 258 147 29 3712 3591 5072 967 6334 263 5117 267 375
internal_value=0 0.00865374 -0.00186711 0.0185734 0.00677972 -0.0032485 0.000775166 0.0297296 0.00554147 0.0101625 0.015866 -5.28089e-05 -0.00393042 0.00680481 0.0146168 -0.00213728 0.0249255 0.00887648 0.0117066 0.0110097 0.00809811 0.00229906 0.00480906 -0.00367188 -0.00294918 -0.00439257 0.0154245 -0.00194992 0.0119857 0.00950933
internal_weight=0 10409 48244 1654 8755 31681 16563 323 6409 2346 1331 10732 19633 2352 838 12048 165 1280 1066 701 176 5831 4057 12590 2259 7043 663 9789 525 892
internal_count=58653 10409 48244 1654 8755 31681 16563 323 6409 2346 1331 10732 19633 2352 838 12048 165 1280 1066 701 176 5831 4057 12590 2259 7043 663 9789 525 892
is_linear=0
shrinkage=0.01


Tree=32
num_leaves=31
num_cat=0
split_feature=0 0 0 0 0 0 0 0 0 0 0 0 0 1 0 1 1 0 1 0 0 0 1 0 0 1 0 1 1 0
split_gain=9288.25 1896.49 1725.88 489.623 359.694 235.289 204.824 76.2979 60.316 44.2438 34.7565 31.1009 23.0373 21.6764 17.9624 15.1044 12.4476 12.2549 10.274 10.0696 17.6374 9.74672 19.525 12.057 9.47154 8.974 9.36684 8.43462 7.21287 7.13038
threshold=236.50000000000003 536.50000000000011 24.500000000000004 763.50000000000011 380.50000000000006 -107.49999999999999 150.50000000000003 861.00000000000011 455.50000000000006 299.50000000000006 670.50000000000011 75.500000000000014 -230.49999999999997 1.0000000180025095e-35 -80.499999999999986 1.0000000180025095e-35 1.0000000180025095e-35 594.50000000000011 1.0000000180025095e-35 427.50000000000006 446.50000000000006 479.50000000000006 1.0000000180025095e-35 519.50000000000011 179.50000000000003 1.0000000180025095e-35 120.50000000000001 1.0000000180025095e-35 1.0000000180025095e-35 72.500000000000014
decision_type=2 2 2 2 2 2 2 2 2 2 2 2 2 2 2 2 2 2 2 2 2 2 2 2 2 2 2 2 2 2
left_child=2 4 5 10 9 12 11 15 16 -2 17 29 -1 -11 27 -5 19 18 -3 -6 -21 -10 -23 -24 -8 26 -13 -7 -12 -4
right_child=1 3 6 7 8 14 24 -9 21 13 28 25 -14 -15 -16 -17 -18 -19 -20 20 -22 22 23 -25 -26 -27 -28 -29 -30 -31
