tree
version=v4
num_class=1
num_tree_per_iteration=1
label_index=0
max_feature_idx=1
objective=regression
feature_names=elo_diff is_friendly
feature_infos=[-1263:1263] [0:1]
tree_sizes=2802 2802 2807 2815 2785 2787 2761 2833 2769 2820 2807 2767 2787 2806 2807 2797 2861 2824 2839 2836 2824 2773 2839 2849 2833 2814 2848 2789 2878 2836 2842 2869 2820 2828 2807 2849 2817 2819 2845 2808 2841 2831 2843 2852 2821 2872 2874 2862 2845 2829 2852 2855 2874 2876 2846 2837 2853 2853 2817 2837 2834 2882 2863 2820 2883 2877 2919 2871 2861 2867 2854 2898 2835 2881 2884 2845 2877 2888 2884 2875 2814 2855 2897 2875 2858 2929 2850 2862 2916 2880 2887 2913 2872 2864 2886 2864 2890 2869 2897 2909 2858 2877 2882 2896 2868 2888 2867 2889 2893 2894 2889 2863 2892 2902 2886 2872 2880 2893 2847 2895 2897 2891 2879 2901 2881 2894 2901 2883 2881 2892 2882 2875 2875 2900 2900 2912 2874 2883 2895 2897 2870 2890 2891 2896 2895 2897 2908 2901 2891 2890 2860 2897 2901 2898 2916 2899 2894 2882 2891 2877 2895 2886 2858 2878 2886 2883 2906 2887 2898 2906 2911 2912 2901 2891 2885 2894 2900 2864 2928 2901 2917 2889 2896 2866 2891 2879 2903 2893 2882 2880 2890 2888 2918 2902 2915 2922 2904 2914 2889 2883 2882 2869 2888 2913 2910 2911 2916 2894 2886 2930 2913 2900 2907 2901 2884 2924 2907 2949 2901 2889 2888 2889 2929 2927 2896 2898 2894 2906 2897 2892 2898 2870 2863 2909 2899 2909 2876 2910 2910 2900 2910 2903 2883 2911 2904 2910 2917 2907 2904 2907 2916 2891 2886 2902 2910 2932 2909 2938 2886 2918 2892 2891 2902 2884 2887 2916 2909 2889 2900 2925 2905 2918 2891 2909 2892 2906 2939 2906 2865 2907 2901 2919 2924 2898 2906 2960 2943 2914 2894 2940 2926 2967 2896 2908 2927 2915 2905 2911 2916 2923 2911 2931 2928 2908 2889 2885 2911 2920 2894 2912 2904 2892 2906 2919 2894 2894 2913 2957 2906 2895 2934 2923 2933 2951 2879 2928 2935 2941 2930 2922 2909 2896 2934 2934 2925 2916 2953 2922 2900 2927 2921 2945 2910 2923 2910 2951 2902 2915 2908 2968 2906 2897 2966 2918 2921 2891 2910 2948 2920 2922 2929 2900 2948 2931 2899 2887 2926 2925 2926 2909 2922 2973 2893 2933 2914 2922 2894 2927 2896 2905 2923 2914 2951 2939 2915 2929 2940 2904 2931 2913 2957 2927 2948 2939 2934 2921 2953 2910 2915 2935 2910 2907 2919 2926 2934 2910 2947 2934 2944 2935 2943 2918 2925 2922 2934 2913 2944 2909 2949 2902 2943 2926 2911 2940 2939 2963 2908 2899 2909 2906 2954 2944 2906 2935 2939 2889 2928 2914 2902 2927 2946 2946 2929 2948 2912 2929 2915 2939 2948 2919 2909 2953 2918 2910 2918 2915 2943 2904 2923 2967 2907 2949 2941 2929 2899 2948 2961 2919 2899 2932 2933 2912 2946 2951 2956 2930 2941 2884 2913 2920 2946 2921 2944 2954 2939 2935 2911 2941 2930 2961 2944 2952 2931 2950 2959 2933 2914 2939 2898 2899 2919 2958 2951 2940 2908 2940 2936 2961 2911 2940 2919 2953 2929 2930 2924 2939 2968 2923 2945 2966 2943 2931 2927 2913 2928 2925 2906 2930 2917 2961 2969 2922 2962 2925 2932 2924 2908 2934 2908 2908 2925 2929 2910 2931 2948 2924 2918 2939 2940 2942 2897 2960 2908 2940 2941 2931 2946 2967 2930 2953 2931 2944 2929 2927 2951 2949 2954 2923 2945 2961 2962 2925 2932 2919 2954 2963 2930 2934 2924 2912 2938 2936 2920 2933 2943 2948 2950 2939 2962 2911 2962 2935 2915 2953 2930 2901 2947 2928 2917 2952 2929 2921 2914 2944 2938 2950 2952 2942 2921 2920 2959 2922 2917 2951 2924 2953 2921 2918 2931 2928 2944 2955 2966 2921 2955 2934 2920 2977 2965 2918 2952 2946 2956 2939 2965 2930 2963 2915 2929 2957 2945 2952 2962 2950 2963 2970 2969 2940 2947 2927 2927 2969 2935 2949 2920 2930 2927 2969 2947 2977 2960 2918 2936 2952 2953 2921 2950 2957 2923 2943 2968 2958 2941 2910 2932 2951 2928 2955 2948 2969 2916 2943 2942 2974 2935 2922 2916 2939 2963 2946 2923 2933 2969 2960 2965 2955 2934 2934 2930 2949 2936 2930 2912 2938 2948 2943 2960 2942 2982 2930 2958 2933 2952 2951 2923 2955 2962 2977 2932 2973 2962 2949 2951 2927 2961 2965 2964 2966 2959 2961 2956 2943 2925 2936 2946 2934 2960 2937 2970 2980 2948 2940 2941 2948 2979 2930 2953 2954 2958 2944 2913 2970 2957 2937 2947 2988 2931 2930 2926 2992 2954 2947 2990 2966 2953 2951 2953 2962 2934 2939 2937 2951 2930 2934 2957 2968 2969 2966 2978 2944 2986 2937 2923 2961 2935 2918 2938 2932 2981 2945 2966 2959 2942 2933 2962 2936 2936 2988 2986 2944 2958 2974 2971 2949 2967 2955 2952 2948 2965 2963 3001 2956 2988 2933 2976 2973 2965 2971 2932 2950 2944 2935 2954 2952 2942 2974 2959 2939 2925 2932 2951 2949 2939 2971 2969 2963 2945 2965 2971 2966 2974 2972 2944 2958 2964 2943 2957 2975 2983 2962 2945 2971 2934 2970 2957 2965 2948 2984 2962 2967 2951 2973 2984 2986 2942 2986 2936 2993 2963 2959 2941 2963 2968 2960 2944 2983 2957 2955 2955 2973 2988 2976 2934 2955 2945 2940 2958 2933 2978 2973 2927 2948 2954 2956 2978 2995 2974 2945 2964 2974 2968 2960 2956 2975 2984 2978 2952 2963 2937 2996 2968 2963 2939 2958 2933 2966 2976 2986 2951 2985 2970 2961 2997 2974 2956 2981 2971 2938 2961 2990 2992 2962 2985 2968 3000 2977 2935 2996 2975 2968 2990 2966 2969 2947 2975 2968 2977 2981 2996 2943 2965 2957 2949 2929 2951 2955 2967 2991 2999 2934 2963 2949 2973 2967 2934 2987 2982 2993 2936 2995 2972 2980 2992 2970 2966 2942 2984 2960 2983 3002 2961 2938 2987 2966 2973 2998 2944 2985 2967 2916 2990 2926 2975 2982 2995 2967 2987 2965 2987 3003

Tree=0
num_leaves=31
num_cat=0
split_feature=0 0 0 0 0 0 0 0 0 1 0 0 0 0 1 0 0 0 0 1 0 0 0 0 0 1 0 0 1 0
split_gain=2775.12 715.445 474.711 100.57 88.8122 78.4478 78.2618 14.0699 12.2671 14.2558 10.6495 9.74716 9.62232 15.3869 7.04076 6.8501 6.16119 10.935 5.54697 4.24074 4.23009 4.18498 4.15428 4.1459 4.02788 6.45028 12.0171 6.72175 4.55905 4.66788
threshold=306.50000000000006 56.500000000000007 625.00000000000011 423.50000000000006 730.00000000000011 -75.499999999999986 159.50000000000003 -174.49999999999997 343.50000000000006 1.0000000180025095e-35 974.00000000000011 527.50000000000011 241.50000000000003 269.50000000000006 1.0000000180025095e-35 63.500000000000007 470.50000000000006 462.50000000000006 372.50000000000006 1.0000000180025095e-35 376.50000000000006 310.50000000000006 366.50000000000006 -39.499999999999993 70.500000000000014 1.0000000180025095e-35 80.500000000000014 77.500000000000014 1.0000000180025095e-35 67.500000000000014
decision_type=2 2 2 2 2 2 2 2 2 2 2 2 2 2 2 2 2 2 2 2 2 2 2 2 2 2 2 2 2 2
left_child=1 5 3 8 -4 7 15 -1 21 20 -6 16 -8 -14 -15 -3 17 -5 -11 -18 22 -2 -10 -7 28 27 -27 -26 29 -17
right_child=2 6 4 11 10 23 12 -9 9 18 -12 -13 13 14 -16 24 19 -19 -20 -21 -22 -23 -24 -25 25 26 -28 -29 -30 -31
leaf_value=-0.028099592036001739 0.033231441124311423 0.013119639782840092 0.10148051548885915 0.06557936668507762 0.15680924912560071 -0.017497909653261895 0.014051936763712053 -0.021703507875529094 0.039515863239883216 0.0037330470907805599 0.19414078891617217 0.08107679995761409 0.031952629214757756 0.01994434990981574 0.0028104141795300911 0.018111552260489841 0.054388917223476808 0.097833538633642553 0.027760597401582505 0.075549398532517548 0.045872078840811965 0.050543366860113542 0.022109095289976975 -0.012322225455105596 0.012718237843038221 -0.016758503854811872 0.0087748855163798066 -0.0037245691903389933 -0.023506778452680621 -0.012168886124349626
leaf_weight=2615 41 100 110 129 81 531 868 1281 109 41 25 141 240 198 86 20 129 33 58 29 144 235 50 1426 68 53 353 723 39 35
leaf_count=2615 41 100 110 129 81 531 868 1281 109 41 25 141 240 198 86 20 129 33 58 29 144 235 50 1426 68 53 353 723 39 35
internal_value=-0.00153234 -0.0119704 0.0649939 0.052106 0.132953 -0.021894 0.00890019 -0.0259966 0.0398549 0.0342822 0.165614 0.070124 0.0172819 0.0226323 0.0147559 0.000512459 0.065298 0.0721497 0.0178098 0.0582728 0.0396642 0.0479717 0.034042 -0.0137266 -0.000464085 0.000318555 0.00544171 -0.00231103 -0.0104303 -0.00115782
internal_weight=0 8636 1355 1139 216 5853 2783 3896 678 402 106 461 1392 524 284 1391 320 162 99 158 303 276 159 1957 1291 1197 406 791 94 55
internal_count=9991 8636 1355 1139 216 5853 2783 3896 678 402 106 461 1392 524 284 1391 320 162 99 158 303 276 159 1957 1291 1197 406 791 94 55
is_linear=0
shrinkage=1


Tree=1
num_leaves=31
num_cat=0
split_feature=0 0 0 0 0 0 0 0 0 1 0 0 0 0 1 0 0 0 0 1 0 0 0 0 0 0 0 1 0 1
split_gain=2504.54 645.689 428.427 90.7641 80.153 70.7991 70.6313 12.6981 11.071 12.8658 9.61121 8.79681 8.68414 13.8866 6.35429 6.18221 5.56047 9.86887 5.00614 3.82727 3.81766 3.77695 3.7584 3.74924 3.74167 3.669 13.7326 5.471 3.63516 5.82138
threshold=306.50000000000006 56.500000000000007 625.00000000000011 423.50000000000006 730.00000000000011 -75.499999999999986 159.50000000000003 -174.49999999999997 343.50000000000006 1.0000000180025095e-35 974.00000000000011 527.50000000000011 241.50000000000003 269.50000000000006 1.0000000180025095e-35 63.500000000000007 470.50000000000006 462.50000000000006 372.50000000000006 1.0000000180025095e-35 376.50000000000006 310.50000000000006 -633.49999999999989 366.50000000000006 -39.499999999999993 195.50000000000003 199.50000000000003 1.0000000180025095e-35 70.500000000000014 1.0000000180025095e-35
decision_type=2 2 2 2 2 2 2 2 2 2 2 2 2 2 2 2 2 2 2 2 2 2 2 2 2 2 2 2 2 2
left_child=1 5 3 8 -4 7 15 22 21 20 -6 16 25 -14 -15 -3 17 -5 -11 -18 23 -2 -1 -10 -7 27 -27 -8 -17 -30
right_child=2 6 4 11 10 24 12 -9 9 18 -12 -13 13 14 -16 28 19 -19 -20 -21 -22 -23 -24 -25 -26 26 -28 -29 29 -31
leaf_value=-0.018739581439734958 0.033025587831692002 0.013919376834295692 0.097862208951264629 0.063756116245721667 0.15042450055882428 -0.015167294364210339 0.0221834755141712 -0.019162613269200462 0.038995788612086843 0.0050021140404590755 0.1858894643560052 0.078478679627655673 0.031810717381522406 0.020402852580012436 0.0041256138946601127 -0.0084530259750070086 0.053125190408900382 0.094397578114700134 0.027828287575715063 0.07322764548248259 0.045034194632252271 0.049471919270668262 -0.025791739296416923 0.022459360234439375 -0.010250394644257666 -0.015857300425811512 0.014449753300683139 0.0095960521332919616 -0.00073975661122528593 0.0066253436272826248
leaf_weight=205 41 100 110 129 81 531 279 1281 109 41 25 141 240 198 86 94 129 33 58 29 144 235 2410 50 1426 41 423 125 791 406
leaf_count=205 41 100 110 129 81 531 279 1281 109 41 25 141 240 198 86 94 129 33 58 29 144 235 2410 50 1426 41 423 125 791 406
internal_value=0 -0.00991615 0.0631999 0.0509565 0.127761 -0.0193436 0.0099109 -0.023241 0.0393179 0.0340238 0.158789 0.0680735 0.0178735 0.0229564 0.0154738 0.00194256 0.0634888 0.0699979 0.018375 0.0568149 0.0391367 0.0470288 -0.0252389 0.0337957 -0.0115845 0.0148051 0.0117718 0.0182889 0.00101484 0.00175835
internal_weight=0 8636 1355 1139 216 5853 2783 3896 678 402 106 461 1392 524 284 1391 320 162 99 158 303 276 2615 159 1957 868 464 404 1291 1197
internal_count=9991 8636 1355 1139 216 5853 2783 3896 678 402 106 461 1392 524 284 1391 320 162 99 158 303 276 2615 159 1957 868 464 404 1291 1197
is_linear=0
shrinkage=0.05


Tree=2
num_leaves=31
num_cat=0
split_feature=0 0 0 0 0 0 0 0 0 1 0 0 0 0 1 0 0 0 0 1 0 0 0 0 0 0 0 0 0 1
split_gain=2260.35 582.734 386.655 81.9146 72.3381 63.8962 63.7447 11.46 9.99159 11.6114 8.67412 7.93913 7.83744 12.5327 5.73474 5.57945 5.01833 8.90666 4.51804 3.45411 3.44543 3.41838 3.40869 3.39196 3.38369 3.37686 3.41782 3.31127 12.3937 4.93758
threshold=306.50000000000006 56.500000000000007 625.00000000000011 423.50000000000006 730.00000000000011 -75.499999999999986 159.50000000000003 -174.49999999999997 343.50000000000006 1.0000000180025095e-35 974.00000000000011 527.50000000000011 241.50000000000003 269.50000000000006 1.0000000180025095e-35 63.500000000000007 470.50000000000006 462.50000000000006 372.50000000000006 1.0000000180025095e-35 376.50000000000006 -167.49999999999997 310.50000000000006 -633.49999999999989 366.50000000000006 -39.499999999999993 -55.499999999999993 195.50000000000003 199.50000000000003 1.0000000180025095e-35
decision_type=2 2 2 2 2 2 2 2 2 2 2 2 2 2 2 2 2 2 2 2 2 2 2 2 2 2 2 2 2 2
left_child=1 5 3 8 -4 7 15 23 22 20 -6 16 27 -14 -15 -3 17 -5 -11 -18 24 -9 -2 -1 -10 26 -7 29 -29 -8
right_child=2 6 4 11 10 25 12 21 9 18 -12 -13 13 14 -16 -17 19 -19 -20 -21 -22 -23 -24 -25 -26 -27 -28 28 -30 -31
leaf_value=-0.017802602444298387 0.031374310520364018 0.013223408721387386 0.092969097544185142 0.060568312227783742 0.14290327622934626 -0.010494552746882511 0.021074301051226277 -0.0080609054594205174 0.037045999915112635 0.0047520082216800721 0.17659499454498293 0.074554746045816883 0.030220181455370039 0.019382710164563374 0.0039193320369651152 0.00096409703095120365 0.050468931174561804 0.089677700177399511 0.026436873220292659 0.069566265223868967 0.042782484309282158 -0.018862169598508803 0.0469983211310303 -0.024502151391722061 0.021336391914170236 -0.0097378742737763493 -0.018519778919458375 -0.015064437087716126 0.013727263709938651 0.0091162484348751606
leaf_weight=205 41 100 110 129 81 272 279 78 109 41 25 141 240 198 86 1291 129 33 58 29 144 1203 235 2410 50 1426 259 41 423 125
leaf_count=205 41 100 110 129 81 272 279 78 109 41 25 141 240 198 86 1291 129 33 58 29 144 1203 235 2410 50 1426 259 41 423 125
internal_value=0 -0.00942034 0.0600399 0.0484086 0.121373 -0.0183764 0.00941535 -0.022079 0.037352 0.0323226 0.150849 0.0646699 0.0169798 0.0218086 0.0147001 0.00184543 0.0603143 0.066498 0.0174563 0.0539741 0.0371799 -0.0182045 0.0446774 -0.0239769 0.0321059 -0.0110053 -0.0144089 0.0140648 0.0111832 0.0173744
internal_weight=0 8636 1355 1139 216 5853 2783 3896 678 402 106 461 1392 524 284 1391 320 162 99 158 303 1281 276 2615 159 1957 531 868 464 404
internal_count=9991 8636 1355 1139 216 5853 2783 3896 678 402 106 461 1392 524 284 1391 320 162 99 158 303 1281 276 2615 159 1957 531 868 464 404
is_linear=0
shrinkage=0.05


Tree=3
num_leaves=31
num_cat=0
split_feature=0 0 0 0 0 0 0 0 0 1 0 0 0 0 1 0 0 0 0 0 1 0 0 0 1 0 0 0 0 1
split_gain=2039.97 525.918 348.956 73.928 65.2851 57.6663 57.5296 10.3427 9.01741 10.4793 7.82839 7.16506 7.07329 11.3108 5.17561 5.03545 4.52904 8.03826 4.10628 3.28074 5.25379 10.8455 6.24222 5.14463 4.11454 4.21276 3.84416 5.74634 3.26899 3.22829
threshold=306.50000000000006 56.500000000000007 625.00000000000011 423.50000000000006 730.00000000000011 -75.499999999999986 159.50000000000003 -174.49999999999997 343.50000000000006 1.0000000180025095e-35 974.00000000000011 527.50000000000011 241.50000000000003 269.50000000000006 1.0000000180025095e-35 63.500000000000007 470.50000000000006 462.50000000000006 366.50000000000006 70.500000000000014 1.0000000180025095e-35 80.500000000000014 86.500000000000014 106.50000000000001 1.0000000180025095e-35 67.500000000000014 83.500000000000014 77.500000000000014 -100.49999999999999 1.0000000180025095e-35
decision_type=2 2 2 2 2 2 2 2 2 2 2 2 2 2 2 2 2 2 2 2 2 2 2 2 2 2 2 2 2 2
left_child=1 5 3 8 -4 7 15 29 -2 -10 -6 16 -8 -14 -15 -3 17 -5 -11 24 22 -22 26 -24 25 -17 27 -21 -9 -1
right_child=2 6 4 11 10 -7 12 28 9 18 -12 -13 13 14 -16 19 -18 -19 -20 20 21 -23 23 -25 -26 -27 -28 -29 -30 -31
leaf_value=-0.021702477909523218 0.042443494154882716 0.012562238245271147 0.088320642455734996 0.057539897695068246 0.13575811043473673 -0.01045502472556635 0.013361566835119279 -0.015763835664470795 0.035320909978651283 0.0011401323477427166 0.16776523727178574 0.070827007974029008 0.028709172990250716 0.018413574332042101 0.0037233665022392611 0.019036140665411951 0.051275431172910474 0.085193814393697373 0.023297948639800239 0.013526829337591634 -0.014844330229778897 0.0094123888625674331 -0.010681354041610447 -0.00033354508999664233 -0.020501272657360788 -0.0097302744989948634 0.022518544408699704 -0.0084348609635852417 -0.021462880449131305 -0.025647434907237809
leaf_weight=1902 276 100 110 129 81 1957 868 937 303 30 25 141 240 198 86 20 158 33 69 68 53 353 161 473 39 35 36 53 344 713
leaf_count=1902 276 100 110 129 81 1957 868 937 303 30 25 141 240 198 86 20 158 33 69 68 53 353 161 473 39 35 36 53 344 713
internal_value=0 -0.00894933 0.0570379 0.0459882 0.115305 -0.0174576 0.00894458 -0.020975 0.0354844 0.0307065 0.143307 0.0614364 0.0161308 0.0207181 0.0139651 0.00175316 0.0572986 0.0631731 0.0165835 0.000915892 0.00162222 0.00624587 -0.000750974 -0.0029613 -0.00807858 0.00073024 0.0081748 0.00390725 -0.0172943 -0.0227781
internal_weight=0 8636 1355 1139 216 5853 2783 3896 678 402 106 461 1392 524 284 1391 320 162 99 1291 1197 406 791 634 94 55 157 121 1281 2615
internal_count=9991 8636 1355 1139 216 5853 2783 3896 678 402 106 461 1392 524 284 1391 320 162 99 1291 1197 406 791 634 94 55 157 121 1281 2615
is_linear=0
shrinkage=0.05


Tree=4
num_leaves=31
num_cat=0
split_feature=0 0 0 0 0 0 0 0 0 0 1 0 0 0 1 0 0 0 0 0 1 0 0 0 0 0 0 0 0 0
split_gain=1841.07 474.641 315.592 85.0243 52.0439 51.9205 32.2004 12.8955 9.33424 8.13822 9.45758 7.06512 6.38364 10.208 4.67098 4.5445 4.20225 6.99515 4.24297 6.90371 4.06545 5.45379 3.76294 3.1095 3.07634 3.05378 3.04762 3.08458 3.03729 3.03628
threshold=306.50000000000006 56.500000000000007 676.50000000000011 423.50000000000006 -75.499999999999986 159.50000000000003 730.00000000000011 527.50000000000011 -174.49999999999997 343.50000000000006 1.0000000180025095e-35 974.00000000000011 241.50000000000003 269.50000000000006 1.0000000180025095e-35 63.500000000000007 499.50000000000006 514.50000000000011 488.50000000000006 480.50000000000006 1.0000000180025095e-35 443.50000000000006 372.50000000000006 376.50000000000006 310.50000000000006 366.50000000000006 -39.499999999999993 -55.499999999999993 -633.49999999999989 -167.49999999999997
decision_type=2 2 2 2 2 2 2 2 2 2 2 2 2 2 2 2 2 2 2 2 2 2 2 2 2 2 2 2 2 2
left_child=1 4 3 9 8 15 -4 16 28 24 23 -8 -7 -14 -15 -3 18 -18 19 20 -5 -22 -12 25 -2 -11 27 -6 -1 -10
right_child=2 5 6 7 26 12 11 -9 29 10 22 -13 13 14 -16 -17 17 -19 -20 -21 21 -23 -24 -25 -26 -27 -28 -29 -30 -31
leaf_value=-0.0157965585480376 0.02768341966268675 0.011934126491658391 0.088705313015142812 0.062313581259015385 -0.0094470751857871245 0.012693487815136729 0.12897021041976081 0.070693899152639711 -0.0068696692824745794 0.033427654389546195 0.0041601624521540436 0.15937697866559031 0.027273714744854568 0.01749289516022081 0.0035371980868106668 0.00087009763193538956 0.026462552929297091 0.05978854654296753 0.07372380127198995 0.032007853301434679 0.025598204918205737 0.059784001271639554 0.023950131794694685 0.03887731445332368 0.042526231525896831 0.018503526871092617 -0.0087282298432224195 -0.017071039078696039 -0.022136182767692646 -0.017049386690776016
leaf_weight=205 41 100 54 146 272 868 81 197 78 109 41 25 240 198 86 1291 32 31 34 29 20 28 58 144 235 50 1426 259 2410 1203
leaf_count=205 41 100 54 146 272 868 81 197 78 109 41 25 240 198 86 1291 32 31 34 29 20 28 58 144 235 50 1426 259 2410 1203
internal_value=0 -0.00850186 0.054186 0.0453565 -0.0165847 0.00849736 0.120132 0.0606296 -0.0199263 0.0337102 0.0291711 0.136142 0.0153243 0.0196822 0.0132669 0.0016655 0.0544337 0.0428611 0.0572706 0.054762 0.0581634 0.0455399 0.0157543 0.0335549 0.0403213 0.0287345 -0.00993227 -0.0131657 -0.0216392 -0.0164295
internal_weight=0 8636 1355 1195 5853 2783 160 517 3896 678 402 106 1392 524 284 1391 320 63 257 223 194 48 99 303 276 159 1957 531 2615 1281
internal_count=9991 8636 1355 1195 5853 2783 160 517 3896 678 402 106 1392 524 284 1391 320 63 257 223 194 48 99 303 276 159 1957 531 2615 1281
is_linear=0
shrinkage=0.05


Tree=5
num_leaves=31
num_cat=0
split_feature=0 0 0 0 0 0 0 0 0 0 1 0 0 0 0 0 0 1 0 0 0 0 1 0 1 0 1 0 0 0
split_gain=1661.65 366.744 308.236 109.161 52.708 42.992 27.1705 19.0254 11.431 8.42415 7.48441 6.37627 6.29261 6.92602 6.0333 5.67421 5.48763 4.21556 3.96069 3.87154 7.10428 3.41884 3.23394 3.40393 3.06707 2.90426 2.89087 5.33297 4.48119 3.38732
threshold=245.50000000000003 625.00000000000011 50.500000000000007 423.50000000000006 730.00000000000011 -75.499999999999986 159.50000000000003 306.50000000000006 269.50000000000006 -174.49999999999997 1.0000000180025095e-35 974.00000000000011 330.50000000000006 315.50000000000006 343.50000000000006 527.50000000000011 330.50000000000006 1.0000000180025095e-35 315.50000000000006 470.50000000000006 462.50000000000006 366.50000000000006 1.0000000180025095e-35 259.50000000000006 1.0000000180025095e-35 -100.49999999999999 1.0000000180025095e-35 -205.49999999999997 -201.49999999999997 -633.49999999999989
decision_type=2 2 2 2 2 2 2 2 2 2 2 2 2 2 2 2 2 2 2 2 2 2 2 2 2 2 2 2 2 2
left_child=2 3 5 7 -3 9 -4 8 22 26 12 -6 13 -9 16 19 18 -10 -12 20 -5 -16 -2 -24 -21 -11 27 29 -29 -1
right_child=1 4 6 15 11 -7 -8 10 17 25 14 -13 -14 -15 21 -17 -18 -19 -20 24 -22 -23 23 -25 -26 -27 -28 28 -30 -31
leaf_value=-0.013888783373929174 0.024089181933390061 0.079927817087789843 0.0012294227961830099 0.051847525659493757 0.12252169776431941 -0.009698630922995808 0.012200543112898476 0.031736409158135456 0.01661825137259321 -0.014165545155849852 0.038381030596792702 0.1514081294964999 0.03173265079033865 0.054596231526040755 0.00087511805196603145 0.063750962020023491 0.05129236900912864 0.0033603380672460382 0.0080233340574936435 0.042840164245012427 0.077845274855975408 0.021093289950943513 0.048020536686692927 0.023572350890996557 0.060835776478052141 -0.019537265367077009 -0.023272480560678252 0.0085746228310239047 -0.014706334885576164 -0.021277134622991759
leaf_weight=173 138 110 1483 129 81 1865 911 60 198 937 21 25 374 74 30 141 28 86 22 129 33 69 35 24 29 344 713 23 204 1502
leaf_count=173 138 110 1483 129 81 1865 911 60 198 937 21 25 374 74 30 141 28 86 22 129 33 69 35 24 29 344 713 23 204 1502
internal_value=0 0.0429745 -0.00967518 0.0348146 0.104174 -0.0159415 0.00540431 0.0266289 0.0190232 -0.01893 0.0320246 0.129335 0.0350636 0.0443605 0.0229435 0.0553942 0.0340662 0.0126035 0.0228492 0.051712 0.0571434 0.0149666 0.028278 0.0380755 0.0461432 -0.0156081 -0.0205572 -0.0195394 -0.0123475 -0.020514
internal_weight=0 1836 8155 1620 216 5761 2394 1159 481 3896 678 106 508 134 170 461 71 284 43 320 162 99 197 59 158 1281 2615 1902 227 1675
internal_count=9991 1836 8155 1620 216 5761 2394 1159 481 3896 678 106 508 134 170 461 71 284 43 320 162 99 197 59 158 1281 2615 1902 227 1675
is_linear=0
shrinkage=0.05


Tree=6
num_leaves=31
num_cat=0
split_feature=0 0 0 0 0 0 0 0 0 0 1 0 0 0 0 0 0 0 0 0 1 1 0 0 0 1 0 0 0 0
split_gain=1499.64 330.987 278.183 98.5179 47.569 38.8003 24.5214 17.1704 10.3165 7.6028 6.75468 5.75459 5.67908 6.25073 5.44506 5.14696 9.48016 4.95258 3.96902 6.01474 3.80455 3.70979 4.79998 3.57453 3.13408 2.91863 3.07205 2.6969 2.64929 3.70369
threshold=245.50000000000003 625.00000000000011 50.500000000000007 423.50000000000006 730.00000000000011 -75.499999999999986 159.50000000000003 306.50000000000006 269.50000000000006 -174.49999999999997 1.0000000180025095e-35 974.00000000000011 330.50000000000006 315.50000000000006 343.50000000000006 514.50000000000011 499.50000000000006 330.50000000000006 488.50000000000006 480.50000000000006 1.0000000180025095e-35 1.0000000180025095e-35 443.50000000000006 315.50000000000006 372.50000000000006 1.0000000180025095e-35 259.50000000000006 -167.49999999999997 433.50000000000006 452.50000000000006
decision_type=2 2 2 2 2 2 2 2 2 2 2 2 2 2 2 2 2 2 2 2 2 2 2 2 2 2 2 2 2 2
left_child=2 3 5 7 -3 9 -4 8 25 -1 12 -6 13 -9 17 16 18 23 19 21 -10 28 -23 -12 -16 -2 -27 -11 -5 -30
right_child=1 4 6 15 11 -7 -8 10 20 27 14 -13 -14 -15 24 -17 -18 -19 -20 -21 -22 22 -24 -25 -26 26 -28 -29 29 -31
leaf_value=-0.019529373879770592 0.02288472268399715 0.075931425697000871 0.0011679516765474268 0.07127504624426366 0.11639561168274577 -0.0092136992651834365 0.011590515926690378 0.030149587253108623 0.015787338765074661 -0.0058179092068129622 0.036461978086403439 0.14383772122859956 0.030146017741352161 0.051866418727346368 0.0036371792598468506 0.059472749735835162 0.022884944663383068 0.048727749713829593 0.067657426207819407 0.028079289823754468 0.0031923206436426143 0.021725917970761659 0.053797200069363629 0.0076221662996844818 0.021697961497281135 0.045619508932743753 0.022393733434243283 -0.015411837642873247 0.041398522437417082 0.059774122265745189
leaf_weight=2615 138 110 1483 25 81 1865 911 60 198 78 21 25 374 74 41 172 32 28 34 29 86 20 28 22 58 35 24 1203 42 79
leaf_count=2615 138 110 1483 25 81 1865 911 60 198 78 21 25 374 74 41 172 32 28 34 29 86 20 28 22 58 35 24 1203 42 79
internal_value=0 0.0408257 -0.00919142 0.0330738 0.098965 -0.0151444 0.0051341 0.0252974 0.0180721 -0.0179835 0.0304234 0.122868 0.0333104 0.0421425 0.0217963 0.0526245 0.0485487 0.0323629 0.0517442 0.049318 0.0119734 0.0524928 0.0404342 0.0217067 0.0142182 0.0268641 0.0361717 -0.0148277 0.0564573 0.0533958
internal_weight=0 1836 8155 1620 216 5761 2394 1159 481 3896 678 106 508 134 170 461 289 71 257 223 284 194 48 43 99 197 59 1281 146 121
internal_count=9991 1836 8155 1620 216 5761 2394 1159 481 3896 678 106 508 134 170 461 289 71 257 223 284 194 48 43 99 197 59 1281 146 121
is_linear=0
shrinkage=0.05


Tree=7
num_leaves=31
num_cat=0
split_feature=0 0 0 0 0 0 0 0 0 0 1 0 0 0 0 1 0 0 1 0 0 0 0 0 0 1 0 1 0 0
split_gain=1353.42 298.716 251.117 88.9124 42.931 28.7454 27.4008 15.5725 8.50462 7.90217 6.96503 6.85263 5.50972 5.19351 4.68876 3.97699 3.91114 3.84247 6.03392 4.59812 3.38442 6.17688 2.84644 2.80633 2.75603 2.7372 2.68814 2.60901 4.81301 4.04428
threshold=245.50000000000003 625.00000000000011 32.500000000000007 423.50000000000006 730.00000000000011 146.50000000000003 -174.49999999999997 310.50000000000006 254.50000000000003 343.50000000000006 1.0000000180025095e-35 -39.499999999999993 1.0000000180025095e-35 974.00000000000011 527.50000000000011 1.0000000180025095e-35 -2.4999999999999996 56.500000000000007 1.0000000180025095e-35 63.500000000000007 470.50000000000006 462.50000000000006 366.50000000000006 376.50000000000006 366.50000000000006 1.0000000180025095e-35 -42.499999999999993 1.0000000180025095e-35 -205.49999999999997 -201.49999999999997
decision_type=2 2 2 2 2 2 2 2 2 2 2 2 2 2 2 2 2 2 2 2 2 2 2 2 2 2 2 2 2 2
left_child=2 3 6 7 -3 17 27 8 -2 -9 23 15 16 -6 20 26 -13 18 -4 -19 21 -5 -12 24 -11 -22 -8 28 -1 -30
right_child=1 4 5 14 13 -7 11 9 -10 10 22 12 -14 -15 -16 -17 -18 19 -20 -21 25 -23 -24 -25 -26 -27 -28 -29 29 -31
leaf_value=-0.018511869403328607 0.032100998915951043 0.072134855384515098 -4.4018435072105842e-05 0.046786150776297435 0.11057583474910554 0.010193207582201 -0.014736556527336603 0.03656282302864055 0.014815476195869683 0.028662339720977554 0.00064950307210286465 -0.0060603208387839044 -0.012217752848682572 0.13664583945274353 0.057589776708301926 -0.010122290111783618 0.010744656788537631 0.011217552375048401 -0.013391723270226913 3.2385371011671983e-05 0.038318997260468272 0.0710276962455475 0.019097691178456815 0.033839516099801084 0.014484417334198953 0.055319362397080865 -0.033223893595859415 -0.021132387686373866 0.0091223595623412864 -0.012994551316232367
leaf_weight=1675 85 110 233 129 81 1070 1166 235 437 109 30 539 484 25 141 626 37 100 133 1132 129 33 69 144 50 29 20 713 23 204
leaf_count=1675 85 110 233 129 81 1070 1166 235 437 109 30 539 484 25 141 626 37 100 133 1132 129 33 69 144 50 29 20 713 23 204
internal_value=0 0.0387845 -0.00873185 0.0314201 0.0940168 0.00385075 -0.01485 0.0240326 0.0176302 0.0292791 0.0250212 -0.0114785 -0.00828524 0.116724 0.0499933 -0.0133465 -0.00498083 -0.000396083 -0.00489441 0.000940272 0.0466461 0.0517242 0.0135073 0.0287832 0.0242039 0.0414393 -0.0150483 -0.0185529 -0.0175859 -0.0107536
internal_weight=0 1836 8155 1620 216 2668 5487 1159 522 637 402 2872 1060 106 461 1812 576 1598 366 1232 320 162 99 303 159 158 1186 2615 1902 227
internal_count=9991 1836 8155 1620 216 2668 5487 1159 522 637 402 2872 1060 106 461 1812 576 1598 366 1232 320 162 99 303 159 158 1186 2615 1902 227
is_linear=0
shrinkage=0.05


Tree=8
num_leaves=31
num_cat=0
split_feature=0 0 0 0 0 0 0 0 0 1 0 0 0 0 0 0 0 0 1 0 0 0 0 0 0 1 0 0 0 1
split_gain=1222.09 315.443 210.905 55.9469 34.6914 34.4992 20.6831 8.41379 6.06676 5.61883 5.06834 5.33823 4.68715 4.36073 4.38208 4.21121 7.23786 3.72294 3.4336 3.3491 3.10526 5.58079 3.70807 5.30163 5.69853 3.07048 6.00123 2.98842 11.1853 4.45616
threshold=306.50000000000006 56.500000000000007 676.50000000000011 423.50000000000006 -75.499999999999986 159.50000000000003 730.00000000000011 527.50000000000011 -174.49999999999997 1.0000000180025095e-35 330.50000000000006 315.50000000000006 974.00000000000011 343.50000000000006 330.50000000000006 241.50000000000003 269.50000000000006 63.500000000000007 1.0000000180025095e-35 315.50000000000006 499.50000000000006 514.50000000000011 488.50000000000006 470.50000000000006 452.50000000000006 1.0000000180025095e-35 443.50000000000006 195.50000000000003 199.50000000000003 1.0000000180025095e-35
decision_type=2 2 2 2 2 2 2 2 2 2 2 2 2 2 2 2 2 2 2 2 2 2 2 2 2 2 2 2 2 2
left_child=1 4 3 9 8 17 -4 20 -1 10 11 -2 -8 14 19 27 -17 -3 -18 -11 22 -22 23 24 25 26 -5 29 -29 -7
right_child=2 5 6 7 -6 15 12 -9 -10 13 -12 -13 -14 -15 -16 16 18 -19 -20 -21 21 -23 -24 -25 -26 -27 -28 28 -30 -31
leaf_value=-0.017625259826624017 0.027375773998598259 0.010656674665515313 0.072870340584604829 0.057341394549671645 -0.0080847761376930324 0.017018619338534505 0.10504703914982348 0.057447940913894158 -0.013425277106298601 0.033328532498507278 0.027125713796564005 0.047444957998389305 0.12981354907155038 0.012831964317916167 0.044463219892765797 0.022428314243443312 0.014257197123199625 0.00064253465162112582 0.0022919316072190225 0.0054129190330224281 0.019718495807319415 0.049485297573189584 0.062133599973303179 0.031843655755682314 0.060742280090926221 0.028548559750760757 0.024640203616581858 -0.017313179619065144 0.010038936813196815 0.0056584703907370569
leaf_weight=2615 60 100 54 47 1957 279 81 197 1281 21 374 74 25 99 28 240 198 1291 86 22 32 31 34 61 64 31 20 41 423 125
leaf_count=2615 60 100 54 47 1957 279 81 197 1281 21 374 74 25 99 28 240 198 1291 86 22 32 31 34 61 64 31 20 41 423 125
internal_value=0 -0.00692677 0.0441473 0.0369293 -0.0135161 0.00693142 0.0980572 0.0493185 -0.0162443 0.027482 0.0301151 0.0384588 0.110888 0.0196136 0.0290698 0.0124964 0.0160359 0.00136246 0.0106339 0.0190461 0.0443138 0.0343657 0.0467524 0.0444073 0.049138 0.0415597 0.0475798 0.0103596 0.00762205 0.0135037
internal_weight=0 8636 1355 1195 5853 2783 160 517 3896 678 508 134 106 170 71 1392 524 1391 284 43 320 63 257 223 162 98 67 868 464 404
internal_count=9991 8636 1355 1195 5853 2783 160 517 3896 678 508 134 106 170 71 1392 524 1391 284 43 320 63 257 223 162 98 67 868 464 404
is_linear=0
shrinkage=0.05


Tree=9
num_leaves=31
num_cat=0
split_feature=0 0 0 0 0 0 0 0 0 0 0 1 0 0 0 0 1 0 0 0 1 0 0 1 0 0 0 1 0 0
split_gain=1103.04 244.075 205.208 72.0574 34.6633 23.396 22.1653 12.7063 7.34877 6.47918 5.70841 5.68205 4.97252 4.23015 3.80847 7.50775 3.56772 3.52981 3.34653 4.9132 3.11592 4.02524 2.89665 5.44561 3.76793 2.61035 2.53999 3.71337 3.80202 2.53271
threshold=245.50000000000003 625.00000000000011 32.500000000000007 423.50000000000006 730.00000000000011 146.50000000000003 -174.49999999999997 310.50000000000006 254.50000000000003 343.50000000000006 -39.499999999999993 1.0000000180025095e-35 1.0000000180025095e-35 974.00000000000011 514.50000000000011 499.50000000000006 1.0000000180025095e-35 -2.4999999999999996 488.50000000000006 480.50000000000006 1.0000000180025095e-35 443.50000000000006 56.500000000000007 1.0000000180025095e-35 63.500000000000007 372.50000000000006 70.500000000000014 1.0000000180025095e-35 67.500000000000014 376.50000000000006
decision_type=2 2 2 2 2 2 2 2 2 2 2 2 2 2 2 2 2 2 2 2 2 2 2 2 2 2 2 2 2 2
left_child=2 3 6 7 -3 22 -1 8 -2 -9 16 29 17 -6 15 18 -8 -12 19 20 -5 -22 23 -4 -24 -13 27 28 -26 -11
right_child=1 4 5 14 13 -7 10 9 -10 11 12 25 -14 -15 -16 -17 -18 -19 -20 -21 21 -23 24 -25 26 -27 -28 -29 -30 -31
leaf_value=-0.016743996425533588 0.029374534553464723 0.065277166644280613 0.00036242197151795477 0.048689709372869504 0.099794690083945176 0.009213513868869606 -0.013698035158739351 0.033040762691104668 0.013306517937610639 0.021637393209977814 -0.0053530654548589619 0.0025337712998252091 -0.011202626178425464 0.12332286813855171 0.050967933835602525 0.018732570316933563 -0.009032356327624818 0.01061166311689728 0.059026920395519801 0.022991326965134722 0.016872886079363526 0.046242111082288567 0.010123839591164143 -0.012317897997537446 0.017887214720249175 0.019016580069879201 0.00071137452808519208 -0.019673328459835972 -0.009440881144920631 0.030791253586196238
leaf_weight=2615 85 110 233 146 81 1070 1186 235 437 159 539 41 484 25 172 32 626 37 34 29 20 28 100 133 20 58 1038 39 35 144
leaf_count=2615 85 110 233 146 81 1070 1186 235 437 159 539 41 484 25 172 32 626 37 34 29 20 28 100 133 20 58 1038 39 35 144
internal_value=0 0.0350136 -0.00788289 0.0283568 0.0849395 0.00349155 -0.0134136 0.0217062 0.015923 0.0264454 -0.0103812 0.0225899 -0.00746674 0.105344 0.0450771 0.0415711 -0.0120862 -0.00432755 0.0444148 0.0421869 0.0450564 0.0340049 -0.000339795 -0.00424545 0.000820491 0.0121904 -1.36007e-06 -0.00787177 0.000496608 0.0259877
internal_weight=0 1836 8155 1620 216 2668 5487 1159 522 637 2872 402 1060 106 461 289 1812 576 257 223 194 48 1598 366 1232 99 1132 94 55 303
internal_count=9991 1836 8155 1620 216 2668 5487 1159 522 637 2872 402 1060 106 461 289 1812 576 257 223 194 48 1598 366 1232 99 1132 94 55 303
is_linear=0
shrinkage=0.05


Tree=10
num_leaves=31
num_cat=0
split_feature=0 0 0 0 0 0 0 0 0 1 0 0 0 0 0 0 0 0 1 0 0 1 0 0 0 1 0 0 0 1
split_gain=995.973 256.775 172.174 45.3683 28.4792 28.3094 16.6531 6.84865 4.89637 4.67778 4.5255 4.56355 3.81771 3.48802 3.88001 3.4051 7.66692 3.13061 3.09883 3.04994 2.79706 2.77841 2.6416 5.11747 2.61612 4.74616 9.66938 5.84094 6.00053 3.35132
threshold=306.50000000000006 56.500000000000007 676.50000000000011 423.50000000000006 -75.499999999999986 159.50000000000003 730.00000000000011 527.50000000000011 -205.49999999999997 1.0000000180025095e-35 330.50000000000006 315.50000000000006 974.00000000000011 343.50000000000006 330.50000000000006 245.50000000000003 269.50000000000006 315.50000000000006 1.0000000180025095e-35 63.500000000000007 -633.49999999999989 1.0000000180025095e-35 470.50000000000006 462.50000000000006 70.500000000000014 1.0000000180025095e-35 80.500000000000014 89.500000000000014 106.50000000000001 1.0000000180025095e-35
decision_type=2 2 2 2 2 2 2 2 2 2 2 2 2 2 2 2 2 2 2 2 2 2 2 2 2 2 2 2 2 2
left_child=1 4 3 9 8 19 -4 22 20 10 11 -2 -8 14 17 -7 21 -11 -18 -3 -1 -17 23 -5 29 27 -27 -26 -29 -21
right_child=2 5 6 7 -6 15 12 -9 -10 13 -12 -13 -14 -15 -16 16 18 -19 -20 24 -22 -23 -24 -25 25 26 -28 28 -30 -31
leaf_value=-0.010598074921134223 0.024864748978434367 0.0096176482653245327 0.06596296503794967 0.039965703259691482 -0.0072772220618433983 0.0094941913087315082 0.094804951980894003 0.051823767492084338 -0.012573611535129925 0.030479929809059416 0.024403093746280607 0.043420670785535305 0.11715672275424004 0.01158084808331397 0.040588021118726052 0.018391216183553681 0.012879012594225282 0.0034902337938547134 0.0015120076936084865 0.00047177769794044171 -0.016721271250513158 0.031355116074368104 0.035374001486674897 0.062030671265992259 0.0067883566067014197 -0.014334802803987601 0.0085689770242643858 -0.012675858845057734 -0.00075867608530214557 -0.01868966212257361
leaf_weight=205 60 100 54 129 1957 911 81 197 1624 21 374 74 25 99 28 138 198 22 86 55 2067 59 158 33 182 53 353 136 473 39
leaf_count=205 60 100 54 129 1957 911 81 197 1624 21 374 74 25 99 28 138 198 22 86 55 2067 59 158 33 182 53 353 136 473 39
internal_value=0 -0.00625321 0.0398544 0.0333327 -0.0121983 0.00625004 0.0885632 0.0444893 -0.0146702 0.0248254 0.0272279 0.035112 0.100077 0.0176461 0.0261032 0.0112911 0.0146944 0.0166712 0.00943689 0.00120534 -0.0161688 0.0222738 0.039974 0.0444604 0.00055373 0.00118447 0.00557907 -0.00107116 -0.00341998 -0.00747818
internal_weight=0 8636 1355 1195 5853 2783 160 517 3896 678 508 134 106 170 71 1392 481 43 284 1391 2272 197 320 162 1291 1197 406 791 609 94
internal_count=9991 8636 1355 1195 5853 2783 160 517 3896 678 508 134 106 170 71 1392 481 43 284 1391 2272 197 320 162 1291 1197 406 791 609 94
is_linear=0
shrinkage=0.05


Tree=11
num_leaves=31
num_cat=0
split_feature=0 0 0 0 0 0 0 0 0 1 0 0 0 0 0 0 0 0 1 0 0 0 1 0 0 0 0 0 0 1
split_gain=898.866 231.739 155.387 40.9449 25.7025 25.5493 15.0294 6.18091 4.46923 4.22169 4.08427 4.11861 3.44548 3.14794 3.50171 3.0731 6.91939 2.82538 2.79669 2.75257 2.59331 2.52037 2.50751 2.57269 2.44444 4.47888 3.14615 4.29613 4.6559 2.45288
threshold=306.50000000000006 56.500000000000007 676.50000000000011 423.50000000000006 -75.499999999999986 159.50000000000003 730.00000000000011 527.50000000000011 -174.49999999999997 1.0000000180025095e-35 330.50000000000006 315.50000000000006 974.00000000000011 343.50000000000006 330.50000000000006 245.50000000000003 269.50000000000006 315.50000000000006 1.0000000180025095e-35 63.500000000000007 -100.49999999999999 701.00000000000011 1.0000000180025095e-35 259.50000000000006 499.50000000000006 514.50000000000011 488.50000000000006 470.50000000000006 452.50000000000006 1.0000000180025095e-35
decision_type=2 2 2 2 2 2 2 2 2 2 2 2 2 2 2 2 2 2 2 2 2 2 2 2 2 2 2 2 2 2
left_child=1 4 3 9 8 19 21 24 -1 10 11 -2 -8 14 17 -7 22 -11 -18 -3 -10 -4 -17 -24 26 -26 27 28 29 -5
right_child=2 5 6 7 -6 15 12 -9 20 13 -12 -13 -14 -15 -16 16 18 -19 -20 -21 -22 -23 23 -25 25 -27 -28 -29 -30 -31
leaf_value=-0.015121935884551508 0.023621511271339841 0.0091367661878466611 0.073466842266282556 0.040768083602662632 -0.0069133607220442138 0.0090194820546014506 0.090064708286045514 0.049232578584053444 -0.010153986412560378 0.028955933629047304 0.023182938998953545 0.041249637660331323 0.11129889154434205 0.011001805357183472 0.038558620261028409 0.0174716560628967 0.012235061184625433 0.0033157230185514152 0.0014364085636686449 0.00052604401445537107 -0.015229996862932284 0.051862795375011587 0.038433247400181642 0.017178775261466703 0.016027241322444753 0.042693936896900979 0.054306873306632045 0.0266691816604284 0.05272647927486105 0.023758136132551778
leaf_weight=2615 60 100 27 67 1957 911 81 197 937 21 374 74 25 99 28 138 198 22 86 1291 344 27 35 24 32 31 34 61 64 31
leaf_count=2615 60 100 27 67 1957 911 81 197 937 21 374 74 25 99 28 138 198 22 86 1291 344 27 35 24 32 31 34 61 64 31
internal_value=0 -0.00594055 0.0378617 0.0316661 -0.0115884 0.00593754 0.0841351 0.0422648 -0.0139367 0.0235841 0.0258665 0.0333564 0.0950728 0.0167638 0.0247981 0.0107266 0.0139597 0.0158377 0.00896505 0.00114508 -0.0115171 0.0626648 0.0211601 0.0297874 0.0379753 0.0291489 0.040139 0.0379788 0.0422374 0.0353874
internal_weight=0 8636 1355 1195 5853 2783 160 517 3896 678 508 134 106 170 71 1392 481 43 284 1391 1281 54 197 59 320 63 257 223 162 98
internal_count=9991 8636 1355 1195 5853 2783 160 517 3896 678 508 134 106 170 71 1392 481 43 284 1391 1281 54 197 59 320 63 257 223 162 98
is_linear=0
shrinkage=0.05


Tree=12
num_leaves=31
num_cat=0
split_feature=0 0 0 0 0 0 0 0 1 0 0 0 0 0 0 0 0 0 0 0 0 0 1 0 1 0 0 0 1 0
split_gain=811.227 209.228 140.847 28.6914 25.0466 25.013 21.1983 4.05873 3.81008 3.68605 3.71704 3.16272 2.84102 3.1603 2.77632 5.12887 2.74533 5.9724 2.8394 4.00935 2.69705 10.0947 4.02169 2.70122 2.58591 3.40684 2.5499 2.52435 2.52401 2.49719
threshold=306.50000000000006 50.500000000000007 625.00000000000011 423.50000000000006 159.50000000000003 730.00000000000011 -75.499999999999986 -205.49999999999997 1.0000000180025095e-35 330.50000000000006 315.50000000000006 861.50000000000011 343.50000000000006 330.50000000000006 241.50000000000003 269.50000000000006 514.50000000000011 499.50000000000006 488.50000000000006 480.50000000000006 195.50000000000003 199.50000000000003 1.0000000180025095e-35 187.50000000000003 1.0000000180025095e-35 443.50000000000006 315.50000000000006 -633.49999999999989 1.0000000180025095e-35 -201.49999999999997
decision_type=2 2 2 2 2 2 2 2 2 2 2 2 2 2 2 2 2 2 2 2 2 2 2 2 2 2 2 2 2 2
left_child=1 6 3 8 -3 -4 7 27 9 10 -2 -7 13 26 20 -16 17 18 19 24 22 -22 -6 -24 -5 -26 -10 -1 -17 -9
right_child=2 4 5 16 14 11 -8 29 12 -11 -12 -13 -14 -15 15 28 -18 -19 -20 -21 21 -23 23 -25 25 -27 -28 -29 -30 -31
leaf_value=-0.0093120744956157568 0.022440436018320423 0.00085181014801344801 0.056283735615116626 0.041981931808659785 0.014781329573522654 0.082158220136937299 -0.0067576675005438158 0.0013356688959327968 0.027508136860671495 0.022023792040408566 0.039187154782986316 0.099459347503259785 0.010451714752825221 0.036630689101626299 0.018445248719848071 0.011623309354175522 0.043573882872087147 0.015225879703211832 0.051591530398410912 0.018739602168829278 -0.017833880621303873 0.0081506289605570888 -0.0001412257115895811 0.017068827835222088 0.012843050546944141 0.039862256756584558 0.0031499348750168629 -0.015129110233176857 0.0013645875462612441 -0.011634497658105073
leaf_weight=205 60 1483 110 146 279 56 1865 38 21 374 74 50 99 28 240 198 172 32 34 29 41 423 95 30 20 28 22 2067 86 1586
leaf_count=205 60 1483 110 146 279 56 1865 38 21 374 74 50 99 28 240 198 172 32 34 29 41 423 95 30 20 28 22 2067 86 1586
internal_value=0 -0.00564352 0.0359686 0.0289485 0.00537323 0.0729863 -0.0111414 -0.0132398 0.0224049 0.0245732 0.0316886 0.0903191 0.0159256 0.0235582 0.0101902 0.0130642 0.0385724 0.0355957 0.038132 0.0360799 0.00845526 0.00585458 0.0114422 0.00398919 0.038672 0.0286043 0.0150458 -0.0146042 0.0085168 -0.011331
internal_weight=0 8636 1355 1139 2875 216 5761 3896 678 508 134 106 170 71 1392 524 461 289 257 223 868 464 404 125 194 48 43 2272 284 1624
internal_count=9991 8636 1355 1139 2875 216 5761 3896 678 508 134 106 170 71 1392 524 461 289 257 223 868 464 404 125 194 48 43 2272 284 1624
is_linear=0
shrinkage=0.05


Tree=13
num_leaves=31
num_cat=0
split_feature=0 0 0 0 0 0 0 0 0 0 1 0 0 0 1 0 0 0 0 0 0 0 0 0 0 0 0 1 0 0
split_gain=732.235 163.076 137.722 47.374 22.5743 15.527 14.6868 8.61104 5.76879 4.3664 4.14004 5.10527 10.39 5.14318 3.79693 3.08498 5.44067 2.9279 2.55293 2.47766 5.39009 2.56256 3.68761 4.24092 2.36984 2.36894 3.78064 2.34745 3.90431 3.4547
threshold=245.50000000000003 625.00000000000011 32.500000000000007 423.50000000000006 730.00000000000011 146.50000000000003 -174.49999999999997 310.50000000000006 254.50000000000003 343.50000000000006 1.0000000180025095e-35 12.500000000000002 -11.499999999999998 -6.4999999999999991 1.0000000180025095e-35 22.500000000000004 25.500000000000004 974.00000000000011 -137.49999999999997 514.50000000000011 499.50000000000006 488.50000000000006 470.50000000000006 462.50000000000006 366.50000000000006 647.50000000000011 676.50000000000011 1.0000000180025095e-35 -235.49999999999997 -201.49999999999997
decision_type=2 2 2 2 2 2 2 2 2 2 2 2 2 2 2 2 2 2 2 2 2 2 2 2 2 2 2 2 2 2
left_child=2 3 6 7 25 -4 27 8 -2 -9 15 12 18 -14 -11 -8 -17 -6 -12 20 21 22 23 -5 -16 -3 -27 28 -1 -29
right_child=1 4 5 19 17 -7 10 9 -10 14 11 -13 13 -15 24 16 -18 -19 -20 -21 -22 -23 -24 -25 -26 26 -28 29 -30 -31
leaf_value=-0.013969854990434172 0.024851146136574888 0.065732477528267899 -0.00022563623620015924 0.034129642597002574 0.081186566429419654 0.0075569935899475922 -0.010397672705273191 0.027009618811512443 0.010614834334147194 0.021207864337730246 -0.0007163550338714921 -0.015493418860808015 0.024362573867170691 0.0022913115788685255 -0.0018029764170447986 0.019518618656244751 -0.0085191834927348786 0.10076097837090492 -0.0083422889583341757 0.041395189370662194 0.014464585826499388 0.049011953657164292 0.023797795279275964 0.054216198848955559 0.015030046312165432 0.033802574396961264 0.05671738981812572 -0.014697403691079792 -0.008549629235180883 -0.024678628906517723
leaf_weight=1473 85 29 1598 129 81 1070 1726 235 437 303 132 125 34 118 30 24 62 25 651 172 32 34 61 33 69 27 54 612 429 101
leaf_count=1473 85 29 1598 129 81 1070 1726 235 437 303 132 125 34 118 30 24 62 25 651 172 32 34 61 33 69 27 54 612 429 101
internal_value=0 0.0285277 -0.00642266 0.0230864 0.069337 0.00289558 -0.0109536 0.0176939 0.012933 0.0215953 -0.0084852 -0.00600317 -0.00473442 0.0072283 0.0184303 -0.00993716 -0.000694681 0.0858032 -0.00705669 0.0366438 0.0338159 0.0362254 0.0342759 0.0382213 0.00992913 0.0534695 0.0490791 -0.0136645 -0.0127473 -0.0161113
internal_weight=0 1836 8155 1620 216 2668 5487 1159 522 637 2872 1060 935 152 402 1812 86 106 783 461 289 257 223 162 99 110 81 2615 1902 713
internal_count=9991 1836 8155 1620 216 2668 5487 1159 522 637 2872 1060 935 152 402 1812 86 106 783 461 289 257 223 162 99 110 81 2615 1902 713
is_linear=0
shrinkage=0.05


Tree=14
num_leaves=31
num_cat=0
split_feature=0 0 0 0 0 0 0 0 1 0 0 0 0 0 1 0 1 0 0 0 0 0 0 0 0 0 0 0 0 0
split_gain=661.109 171.069 114.66 23.3127 20.3733 19.1159 18.688 3.23849 3.17391 3.29386 3.1784 2.68692 2.51339 2.34754 9.5116 7.80734 6.24862 3.96939 3.93007 2.9021 2.81367 4.29499 5.51985 3.87623 2.33779 2.33456 2.26886 2.79938 2.37958 2.25484
threshold=306.50000000000006 56.500000000000007 625.00000000000011 423.50000000000006 730.00000000000011 -75.499999999999986 159.50000000000003 -174.49999999999997 1.0000000180025095e-35 330.50000000000006 315.50000000000006 861.50000000000011 63.500000000000007 83.500000000000014 1.0000000180025095e-35 86.500000000000014 1.0000000180025095e-35 106.50000000000001 80.500000000000014 99.500000000000014 122.50000000000001 146.50000000000003 153.50000000000003 135.50000000000003 -167.49999999999997 89.500000000000014 343.50000000000006 330.50000000000006 315.50000000000006 245.50000000000003
decision_type=2 2 2 2 2 2 2 2 2 2 2 2 2 2 2 2 2 2 2 2 2 2 2 2 2 2 2 2 2 2
left_child=1 5 3 8 -4 7 12 -1 9 10 -2 -6 -3 16 15 -15 18 19 -14 -17 25 23 -23 -22 -9 -16 27 28 -10 -8
right_child=2 6 4 -5 11 -7 29 24 26 -11 -12 -13 13 14 20 17 -18 -19 -20 -21 21 22 -24 -25 -26 -27 -28 -29 -30 -31
leaf_value=-0.012981301220338685 0.020391464220980805 0.0086486193239688879 0.050796071531420406 0.034811564396769856 0.073990980562354841 -0.0059154372817372593 0.0077443178540707027 -0.0015242062532939973 0.025172601196737518 0.019807139148108943 0.035877317570250582 0.089937695205211651 0.0050650478342197259 0.020762901132305465 0.00040498190757000087 -0.0046425080604173925 -0.012992983467987988 -0.00086555843336023311 -0.017526969584551726 -0.018437623372301461 0.0053303734515793627 0.027739191171713175 -0.0052511506137393775 -0.015200636711401436 -0.01045659389111322 0.015051297478137477 0.0094326732191022007 0.033448674795883045 0.0016419593075459654 0.011976028174711799
leaf_weight=2615 60 100 110 461 56 1957 911 78 21 374 74 50 154 36 33 99 109 473 22 62 56 32 21 39 1203 155 99 28 22 481
leaf_count=2615 60 100 110 461 56 1957 911 78 21 374 74 50 154 36 33 99 109 473 22 62 56 32 21 39 1203 155 99 28 22 481
internal_value=0 -0.00509466 0.0324705 0.0261366 0.0658701 -0.00994717 0.00511077 -0.0119723 0.0202381 0.0222171 0.0289434 0.081513 0.00101203 0.000420507 0.00155535 -0.00188759 -0.0035853 -0.00317374 0.00224105 -0.00995491 0.00842075 0.00326389 0.0146675 -0.00309815 -0.0099127 0.0124804 0.0143244 0.0211452 0.0131337 0.00920657
internal_weight=0 8636 1355 1139 216 5853 2783 3896 678 508 134 106 1391 1291 1006 670 285 634 176 161 336 148 53 95 1281 188 170 71 43 1392
internal_count=9991 8636 1355 1139 216 5853 2783 3896 678 508 134 106 1391 1291 1006 670 285 634 176 161 336 148 53 95 1281 188 170 71 43 1392
is_linear=0
shrinkage=0.05


Tree=15
num_leaves=31
num_cat=0
split_feature=0 0 0 0 0 0 0 0 1 0 0 0 0 0 1 0 0 1 0 0 0 0 0 1 0 0 0 0 0 0
split_gain=596.713 151.172 105.729 22.3152 18.3869 17.2521 16.2488 2.97065 2.77237 2.48809 2.31941 2.29658 2.26833 2.24475 3.87632 7.88369 5.04638 2.73196 3.43132 2.23609 4.86456 2.31271 3.39194 2.33722 3.03674 2.41083 2.86318 2.13797 3.41203 2.27463
threshold=301.50000000000006 56.500000000000007 625.00000000000011 423.50000000000006 730.00000000000011 -75.499999999999986 159.50000000000003 -205.49999999999997 1.0000000180025095e-35 974.00000000000011 -201.49999999999997 -633.49999999999989 63.500000000000007 70.500000000000014 1.0000000180025095e-35 80.500000000000014 77.500000000000014 1.0000000180025095e-35 67.500000000000014 514.50000000000011 499.50000000000006 488.50000000000006 480.50000000000006 1.0000000180025095e-35 443.50000000000006 433.50000000000006 452.50000000000006 647.50000000000011 676.50000000000011 701.00000000000011
decision_type=2 2 2 2 2 2 2 2 2 2 2 2 2 2 2 2 2 2 2 2 2 2 2 2 2 2 2 2 2 2
left_child=1 5 3 8 27 7 12 11 -2 -6 -9 -1 -3 17 16 -16 -15 18 -14 20 21 22 23 25 -25 -5 -27 -4 -29 -30
right_child=2 6 4 19 9 -7 -8 10 -10 -11 -12 -13 13 14 15 -17 -18 -19 -20 -21 -22 -23 -24 24 -26 26 -28 28 29 -31
leaf_value=-0.0074932344962002299 0.02075062145519397 0.008216187894344331 0.059906050986770931 0.050487582758069041 0.073181599208418241 -0.0056196653523149735 0.0086473037682844728 0.0024667688945651449 0.013541886190036207 0.09122604462504387 -0.010033175630691228 -0.013041638677690724 0.016658400669693946 0.011967517985056689 -0.013026023818232682 0.0076550179711218514 -0.0022795194039574697 -0.017163142030581068 -0.0093032896987694721 0.03758485211752529 0.012000777805224062 0.044820777721264783 0.014872154227361599 0.0087538380920886994 0.034263249819300005 0.022883485745461216 0.039040033258733495 0.029572641401103252 0.061603637867503697 0.041079795360565191
leaf_weight=205 532 100 29 25 81 1957 1360 38 178 25 1586 2067 20 68 53 353 723 39 35 172 32 34 29 20 28 42 79 27 27 27
leaf_count=205 532 100 29 25 81 1957 1360 38 178 25 1586 2067 20 68 53 353 723 39 35 172 32 34 29 20 28 42 79 27 27 27
internal_value=0 -0.0049061 0.0304341 0.0245051 0.0625766 -0.00944981 0.00476106 -0.0113737 0.0189434 0.0774374 -0.00974069 -0.012541 0.000961431 0.000399482 0.000983743 0.00495528 -0.00105474 -0.00704053 0.000137325 0.033071 0.0303845 0.0326736 0.0308215 0.0332057 0.0236343 0.0363525 0.033432 0.0482563 0.0440854 0.0513417
internal_weight=0 8604 1387 1171 216 5853 2751 3896 710 106 1624 2272 1391 1291 1197 406 791 94 55 461 289 257 223 194 48 146 121 110 81 54
internal_count=9991 8604 1387 1171 216 5853 2751 3896 710 106 1624 2272 1391 1291 1197 406 791 94 55 461 289 257 223 194 48 146 121 110 81 54
is_linear=0
shrinkage=0.05


Tree=16
num_leaves=31
num_cat=0
split_feature=0 0 0 0 0 0 0 0 0 1 0 0 0 0 0 0 0 0 1 0 0 1 0 0 0 0 0 0 0 1
split_gain=539.67 119.657 101.828 34.6072 16.5942 11.1099 10.7645 6.31064 5.30783 3.66974 4.77921 9.06813 4.75632 3.61003 2.65885 4.9102 2.54625 4.24471 2.43087 2.40537 2.28268 2.11768 3.44188 3.22091 3.19523 2.37067 2.09681 2.04498 2.43168 2.4714
threshold=245.50000000000003 625.00000000000011 32.500000000000007 423.50000000000006 730.00000000000011 146.50000000000003 -174.49999999999997 310.50000000000006 254.50000000000003 1.0000000180025095e-35 12.500000000000002 -11.499999999999998 -1.0000000180025095e-35 335.50000000000006 22.500000000000004 25.500000000000004 36.500000000000007 39.500000000000007 1.0000000180025095e-35 -137.49999999999997 861.50000000000011 1.0000000180025095e-35 -205.49999999999997 -201.49999999999997 -201.49999999999997 -633.49999999999989 -116.49999999999999 149.50000000000003 159.50000000000003 1.0000000180025095e-35
decision_type=2 2 2 2 2 2 2 2 2 2 2 2 2 2 2 2 2 2 2 2 2 2 2 2 2 2 2 2 2 2
left_child=2 3 6 7 -3 16 21 8 -2 14 11 19 -13 -9 -8 -16 -4 -18 -15 -11 -6 22 25 -24 -23 -1 -21 -7 29 -29
right_child=1 4 5 -5 20 27 9 13 -10 10 -12 12 -14 18 15 -17 17 -19 -20 26 -22 24 23 -25 -26 -27 -28 28 -30 -31
leaf_value=-0.0060999947470865845 0.022577422902755002 0.045843455347296024 0.010429872396317395 0.031417436250273358 0.066632352669590292 0.018156360151867071 -0.0090911423794378578 0.024849993040801825 0.0089217331938155741 0.00025259774763870872 -0.014141992244124414 0.01753991712907781 -0.00030465768433587498 0.018418881264121612 0.019119442766532303 -0.007516468488498621 -0.014702762339227633 -3.3523369607114267e-05 0.010169264227539922 -0.014280354111387365 0.081330617722123869 -0.012694897534770076 0.012655906622176586 -0.0070816526433690368 -0.022293972928252182 -0.012280945652555154 -0.0060204177128430295 -0.0056686150151546363 0.0069247371713788298 0.009277445465947191
leaf_weight=173 85 110 55 461 56 36 1726 168 437 132 125 66 86 349 24 62 51 1492 120 89 50 612 23 204 101 1502 562 81 911 42
leaf_count=173 85 110 55 461 56 36 1726 168 437 132 125 66 86 349 24 62 51 1492 120 89 50 612 23 204 101 1502 562 81 911 42
internal_value=0 0.0244909 -0.00551384 0.01983 0.0594478 0.00249863 -0.00940982 0.015221 0.0111454 -0.00729661 -0.00495981 -0.00373225 0.00744364 0.0185609 -0.00866361 -8.31909e-05 -0.000141561 -0.000518378 0.0163081 -0.00590177 0.0735655 -0.0117307 -0.0108595 -0.00508181 -0.0140547 -0.0116426 -0.00714966 0.00644164 0.00603378 -0.000565082
internal_weight=0 1836 8155 1620 216 2668 5487 1159 522 2872 1060 935 152 637 1812 86 1598 1543 469 783 106 2615 1902 227 713 1675 651 1070 1034 123
internal_count=9991 1836 8155 1620 216 2668 5487 1159 522 2872 1060 935 152 637 1812 86 1598 1543 469 783 106 2615 1902 227 713 1675 651 1070 1034 123
is_linear=0
shrinkage=0.05


Tree=17
num_leaves=31
num_cat=0
split_feature=0 0 0 0 0 0 0 0 0 0 1 0 0 0 0 0 0 0 0 0 0 1 0 0 0 0 0 0 0 0
split_gain=487.052 107.99 91.8998 31.233 14.9762 10.0267 9.71494 5.69535 4.79032 3.31407 3.31194 4.31324 8.18398 4.35828 2.48177 4.39155 3.63286 3.4875 2.72512 2.29799 3.83085 2.25581 2.17084 2.11436 2.01807 4.39026 2.08722 3.20673 3.68208 1.92952
threshold=245.50000000000003 625.00000000000011 32.500000000000007 423.50000000000006 730.00000000000011 146.50000000000003 -174.49999999999997 310.50000000000006 254.50000000000003 325.50000000000006 1.0000000180025095e-35 12.500000000000002 -11.499999999999998 -6.4999999999999991 -39.499999999999993 -11.499999999999998 19.500000000000004 -19.499999999999996 -42.499999999999993 36.500000000000007 39.500000000000007 1.0000000180025095e-35 -137.49999999999997 974.00000000000011 514.50000000000011 499.50000000000006 488.50000000000006 470.50000000000006 462.50000000000006 647.50000000000011
decision_type=2 2 2 2 2 2 2 2 2 2 2 2 2 2 2 2 2 2 2 2 2 2 2 2 2 2 2 2 2 2
left_child=2 3 6 7 29 19 -1 8 -2 21 14 12 22 -14 18 17 -17 -16 -8 -4 -21 -9 -12 -6 25 26 27 28 -5 -3
right_child=1 4 5 24 23 -7 10 9 -10 -11 11 -13 13 -15 15 16 -18 -19 -20 20 -22 -23 -24 -25 -26 -27 -28 -29 -30 -31
leaf_value=-0.011144179065482972 0.021448550817337545 0.054618575989172385 0.0099083789302544176 0.027576196804198677 0.06596407591606733 0.0061195620541422326 -0.0092608987991130987 0.029847608688578477 0.0084756468228774154 0.016030652652721314 0.00023996751459146092 -0.013434893337637185 0.022844204051858365 0.0025267730668281853 -0.0036901342062305451 -0.012004185689545385 -0.0013383477294285383 0.010597262358559031 -0.027874949388206005 -0.013967623738298083 -3.1847445608395088e-05 0.01264077010937035 -0.0067921732714544191 0.082598209977149964 0.034134736386950797 0.0098298676370177432 0.04100886732339859 0.017938513226318557 0.046292600351752658 0.039588917605578901
leaf_weight=2615 85 29 55 129 81 1070 1166 80 437 532 132 125 34 118 180 278 112 56 20 51 1492 25 651 25 172 32 34 61 33 81
leaf_count=2615 85 29 55 129 81 1070 1166 80 437 532 132 125 34 118 180 278 112 56 20 51 1492 25 651 25 172 32 34 61 33 81
internal_value=0 0.0232664 -0.00523815 0.0188385 0.0564754 0.0023737 -0.00893933 0.01446 0.0105881 0.0176329 -0.00693178 -0.00471182 -0.00354563 0.00707146 -0.00823043 -0.00568344 -0.00894118 -0.000299905 -0.0095748 -0.000134483 -0.00049246 0.0257507 -0.00560668 0.0698872 0.0298466 0.0272944 0.029469 0.0277096 0.0313888 0.0435513
internal_weight=0 1836 8155 1620 216 2668 5487 1159 522 637 2872 1060 935 152 1812 626 390 236 1186 1598 1543 105 783 106 461 289 257 223 162 110
internal_count=9991 1836 8155 1620 216 2668 5487 1159 522 637 2872 1060 935 152 1812 626 390 236 1186 1598 1543 105 783 106 461 289 257 223 162 110
is_linear=0
shrinkage=0.05


Tree=18
num_leaves=31
num_cat=0
split_feature=0 0 0 0 0 0 0 0 0 0 0 0 0 0 0 0 1 0 0 0 0 0 0 0 0 0 0 0 0 0
split_gain=439.564 97.461 82.9396 28.1878 13.516 9.04907 8.89297 5.14005 4.32326 3.11833 2.90656 2.10291 2.07394 3.45734 2.05385 1.93923 1.92108 5.65889 5.01169 4.03164 2.03702 1.98814 2.19067 4.63594 3.16806 2.0502 1.90727 3.42389 1.87082 1.8456
threshold=245.50000000000003 625.00000000000011 32.500000000000007 423.50000000000006 730.00000000000011 146.50000000000003 -75.499999999999986 310.50000000000006 254.50000000000003 343.50000000000006 376.50000000000006 -205.49999999999997 36.500000000000007 39.500000000000007 -82.499999999999986 861.50000000000011 1.0000000180025095e-35 12.500000000000002 -11.499999999999998 -1.0000000180025095e-35 -28.499999999999996 -35.499999999999993 -47.499999999999993 -42.499999999999993 -58.499999999999993 -53.499999999999993 340.50000000000006 335.50000000000006 -633.49999999999989 149.50000000000003
decision_type=2 2 2 2 2 2 2 2 2 2 2 2 2 2 2 2 2 2 2 2 2 2 2 2 2 2 2 2 2 2
left_child=2 3 6 7 -3 12 11 8 -2 26 -11 28 -4 -14 -13 -6 -8 18 20 -20 21 22 24 -24 -18 -26 27 -9 -1 -7
right_child=1 4 5 -5 15 29 16 9 -10 10 -12 14 13 -15 -16 -17 17 -19 19 -21 -22 -23 23 -25 25 -27 -28 -29 -30 -31
leaf_value=-0.0062048915028572087 0.020376123890883346 0.041373718636618421 0.0094129595025019205 0.028354236645949299 0.06000253083184362 0.016942564222133822 -0.0067658780107079973 0.022502208053503552 0.0080518646611942909 0.0099087206166373898 0.018413486211622126 -0.0079161384180500421 -0.013269243347367236 -3.0254871773220797e-05 -0.01487609136669913 0.073550027996301656 -0.0061288269246698064 -0.012763148745894431 0.016013254702909652 -0.00041576385454729554 -0.010300041376085011 0.0090914793933431319 -0.028712689053888126 -0.0017986445842931671 0.017558320254207619 -0.00034856711598959839 0.032672023077611814 0.0053116686429296222 -0.011212642411654072 0.0054261146181054072
leaf_weight=205 85 110 55 461 56 36 952 168 437 205 197 1510 51 1492 114 50 93 125 66 86 97 36 24 48 31 33 32 35 2067 1034
leaf_count=205 85 110 55 461 56 36 952 168 437 205 197 1510 51 1492 114 50 93 125 66 86 97 36 24 48 31 33 32 35 2067 1034
internal_value=0 0.0221031 -0.00497624 0.0178966 0.0536516 0.00225501 -0.00849236 0.013737 0.0100587 0.0167512 0.0140765 -0.00977869 -0.000127759 -0.000467836 -0.00840471 0.0663929 -0.00534244 -0.00322175 -0.000901375 0.00671789 -0.00410062 -0.0018314 -0.00354854 -0.01077 -0.000236788 0.00832508 0.0213267 0.0195383 -0.0107608 0.00581358
internal_weight=0 1836 8155 1620 216 2668 5487 1159 522 637 402 3896 1598 1543 1624 106 1591 639 514 152 362 265 229 72 157 64 235 203 2272 1070
internal_count=9991 1836 8155 1620 216 2668 5487 1159 522 637 402 3896 1598 1543 1624 106 1591 639 514 152 362 265 229 72 157 64 235 203 2272 1070
is_linear=0
shrinkage=0.05


Tree=19
num_leaves=31
num_cat=0
split_feature=0 0 0 0 0 0 0 0 1 0 0 0 1 0 0 0 1 0 0 0 0 0 0 0 0 1 0 0 0 0
split_gain=396.866 100.981 70.8206 18.5754 11.5632 10.7062 6.09554 3.22801 2.24356 2.10847 2.05286 1.96311 3.41518 6.97893 4.80929 4.721 2.4656 3.09677 2.36423 3.32009 4.87085 3.4983 2.86251 1.92474 2.10386 1.90568 3.13469 2.97786 2.29409 1.79679
threshold=301.50000000000006 56.500000000000007 676.50000000000011 423.50000000000006 -75.499999999999986 159.50000000000003 730.00000000000011 527.50000000000011 1.0000000180025095e-35 63.500000000000007 701.00000000000011 70.500000000000014 1.0000000180025095e-35 80.500000000000014 89.500000000000014 106.50000000000001 1.0000000180025095e-35 67.500000000000014 122.50000000000001 146.50000000000003 153.50000000000003 135.50000000000003 89.500000000000014 -174.49999999999997 -100.49999999999999 1.0000000180025095e-35 -235.49999999999997 -201.49999999999997 -633.49999999999989 974.00000000000011
decision_type=2 2 2 2 2 2 2 2 2 2 2 2 2 2 2 2 2 2 2 2 2 2 2 2 2 2 2 2 2 2
left_child=1 4 3 8 23 9 10 -5 -2 -3 -4 16 14 -14 -13 -16 17 -11 22 21 -21 -20 -15 25 -25 26 28 -27 -1 -8
right_child=2 5 6 7 -6 -7 29 -9 -10 11 -12 12 13 18 15 -17 -18 -19 19 20 -22 -23 -24 24 -26 27 -28 -29 -30 -31
leaf_value=-0.0049275415901073143 0.017116081796941449 0.0078101606648415325 0.052183154142565205 0.024849479261283707 -0.0045789605640636074 0.007054488786893404 0.059456679381338168 0.032984793872388112 0.010631199347200606 0.015830263383686545 0.03268550037841865 0.0060386437387973235 -0.012369941554541859 0.00016232095658779146 -0.011434345723211985 -0.00086384410182325198 -0.016300203729397021 -0.008833343038734582 0.0046858849444626162 0.024577778269303963 -0.0064124994334720442 -0.014818574687337672 0.013920762994957548 -0.0064741525484764348 -0.011046133959546773 -0.010959443844416564 -0.0054798963735594322 -0.020226258181478128 -0.011056435506361036 0.074790797054767613
leaf_weight=173 532 100 27 320 1957 1360 81 197 178 20 27 182 53 50 136 473 39 35 56 32 21 39 155 937 344 612 429 101 1300 25
leaf_count=173 532 100 27 320 1957 1360 81 197 178 20 27 182 53 50 136 473 39 35 56 32 21 39 155 937 344 612 429 101 1300 25
internal_value=0 -0.00400106 0.0248199 0.02074 -0.00771466 0.00389995 0.0561076 0.0279494 0.0154903 0.000815708 0.0424343 0.000273922 0.000820303 0.00454813 -0.00109309 -0.00322442 -0.00668372 0.000135241 0.00708823 0.00227238 0.0122986 -0.00332121 0.010565 -0.00928976 -0.00770191 -0.0100676 -0.00924117 -0.0122721 -0.0103366 0.0630732
internal_weight=0 8604 1387 1227 5853 2751 160 517 710 1391 54 1291 1197 406 791 609 94 55 353 148 53 95 205 3896 1281 2615 1902 713 1473 106
internal_count=9991 8604 1387 1227 5853 2751 160 517 710 1391 54 1291 1197 406 791 609 94 55 353 148 53 95 205 3896 1281 2615 1902 713 1473 106
is_linear=0
shrinkage=0.05


Tree=20
num_leaves=31
num_cat=0
split_feature=0 0 0 0 0 0 0 0 1 0 0 0 0 1 0 0 0 0 1 0 0 0 0 0 0 1 0 0 0 0
split_gain=358.967 79.72 67.6808 21.1765 12.8773 8.11805 6.31265 4.47095 4.54955 4.85563 5.04746 3.43597 4.69648 3.02571 3.24718 2.60776 2.53178 2.48023 2.47844 2.44759 2.32081 2.2878 2.28273 2.03428 2.01736 1.95835 2.20179 4.94422 1.90849 3.31131
threshold=245.50000000000003 527.50000000000011 22.500000000000004 730.00000000000011 408.50000000000006 146.50000000000003 -174.49999999999997 16.500000000000004 1.0000000180025095e-35 -11.499999999999998 -1.0000000180025095e-35 306.50000000000006 269.50000000000006 1.0000000180025095e-35 343.50000000000006 330.50000000000006 330.50000000000006 384.50000000000006 1.0000000180025095e-35 315.50000000000006 315.50000000000006 278.50000000000006 12.500000000000002 259.50000000000006 -137.49999999999997 1.0000000180025095e-35 292.50000000000006 297.50000000000006 1.0000000180025095e-35 -39.499999999999993
decision_type=2 2 2 2 2 2 2 2 2 2 2 2 2 2 2 2 2 2 2 2 2 2 2 2 2 2 2 2 2 2
left_child=2 4 6 -3 11 -4 -1 8 22 24 -11 12 18 15 16 19 20 -17 -2 -13 -15 -14 28 -20 -10 26 -23 -28 29 -8
right_child=1 3 5 -5 -6 -7 7 -9 9 10 -12 13 21 14 -16 17 -18 -19 23 -21 -22 25 -24 -25 -26 -27 27 -29 -30 -31
leaf_value=-0.0095642070315380273 0.0111782577524866 0.033266873252522422 -0.00033091666206417681 0.059919557050046215 0.022678745717539923 0.0051964141887821539 -0.008351746993870663 -0.017693730843839822 0.00094748285359166787 0.015441540079755765 -0.0021403502437904059 0.014955455902963877 -0.002761583266830122 0.020528138125137915 0.0016100076556113769 0.011912405798631199 0.027958464941808155 0.022655119516831988 0.031110491183187278 0.028544848762150556 -0.0027100770734250546 0.0168426865482167 0.0068231497226016865 0.012210478602598112 -0.0058315138560592825 0.00040821758465521709 -0.012338148912897817 0.014961164687262024 -0.013618927604464953 -0.0027924635455636795
leaf_weight=2615 138 251 1752 106 388 1070 1186 81 132 66 107 60 74 21 81 256 28 68 35 74 22 73 28 24 651 67 27 43 121 346
leaf_count=2615 138 251 1752 106 388 1070 1186 81 132 66 107 60 74 21 81 256 28 68 35 74 22 73 28 24 651 67 27 43 121 346
internal_value=0 0.0199741 -0.00449694 0.0411806 0.0148554 0.00176485 -0.00781041 -0.00612308 -0.00576766 -0.00301373 0.00456719 0.0120731 0.00891316 0.0145647 0.00845208 0.0165934 0.0162578 0.014167 0.0148453 0.02246 0.00863882 0.00479827 -0.00733385 0.0234224 -0.00468869 0.00746222 0.0107672 0.00443143 -0.00757366 -0.00709619
internal_weight=0 1836 8155 357 1479 2822 5333 2718 2637 956 173 1091 481 610 152 458 71 324 197 134 43 284 1681 59 783 210 143 70 1653 1532
internal_count=9991 1836 8155 357 1479 2822 5333 2718 2637 956 173 1091 481 610 152 458 71 324 197 134 43 284 1681 59 783 210 143 70 1653 1532
is_linear=0
shrinkage=0.05


Tree=21
num_leaves=31
num_cat=0
split_feature=0 0 0 0 0 0 0 0 0 0 0 0 1 0 0 1 0 0 0 0 0 0 0 0 0 0 0 0 0 0
split_gain=323.967 72.2889 61.1625 20.513 9.6708 6.58994 6.50988 3.73409 3.73708 2.61723 2.45222 2.38172 2.23679 2.19257 9.33635 3.62957 2.43785 2.12886 5.674 2.08321 1.85575 3.13861 1.83594 1.82376 2.06907 1.81907 2.94026 1.8527 1.73719 3.02532
threshold=245.50000000000003 625.00000000000011 32.500000000000007 423.50000000000006 730.00000000000011 159.50000000000003 -75.499999999999986 310.50000000000006 269.50000000000006 343.50000000000006 278.50000000000006 376.50000000000006 1.0000000180025095e-35 195.50000000000003 199.50000000000003 1.0000000180025095e-35 187.50000000000003 175.50000000000003 171.50000000000003 167.50000000000003 36.500000000000007 39.500000000000007 259.50000000000006 179.50000000000003 187.50000000000003 647.50000000000011 676.50000000000011 701.00000000000011 340.50000000000006 335.50000000000006
decision_type=2 2 2 2 2 2 2 2 2 2 2 2 2 2 2 2 2 2 2 2 2 2 2 2 2 2 2 2 2 2
left_child=2 3 6 7 25 20 -1 8 12 28 -10 -11 -2 15 -15 17 -17 18 19 -7 -4 -22 -14 -19 -25 -3 -27 -28 29 -9
right_child=1 4 5 -5 -6 13 -8 9 10 11 -12 -13 22 14 -16 16 -18 23 -20 -21 21 -23 -24 24 -26 26 27 -29 -30 -31
leaf_value=-0.0083920916650713547 0.010619345032466589 0.046506377054249932 0.0091878060386939488 0.024273779083128187 0.056923578535030897 0.0077803751350277008 -0.0045965004431036674 0.019644406934024857 -0.002623504188817901 0.008150205221935743 0.0077335987554768481 0.015848917720796836 0.029554965804730146 -0.01967568212620369 0.00521160495745282 -0.00286766128320443 0.013481890965873997 0.025207820824450916 -0.012426772983744741 0.023652384584320004 -0.012360287308875546 0.00023360755069628085 0.011599955242127181 0.0057136838035336856 0.019314220471790544 0.018441122328793563 0.047910650709161055 0.029387881358464558 0.029392786879907363 0.003485390613121646
leaf_weight=3896 138 29 55 461 106 72 1591 168 74 205 251 197 35 41 466 95 30 36 30 29 51 1651 24 58 54 27 27 27 32 35
leaf_count=3896 138 29 55 461 106 72 1591 168 74 205 251 197 35 41 466 95 30 36 30 29 51 1651 24 58 54 27 27 27 32 35
internal_value=0 0.0189754 -0.00427209 0.0153527 0.0461461 0.00193768 -0.00729153 0.0118043 0.00866913 0.0143734 0.00537537 0.011923 0.014103 0.00538867 0.00319902 0.00813657 0.00105623 0.0113088 0.00666643 0.0123377 0.000148344 -0.000143765 0.0222512 0.0154179 0.0122711 0.0357605 0.0319132 0.0386493 0.0185652 0.0168584
internal_weight=0 1836 8155 1620 216 2668 5487 1159 522 637 325 402 197 911 507 404 125 279 131 101 1757 1702 59 148 112 110 81 54 235 203
internal_count=9991 1836 8155 1620 216 2668 5487 1159 522 637 325 402 197 911 507 404 125 279 131 101 1757 1702 59 148 112 110 81 54 235 203
is_linear=0
shrinkage=0.05


Tree=22
num_leaves=31
num_cat=0
split_feature=0 0 0 0 0 0 0 0 1 0 0 0 0 1 0 0 0 0 0 0 1 0 0 0 0 0 1 0 0 0
split_gain=292.405 66.8524 53.6269 17.0841 10.7974 6.25008 5.35281 4.10097 4.07896 4.28109 4.55533 3.05798 3.27514 2.76509 2.79623 2.2517 2.21342 2.14869 2.1363 2.10491 2.0811 2.03053 1.88083 1.86424 1.84637 2.70468 1.79988 1.79273 6.90397 1.78859
threshold=241.50000000000003 527.50000000000011 22.500000000000004 730.00000000000011 408.50000000000006 146.50000000000003 -174.49999999999997 16.500000000000004 1.0000000180025095e-35 -11.499999999999998 -1.0000000180025095e-35 306.50000000000006 269.50000000000006 1.0000000180025095e-35 343.50000000000006 330.50000000000006 330.50000000000006 315.50000000000006 384.50000000000006 315.50000000000006 1.0000000180025095e-35 12.500000000000002 -137.49999999999997 -153.49999999999997 25.500000000000004 28.500000000000004 1.0000000180025095e-35 -11.499999999999998 -19.499999999999996 -122.49999999999999
decision_type=2 2 2 2 2 2 2 2 2 2 2 2 2 2 2 2 2 2 2 2 2 2 2 2 2 2 2 2 2 2
left_child=2 4 6 -3 11 24 -1 8 21 22 -11 12 -2 16 15 17 19 -15 -18 -13 -14 27 23 -10 26 -26 -4 28 -8 -24
right_child=1 3 5 -5 -6 -7 7 -9 9 10 -12 13 20 14 -16 -17 18 -19 -20 -21 -22 -23 29 -25 25 -27 -28 -29 -30 -31
leaf_value=-0.0086663921977097064 0.012240496402276526 0.030138139320589397 0.019044000639890632 0.054077399098577929 0.020404945755648649 0.0046119792158408803 -0.0069081550249782166 -0.01657921934814191 -0.0038604196434219684 0.014899287762289699 -0.0018035076062464827 0.013533158576028654 0.0071274221423223167 0.01880310153411258 0.00095566697188733535 0.025582863017916679 0.010759826202502154 -0.003556794563139027 0.02072991730152246 0.026135385449270944 -0.0021878033741052415 0.0067118171868579728 -0.012899748905671433 0.0081356771418971841 -0.012389302436024586 -0.00022637555009137654 -0.0012654164107516409 -0.010951818882999741 0.011004089394451253 -0.0043307969332265304
leaf_weight=2615 240 251 24 106 388 1027 1366 81 75 66 107 60 198 21 81 28 256 22 68 74 86 28 68 57 47 1661 20 231 56 583
leaf_count=2615 240 251 24 106 388 1027 1366 81 75 66 107 60 198 21 81 28 256 22 68 74 86 28 68 57 47 1661 20 231 56 583
internal_value=0 0.0177729 -0.00411678 0.0372462 0.0132053 0.00151491 -0.00705142 -0.00549765 -0.00515726 -0.00254964 0.00456866 0.0107419 0.00794045 0.0131484 0.0073049 0.0145484 0.0150877 0.00736315 0.0128523 0.0204926 0.00430661 -0.00664024 -0.0041224 0.00131971 -0.000300548 -0.00056107 0.00981245 -0.00686641 -0.00620275 -0.00522586
internal_weight=0 1879 8112 357 1522 2779 5333 2718 2637 956 173 1134 524 610 152 71 458 43 324 134 284 1681 783 132 1752 1708 44 1653 1422 651
internal_count=9991 1879 8112 357 1522 2779 5333 2718 2637 956 173 1134 524 610 152 71 458 43 324 134 284 1681 783 132 1752 1708 44 1653 1422 651
is_linear=0
shrinkage=0.05


Tree=23
num_leaves=31
num_cat=0
split_feature=0 0 0 0 0 0 0 0 0 0 1 0 0 0 0 0 1 0 0 0 0 1 0 0 0 0 0 0 0 0
split_gain=264.065 59.3196 49.8455 16.666 7.71958 5.4426 5.39228 3.02551 3.35185 2.27622 2.15832 3.37492 5.30758 3.2162 2.00618 8.40098 3.27569 2.20016 1.92129 5.12078 1.8801 1.71987 2.82906 2.72471 2.07042 1.71745 1.92203 2.20524 1.69745 1.68337
threshold=245.50000000000003 625.00000000000011 32.500000000000007 423.50000000000006 730.00000000000011 -174.49999999999997 159.50000000000003 310.50000000000006 254.50000000000003 325.50000000000006 1.0000000180025095e-35 12.500000000000002 -11.499999999999998 -6.4999999999999991 195.50000000000003 199.50000000000003 1.0000000180025095e-35 187.50000000000003 175.50000000000003 171.50000000000003 167.50000000000003 1.0000000180025095e-35 -235.49999999999997 -208.49999999999997 -633.49999999999989 19.500000000000004 25.500000000000004 22.500000000000004 -137.49999999999997 36.500000000000007
decision_type=2 2 2 2 2 2 2 2 2 2 2 2 2 2 2 2 2 2 2 2 2 2 2 2 2 2 2 2 2 2
left_child=2 3 5 7 -3 21 29 8 -2 -9 25 12 28 -14 16 -16 18 -18 19 20 -8 22 24 -23 -1 -7 27 -27 -12 -4
right_child=1 4 6 -5 -6 10 14 9 -10 -11 11 -13 13 -15 15 -17 17 -19 -20 -21 -22 23 -24 -25 -26 26 -28 -29 -30 -31
leaf_value=-0.0033500298900755844 0.01691400963210446 0.03246557347899811 0.0087397344478152023 0.021890994360220444 0.051373529426296652 -0.0065236227328232949 0.0071607565429682545 0.019691666997969152 0.0060623125123202134 0.011636100562146683 0.0012537281618058456 -0.01100418929308653 0.019843063382979701 0.0023895458570855153 -0.018922497701785734 0.0046852302653595098 -0.0029548759111448341 0.012577196514854831 0.014416366207060983 -0.012036033545931182 0.022239165888007346 -0.0088404344266713522 -0.0038747669305079259 -0.016752383979245909 -0.009172479573736873 -0.0029261476145340847 -0.0060133847693401958 0.018091801895449559 -0.004964570554539121 -0.00014785834749258801
leaf_weight=173 85 110 55 461 106 1700 72 105 437 532 132 125 34 118 41 466 95 30 148 30 29 579 429 134 1300 26 62 24 651 1702
leaf_count=173 85 110 55 461 106 1700 72 105 437 532 132 125 34 118 41 466 95 30 148 30 29 579 429 134 1300 26 62 24 651 1702
internal_value=0 0.0171315 -0.00385696 0.0138498 0.0417445 -0.00658277 0.00174894 0.0106514 0.00782935 0.0129639 -0.00508015 -0.00328805 -0.00225648 0.00629362 0.00487064 0.00277612 0.00749914 0.000772821 0.0105127 0.00610251 0.0114902 -0.00823307 -0.00744798 -0.0103274 -0.00848865 -0.00612851 -0.000131308 0.00716247 -0.00391627 0.000130353
internal_weight=0 1836 8155 1620 216 5487 2668 1159 522 637 2872 1060 935 152 911 507 404 125 279 131 101 2615 1902 713 1473 1812 112 50 783 1757
internal_count=9991 1836 8155 1620 216 5487 2668 1159 522 637 2872 1060 935 152 911 507 404 125 279 131 101 2615 1902 713 1473 1812 112 50 783 1757
is_linear=0
shrinkage=0.05


Tree=24
num_leaves=31
num_cat=0
split_feature=0 0 0 0 0 0 0 0 1 0 0 0 0 0 0 1 0 0 0 0 0 0 0 0 0 0 0 1 0 0
split_gain=238.359 60.3273 43.9621 11.8016 6.97793 5.88435 4.00471 3.984 3.71829 2.38558 4.15866 2.31436 4.1947 1.9571 2.66896 5.19415 2.65012 2.48524 2.33942 2.21625 1.93698 1.85055 1.96053 1.84706 2.32915 1.81058 7.58189 2.95631 1.98564 1.73765
threshold=297.50000000000006 56.500000000000007 676.50000000000011 452.50000000000006 -39.499999999999993 159.50000000000003 861.50000000000011 292.50000000000006 1.0000000180025095e-35 470.50000000000006 514.50000000000011 499.50000000000006 488.50000000000006 1.0000000180025095e-35 22.500000000000004 1.0000000180025095e-35 -2.4999999999999996 25.500000000000004 16.500000000000004 28.500000000000004 63.500000000000007 -205.49999999999997 -201.49999999999997 245.50000000000003 254.50000000000003 195.50000000000003 199.50000000000003 1.0000000180025095e-35 187.50000000000003 70.500000000000014
decision_type=2 2 2 2 2 2 2 2 2 2 2 2 2 2 2 2 2 2 2 2 2 2 2 2 2 2 2 2 2 2
left_child=1 4 3 8 21 20 -4 23 -2 -5 11 12 -11 16 18 17 -6 -16 -15 -19 -3 -1 -23 25 -25 27 -27 -7 -29 -22
right_child=2 5 6 9 13 7 -8 -9 -10 10 -12 -13 -14 14 15 -17 -18 19 -20 -21 29 22 -24 24 -26 26 -28 28 -30 -31
leaf_value=-0.0079765235386403989 0.014419023061535113 0.0074432279970496895 0.038335545466768303 0.031583972263615583 -0.001597657099490163 0.009987092892160326 0.055401636585593231 -0.011013734956375427 0.0068748669330710296 0.0099189787133612123 0.025135451746009813 0.0022157650790177287 0.031835815573439882 -0.0055999919600564106 0.017187210436289509 -0.0085474870366910802 0.012235413355803169 -0.014107078748444716 -0.015382246752298313 0.0017455050438243856 -0.0063259567371866804 0.0053251772040599273 -0.0061333240818125176 0.016068308846477201 0.0066780896770855976 -0.017976372414154979 0.0044509688783996608 -0.0028071324546870436 0.011948335940639179 0.00073402037437726676
leaf_weight=2272 618 100 110 64 539 279 50 36 222 61 228 32 34 249 24 201 37 24 81 271 94 38 2117 85 296 41 466 95 30 1197
leaf_count=2272 618 100 110 64 539 279 50 36 222 61 228 32 34 249 24 201 37 24 81 271 94 38 2117 85 296 41 466 95 30 1197
internal_value=0 -0.00314218 0.0189815 0.0158442 -0.0060011 0.003012 0.0436687 0.00539256 0.0124252 0.0226984 0.0210965 0.0138455 0.0177629 -0.00295924 -0.00448406 -0.0022521 -0.000709074 0.00171459 -0.00800109 0.000455803 0.000739256 -0.00698092 -0.00593127 0.0058497 0.00877302 0.0046271 0.00263732 0.00712419 0.00073418 0.000219971
internal_weight=0 8572 1419 1259 5853 2719 160 1328 840 419 355 127 95 1426 850 520 576 319 330 295 1391 4427 2155 1292 381 911 507 404 125 1291
internal_count=9991 8572 1419 1259 5853 2719 160 1328 840 419 355 127 95 1426 850 520 576 319 330 295 1391 4427 2155 1292 381 911 507 404 125 1291
is_linear=0
shrinkage=0.05


Tree=25
num_leaves=31
num_cat=0
split_feature=0 0 0 0 0 0 0 0 1 0 0 0 0 0 0 0 1 0 1 0 1 0 0 0 0 0 0 0 0 0
split_gain=215.119 54.4454 39.6758 10.6614 6.31101 5.31063 3.61425 3.59556 2.2793 1.802 1.74813 1.66698 2.10206 1.63405 6.84265 2.81678 2.87664 1.61014 6.80668 6.89902 4.47537 3.5053 3.04852 2.64144 2.79072 4.39594 3.15721 2.5317 1.90375 1.572
threshold=297.50000000000006 56.500000000000007 676.50000000000011 423.50000000000006 -75.499999999999986 159.50000000000003 861.50000000000011 292.50000000000006 1.0000000180025095e-35 527.50000000000011 63.500000000000007 245.50000000000003 254.50000000000003 195.50000000000003 199.50000000000003 187.50000000000003 1.0000000180025095e-35 83.500000000000014 1.0000000180025095e-35 86.500000000000014 1.0000000180025095e-35 80.500000000000014 106.50000000000001 122.50000000000001 146.50000000000003 153.50000000000003 135.50000000000003 99.500000000000014 89.500000000000014 470.50000000000006
decision_type=2 2 2 2 2 2 2 2 2 2 2 2 2 2 2 2 2 2 2 2 2 2 2 2 2 2 2 2 2 2
left_child=1 4 3 8 -1 10 -4 11 -2 29 -3 13 -13 15 -15 16 -7 20 19 -19 21 -12 27 28 26 -26 -25 -21 -20 -5
right_child=2 5 6 9 -6 7 -8 -9 -10 -11 17 12 -14 14 -16 -17 -18 18 23 22 -22 -23 -24 24 25 -27 -28 -29 -30 -31
leaf_value=-0.0068646769965814763 0.012842875627691803 0.0070710672042332591 0.036418767414817754 0.021708918101280745 -0.0033844792256276322 0.007709338506289189 0.052631555922329425 -0.010463047824386094 0.0065044718429126853 0.024326322396489117 0.0044892825905910949 0.01526489321032868 0.0063441847968607442 -0.017077554507953365 0.0042284203277573058 0.014916730632207224 -0.0026667755116757596 0.019528457149863246 -1.4475755619280267e-05 -0.0039536505335509174 -0.0110702546697896 -0.01684692149812525 -0.00094992330782194218 0.0044384671200532466 0.022817482356913388 -0.0066232837381817039 -0.014090770163024083 -0.016838390362118521 0.013211600442732414 0.014699456454151534
leaf_weight=3896 551 100 110 162 1957 225 50 36 191 197 154 85 296 41 466 84 95 36 33 99 109 22 473 56 32 21 39 62 155 158
leaf_count=3896 551 100 110 162 1957 225 50 36 191 197 154 85 296 41 466 84 95 36 33 99 109 22 473 56 32 21 39 62 155 158
internal_value=0 -0.00298508 0.0180325 0.015052 -0.00570104 0.0028614 0.0414853 0.00512293 0.0112113 0.0205641 0.000702294 0.00555721 0.00833437 0.00439575 0.00250545 0.00676798 0.00462893 0.000208973 0.00114883 -0.0017637 -0.00310856 0.00182226 -0.00297272 0.00695656 0.00196003 0.0111523 -0.00316827 -0.00891548 0.01089 0.018248
internal_weight=0 8572 1419 1259 5853 2719 160 1328 742 517 1391 1292 381 911 507 404 320 1291 1006 670 285 176 634 336 148 53 95 161 188 320
internal_count=9991 8572 1419 1259 5853 2719 160 1328 742 517 1391 1292 381 911 507 404 320 1291 1006 670 285 176 634 336 148 53 95 161 188 320
is_linear=0
shrinkage=0.05


Tree=26
num_leaves=31
num_cat=0
split_feature=0 0 0 0 0 0 0 0 1 0 0 1 0 0 0 0 1 0 0 0 0 0 0 0 0 0 1 0 0 0
split_gain=194.145 49.1369 35.8074 9.81036 5.80285 4.79284 3.26186 3.24499 3.11776 2.11711 3.46776 2.11849 1.77195 4.7156 1.76628 2.40874 4.68772 2.39173 2.24292 2.11133 2.00016 1.72704 1.59722 1.78359 1.57768 1.51385 2.78967 5.67695 4.20372 2.04271
threshold=297.50000000000006 56.500000000000007 676.50000000000011 452.50000000000006 -39.499999999999993 159.50000000000003 861.50000000000011 292.50000000000006 1.0000000180025095e-35 470.50000000000006 514.50000000000011 1.0000000180025095e-35 443.50000000000006 423.50000000000006 1.0000000180025095e-35 22.500000000000004 1.0000000180025095e-35 -2.4999999999999996 25.500000000000004 16.500000000000004 28.500000000000004 47.500000000000007 -205.49999999999997 -201.49999999999997 63.500000000000007 70.500000000000014 1.0000000180025095e-35 80.500000000000014 77.500000000000014 122.50000000000001
decision_type=2 2 2 2 2 2 2 2 2 2 2 2 2 2 2 2 2 2 2 2 2 2 2 2 2 2 2 2 2 2
left_child=1 4 3 8 22 24 -4 -7 12 -5 11 -11 13 -2 17 19 18 -6 -17 -16 -20 -18 -1 -24 -3 -26 28 -28 -27 -29
right_child=2 5 6 9 14 7 -8 -9 -10 10 -12 -13 -14 -15 15 16 21 -19 20 -21 -22 -23 23 -25 25 26 27 29 -30 -31
leaf_value=-0.0072344635920005762 0.012200732255059155 0.0067175139717292045 0.034597828528759159 0.02891932716665906 -0.0013485500465038342 0.0052793543417957878 0.049999977122992284 -0.0099398961342457275 0.0060997425680266917 0.0093010324372195651 0.022727808192205868 0.025796375206361216 -0.0016319985687732698 0.028699980846090996 -0.0051507685527983444 0.016497074781606596 -0.005319412627355441 0.011792867071926595 -0.013232500276838741 -0.014443910579386824 0.0018274537892496675 -0.01611383708992175 0.0054021520540118223 -0.005527069981824703 -0.0059113457630527149 0.01083440334563527 -0.011211055794836215 0.0095702242851257325 -0.0021688372471252585 0.0018620292912551982
leaf_weight=2272 551 100 110 64 539 1292 50 36 222 103 228 24 20 47 249 24 152 37 24 81 271 49 38 2117 94 68 53 205 723 148
leaf_count=2272 551 100 110 64 539 1292 50 36 222 103 228 24 20 47 249 24 152 37 24 81 271 49 38 2117 94 68 53 205 723 148
internal_value=0 -0.00283582 0.0171308 0.0142994 -0.00541599 0.00271833 0.039411 0.00486678 0.0111821 0.0205487 0.0190396 0.0124183 0.0130079 0.0134975 -0.00264205 -0.00409063 -0.00197027 -0.000504397 0.00179809 -0.00743181 0.000602237 -0.00795089 -0.00630952 -0.00533435 0.000667179 0.000198524 0.00067833 0.00404751 -0.00105099 0.00633846
internal_weight=0 8572 1419 1259 5853 2719 160 1328 840 419 355 127 618 598 1426 850 520 576 319 330 295 201 4427 2155 1391 1291 1197 406 791 353
internal_count=9991 8572 1419 1259 5853 2719 160 1328 840 419 355 127 618 598 1426 850 520 576 319 330 295 201 4427 2155 1391 1291 1197 406 791 353
is_linear=0
shrinkage=0.05


Tree=27
num_leaves=31
num_cat=0
split_feature=0 0 0 0 0 0 0 0 0 0 0 0 1 0 0 0 0 0 0 0 0 0 0 0 0 0 0 0 1 0
split_gain=175.896 40.3217 32.149 11.4317 5.43719 4.78396 2.91107 2.43705 1.9482 2.16477 1.79762 2.59672 2.81455 2.19834 2.20381 1.86325 1.69443 1.68504 2.90825 2.18509 3.26771 1.8024 1.67206 1.66837 2.59031 1.637 6.0246 2.54214 2.59617 1.72216
threshold=241.50000000000003 625.00000000000011 50.500000000000007 408.50000000000006 730.00000000000011 -75.499999999999986 47.500000000000007 159.50000000000003 647.50000000000011 676.50000000000011 310.50000000000006 343.50000000000006 1.0000000180025095e-35 269.50000000000006 278.50000000000006 384.50000000000006 45.500000000000007 354.50000000000006 347.50000000000006 360.50000000000006 366.50000000000006 372.50000000000006 701.00000000000011 340.50000000000006 335.50000000000006 195.50000000000003 199.50000000000003 187.50000000000003 1.0000000180025095e-35 225.50000000000003
decision_type=2 2 2 2 2 2 2 2 2 2 2 2 2 2 2 2 2 2 2 2 2 2 2 2 2 2 2 2 2 2
left_child=2 3 5 10 8 -1 16 -4 -3 -10 13 23 15 -2 -15 17 -7 18 -13 -19 -21 -22 -11 24 -12 27 -27 28 -9 -28
right_child=1 4 7 -5 -6 6 -8 25 9 22 11 12 -14 14 -16 -17 -18 19 -20 20 21 -23 -24 -25 -26 26 29 -29 -30 -31
leaf_value=-0.0062006352951958612 0.0099450946234477065 0.037441395069793638 0.00050279484182644567 0.017214453450185914 0.042189109337489775 -0.0030497313189521108 -0.016135683181207807 0.0070599032212048775 0.010779401132216057 0.036917325619746137 0.015229383711924865 0.004118411840292914 -0.00064787550334945143 -0.0039473082920586742 0.0058712010134560656 0.01713848472778302 0.007355918838875368 -0.0082778555617012365 0.027389326248317959 0.022287836993512299 -0.0097569364885037591 0.0072213454861883774 0.019320695902462361 0.024935041880235077 0.00027716875209340025 -0.016487643790499464 0.0059388590011283434 0.013906926482117603 -0.0027974049550922296 -0.00074009954579324537
leaf_weight=3896 240 29 1483 529 106 1783 42 225 27 27 168 29 81 74 251 68 40 27 25 28 22 54 27 32 35 41 274 84 95 149
leaf_count=3896 240 29 1483 529 106 1783 42 225 27 27 168 29 81 74 251 68 40 27 25 28 22 54 27 32 35 41 274 84 95 149
internal_value=0 0.0137846 -0.00319296 0.0111449 0.0341079 -0.00520375 -0.00312125 0.00173438 0.0263206 0.0223391 0.00831351 0.0102972 0.00746396 0.00631574 0.0036356 0.010061 -0.00282141 0.00745959 0.014892 0.00439586 0.00768615 0.00230658 0.028119 0.0143241 0.0126514 0.00383858 0.00181246 0.00616561 0.00413351 0.00358622
internal_weight=0 1879 8112 1663 216 5761 1865 2351 110 81 1134 569 334 565 325 253 1823 185 54 131 104 76 54 235 203 868 464 404 320 423
internal_count=9991 1879 8112 1663 216 5761 1865 2351 110 81 1134 569 334 565 325 253 1823 185 54 131 104 76 54 235 203 868 464 404 320 423
is_linear=0
shrinkage=0.05


Tree=28
num_leaves=31
num_cat=0
split_feature=0 0 0 0 0 0 0 0 1 0 0 0 0 0 0 0 0 0 1 0 0 0 0 0 0 0 1 1 0 0
split_gain=158.854 35.9782 29.98 9.49215 5.58613 3.54216 3.20869 3.06196 3.20902 3.09864 3.6332 1.96448 1.80155 1.96372 5.80835 1.68575 1.68248 1.58411 1.57235 2.64499 2.37702 1.86855 1.49505 1.48399 2.39537 2.34354 2.54013 2.12919 1.98893 1.68158
threshold=245.50000000000003 527.50000000000011 22.500000000000004 730.00000000000011 408.50000000000006 146.50000000000003 -174.49999999999997 16.500000000000004 1.0000000180025095e-35 -11.499999999999998 -6.4999999999999991 149.50000000000003 12.500000000000002 -11.499999999999998 -19.499999999999996 -137.49999999999997 -153.49999999999997 -131.49999999999997 1.0000000180025095e-35 -208.49999999999997 -235.49999999999997 -633.49999999999989 -167.49999999999997 310.50000000000006 269.50000000000006 343.50000000000006 1.0000000180025095e-35 1.0000000180025095e-35 278.50000000000006 384.50000000000006
decision_type=2 2 2 2 2 2 2 2 2 2 2 2 2 2 2 2 2 2 2 2 2 2 2 2 2 2 2 2 2 2
left_child=2 4 6 -3 23 -4 18 8 12 15 -11 -7 13 14 22 16 -10 -17 20 -20 21 -1 -8 24 27 -25 29 -2 -26 -27
right_child=1 3 5 -5 -6 11 7 -9 9 10 -12 -13 -14 -15 -16 17 -18 -19 19 -21 -22 -23 -24 25 28 26 -28 -29 -30 -31
leaf_value=-0.0017687133368040097 0.0070424013794737235 0.022235471619092728 -0.00020830765414794856 0.040079653658464831 0.015001358942623184 0.014924631481214116 0.0032189383915643775 -0.013569228496563472 -0.0024937989638807874 0.019319930376813694 0.0010855608881055882 0.0030430368865197038 0.0075616558747632172 -0.0095038773999972792 0.011249086872807571 -0.014799803219014598 0.0089024921715782409 -0.0032179877360449024 -0.0069845971615887723 -0.014779935905070447 -0.0024211648054907236 -0.0073000401552551636 -0.0055062685069626298 0.013607875368238348 -0.0037499441664565255 0.0070866124934164457 -0.00061548154249235439 0.018391055450380101 0.0055776412635893226 0.016281560656395466
leaf_weight=173 138 251 1752 106 388 36 51 81 75 34 139 1034 28 231 56 31 57 620 579 134 429 1300 1315 235 74 185 81 59 251 68
leaf_count=173 138 251 1752 106 388 36 51 81 75 34 139 1034 28 231 56 31 57 620 579 134 429 1300 1315 235 74 185 81 59 251 68
internal_value=0 0.0132874 -0.0029915 0.0275337 0.00984862 0.00117606 -0.00519679 -0.00399381 -0.00369968 -0.00138679 0.00466919 0.00344279 -0.00501505 -0.00522808 -0.00453349 -0.00272483 0.00242733 -0.0037695 -0.00644716 -0.00844964 -0.00569649 -0.0066504 -0.00518051 0.00801612 0.00609083 0.00978237 0.00709076 0.0104412 0.00345382 0.00955798
internal_weight=0 1836 8155 357 1479 2822 5333 2718 2637 956 173 1070 1681 1653 1422 783 132 651 2615 713 1902 1473 1366 1091 522 569 334 197 325 253
internal_count=9991 1836 8155 357 1479 2822 5333 2718 2637 956 173 1070 1681 1653 1422 783 132 651 2615 713 1902 1473 1366 1091 522 569 334 197 325 253
is_linear=0
shrinkage=0.05


Tree=29
num_leaves=31
num_cat=0
split_feature=0 0 0 0 0 0 0 0 0 0 0 0 0 0 0 1 0 0 0 0 0 0 1 1 0 1 0 1 0 0
split_gain=143.365 32.5417 27.1682 9.00714 4.34927 4.34341 1.94014 1.75825 1.9537 1.60394 2.27751 1.81354 1.59108 2.18959 1.92943 4.19436 2.03411 1.79507 1.69093 1.50904 1.49653 1.44073 1.44865 1.37904 1.35294 5.54383 6.25588 3.7872 3.09515 2.70219
threshold=245.50000000000003 625.00000000000011 56.500000000000007 423.50000000000006 -39.499999999999993 730.00000000000011 159.50000000000003 647.50000000000011 676.50000000000011 310.50000000000006 254.50000000000003 325.50000000000006 1.0000000180025095e-35 -2.4999999999999996 22.500000000000004 1.0000000180025095e-35 25.500000000000004 28.500000000000004 16.500000000000004 701.00000000000011 47.500000000000007 63.500000000000007 1.0000000180025095e-35 1.0000000180025095e-35 83.500000000000014 1.0000000180025095e-35 86.500000000000014 1.0000000180025095e-35 80.500000000000014 106.50000000000001
decision_type=2 2 2 2 2 2 2 2 2 2 2 2 2 2 2 2 2 2 2 2 2 2 2 2 2 2 2 2 2 2
left_child=2 3 4 9 -1 7 21 -3 -9 10 -2 23 13 -6 18 16 -16 -18 -14 -10 -17 22 -4 -11 27 26 -26 28 -23 -28
right_child=1 5 6 -5 12 -7 -8 8 19 11 -12 -13 14 -15 15 20 17 -19 -20 -21 -22 24 -24 -25 25 -27 29 -29 -30 -31
leaf_value=-0.0054253687684841867 0.01327481958357727 0.034457551238351855 0.010978833615312369 0.016103862558133949 -0.0010291220551159697 0.038075670090345848 0.0035535004135613807 0.0091286585364421767 0.033959685707533799 0.018733226771219053 0.0043297143927956477 0.0083395968759835074 -0.0045741398643817282 0.011544702624952472 0.015835122764110567 -0.0049350378740774959 -0.012407974572852254 0.0018589696117588305 -0.012890766926661688 0.017242886426134241 -0.014983308965302245 0.0041382817720825018 -0.0014858126841686867 0.0052796249389648435 0.018645751528027985 0.0062401706835814932 -0.008375984229008605 -0.010227780314931356 -0.015910856730558656 -0.00087654204432700963
leaf_weight=4427 85 29 63 461 539 106 911 27 27 80 437 532 249 37 24 152 24 271 81 27 49 154 37 25 36 336 161 109 22 473
leaf_count=4427 85 29 63 461 539 106 911 27 27 80 437 532 249 37 24 152 24 271 81 27 49 154 37 25 36 336 161 109 22 473
internal_value=0 0.012623 -0.00284192 0.0101924 -0.00465181 0.0308529 0.00175985 0.0238928 0.0201104 0.00784103 0.00578629 0.00952483 -0.0022503 -0.000221428 -0.00362516 -0.00172745 0.00183709 0.000698269 -0.00661549 0.0256013 -0.00738462 0.000585138 0.00636691 0.01553 0.000137285 0.000998814 -0.00162969 -0.00290376 0.00163214 -0.00278097
internal_weight=0 1836 8155 1620 5853 216 2302 110 81 1159 522 637 1426 576 850 520 319 295 330 54 201 1391 100 105 1291 1006 670 285 176 634
internal_count=9991 1836 8155 1620 5853 216 2302 110 81 1159 522 637 1426 576 850 520 319 295 330 54 201 1391 100 105 1291 1006 670 285 176 634
is_linear=0
shrinkage=0.05


Tree=30
num_leaves=31
num_cat=0
split_feature=0 0 0 0 0 0 0 0 0 0 0 0 0 1 0 0 0 0 1 0 0 1 0 0 0 0 0 0 0 0
split_gain=129.387 29.5878 24.5614 8.28633 3.92762 3.67334 2.67951 2.50519 2.32801 1.9463 1.80726 2.51609 1.79484 1.73707 2.64235 2.35281 1.69054 1.65063 1.71289 2.50457 1.43049 1.41905 2.3871 2.16255 2.87284 1.46163 1.45844 1.37906 1.75327 2.05545
threshold=245.50000000000003 514.50000000000011 50.500000000000007 730.00000000000011 376.50000000000006 -174.49999999999997 499.50000000000006 488.50000000000006 47.500000000000007 159.50000000000003 480.50000000000006 452.50000000000006 470.50000000000006 1.0000000180025095e-35 443.50000000000006 423.50000000000006 -39.499999999999993 -167.49999999999997 1.0000000180025095e-35 -42.499999999999993 433.50000000000006 1.0000000180025095e-35 -208.49999999999997 -205.49999999999997 -185.49999999999997 -633.49999999999989 -201.49999999999997 366.50000000000006 310.50000000000006 254.50000000000003
decision_type=2 2 2 2 2 2 2 2 2 2 2 2 2 2 2 2 2 2 2 2 2 2 2 2 2 2 2 2 2 2
left_child=2 4 5 -3 27 21 7 10 16 -4 11 13 -13 14 15 -6 17 -7 19 -19 -15 23 -23 25 26 -1 -25 28 29 -2
right_child=1 3 9 -5 6 8 -8 -9 -10 -11 -12 12 -14 20 -16 -17 -18 18 -20 -21 -22 22 -24 24 -26 -27 -28 -29 -30 -31
leaf_value=-0.0014090091033133469 0.012611078990294653 0.01977393960694581 0.00043947854249915805 0.036171886687746867 0.011965016315742913 0.002970579099835446 -0.0016141272615641357 0.026409694311373372 -0.015010426058212206 0.0033758260012715733 0.00025554045007146643 0.025057377619668843 0.010554536886047572 0.0011755454950616697 -0.0039663827791810036 0.024848997220396997 -0.0017775259073229003 -0.005291839214122746 -0.0023015906308577064 -0.023143646373646336 0.016495132725685837 -0.0063640996871278058 -0.013769670856643969 0.015284221198247828 -0.0078997106269179367 -0.0062623211735975464 0.0015397723282997806 -0.0001198701137168841 0.0099821294342879868 0.0041132288414865601
leaf_weight=173 85 282 1483 106 144 78 32 34 42 911 29 64 32 64 20 47 1292 1115 599 20 20 579 134 23 84 1502 120 66 374 437
leaf_count=173 85 282 1483 106 144 78 32 34 42 911 29 64 32 64 20 47 1292 1115 599 20 20 579 134 23 84 1502 120 66 374 437
internal_value=0 0.0119919 -0.00269983 0.0242538 0.00870622 -0.0044687 0.0123699 0.0133556 -0.00331762 0.00155686 0.0122988 0.0131921 0.0202231 0.010904 0.0133248 0.0151354 -0.0031594 -0.00414471 -0.00446478 -0.00560641 0.00482307 -0.00585353 -0.00775589 -0.00514039 -0.000560643 -0.00576105 0.00375042 0.00685533 0.00736913 0.00549698
internal_weight=0 1836 8155 388 1448 5761 486 454 3146 2394 420 391 96 295 211 191 3104 1812 1734 1135 84 2615 713 1902 227 1675 143 962 896 522
internal_count=9991 1836 8155 388 1448 5761 486 454 3146 2394 420 391 96 295 211 191 3104 1812 1734 1135 84 2615 713 1902 227 1675 143 962 896 522
is_linear=0
shrinkage=0.05


Tree=31
num_leaves=31
num_cat=0
split_feature=0 0 0 0 0 0 0 1 0 0 0 0 0 0 0 0 0 0 0 0 1 0 0 0 0 0 0 0 0 0
split_gain=116.788 27.2881 21.5272 6.89122 4.23589 2.48233 2.55938 2.68591 2.73451 6.25002 2.43911 1.86874 1.5963 1.9895 5.01545 1.48905 1.54517 1.43343 1.38033 1.5862 1.28069 2.15436 2.0166 1.53421 1.32816 1.60772 1.31624 1.26859 1.23072 1.20705
threshold=241.50000000000003 527.50000000000011 22.500000000000004 730.00000000000011 376.50000000000006 -174.49999999999997 16.500000000000004 1.0000000180025095e-35 -9.4999999999999982 -6.4999999999999991 146.50000000000003 149.50000000000003 12.500000000000002 -11.499999999999998 -19.499999999999996 -137.49999999999997 -153.49999999999997 -131.49999999999997 25.500000000000004 28.500000000000004 1.0000000180025095e-35 -208.49999999999997 -235.49999999999997 -633.49999999999989 -185.49999999999997 -205.49999999999997 -201.49999999999997 974.00000000000011 -167.49999999999997 366.50000000000006
decision_type=2 2 2 2 2 2 2 2 2 2 2 2 2 2 2 2 2 2 2 2 2 2 2 2 2 2 2 2 2 2
left_child=2 4 5 -3 29 20 7 12 15 -10 18 -12 13 14 28 16 -9 -17 -4 -20 22 -22 23 -1 25 -24 -27 -5 -7 -2
right_child=1 3 10 27 -6 6 -8 8 9 -11 11 -13 -14 -15 -16 17 -18 -19 19 -21 21 -23 24 -25 -26 26 -28 -29 -30 -31
leaf_value=-0.001338558743110282 0.0068814902417599771 0.019159134382389458 0.0085762971842830837 0.03132446861630421 0.011991659007206329 0.003180731512953108 -0.012157352865432148 -0.0020776601053463916 0.031102861799299719 0.0012086741452686583 0.014091525175091294 0.0024946214240192371 0.0075011568410055978 -0.0088417730994675772 0.010826965002343059 -0.013673464977933515 0.0088437161555415707 -0.0026620437076744223 -0.0094511722392858349 -0.00013667443054365158 -0.0060458944502426552 -0.013081187551924542 -0.0033656250134497731 -0.006350654251318282 -0.0075047259352036891 0.014520009477501331 0.0014627833291888238 0.044209081472828982 -0.004735659948930728 -0.00011387544430115006
leaf_weight=173 939 251 44 81 517 51 81 75 20 139 36 991 28 231 56 31 57 634 47 1661 579 134 202 1300 84 23 120 25 1315 66
leaf_count=173 939 251 44 81 517 51 81 75 20 139 36 991 28 231 56 31 57 634 47 1661 579 134 202 1300 84 23 120 25 1315 66
internal_value=0 0.0112322 -0.00260174 0.0236735 0.00831399 -0.00446108 -0.00340298 -0.00313408 -0.00101808 0.00496895 0.000966391 0.00290113 -0.00433747 -0.004538 -0.00383886 -0.00221248 0.00263839 -0.00317536 -0.000167731 -0.000392987 -0.00556085 -0.0073681 -0.00488338 -0.005762 -0.00186657 -0.000493803 0.0035629 0.0343633 -0.0044401 0.00642209
internal_weight=0 1879 8112 357 1522 5333 2718 2637 956 159 2779 1027 1681 1653 1422 797 132 665 1752 1708 2615 713 1902 1473 429 345 143 106 1366 1005
internal_count=9991 1879 8112 357 1522 5333 2718 2637 956 159 2779 1027 1681 1653 1422 797 132 665 1752 1708 2615 713 1902 1473 429 345 143 106 1366 1005
is_linear=0
shrinkage=0.05


Tree=32
num_leaves=31
num_cat=0
split_feature=0 0 0 0 0 0 0 0 1 0 0 0 0 0 0 0 0 0 1 0 1 0 0 0 0 0 0 0 0 1
split_gain=105.851 26.6844 19.8014 4.10801 3.26307 3.26213 2.52363 3.0435 2.3438 2.30605 1.9479 1.66151 3.30345 1.52691 1.77812 1.49264 3.55703 1.31453 1.3074 1.2888 2.28526 4.60589 3.71644 3.40643 1.97723 2.32344 3.85368 2.84939 2.15631 1.81915
threshold=297.50000000000006 56.500000000000007 625.00000000000011 452.50000000000006 861.50000000000011 -75.499999999999986 159.50000000000003 292.50000000000006 1.0000000180025095e-35 470.50000000000006 488.50000000000006 443.50000000000006 423.50000000000006 330.50000000000006 315.50000000000006 499.50000000000006 514.50000000000011 63.500000000000007 1.0000000180025095e-35 70.500000000000014 1.0000000180025095e-35 80.500000000000014 89.500000000000014 106.50000000000001 122.50000000000001 146.50000000000003 153.50000000000003 135.50000000000003 89.500000000000014 1.0000000180025095e-35
decision_type=2 2 2 2 2 2 2 2 2 2 2 2 2 2 2 2 2 2 2 2 2 2 2 2 2 2 2 2 2 2
left_child=1 5 3 8 -4 -1 17 -8 11 -5 -11 12 13 14 -2 -12 -17 18 -3 29 22 -22 -21 -24 28 27 -27 -26 -23 -19
right_child=2 6 4 9 -6 -7 7 -9 -10 10 15 -13 -14 -15 -16 16 -18 19 -20 20 21 24 23 -25 25 26 -28 -29 -30 -31
leaf_value=-0.0048319309366035307 0.0087756874357368259 0.010414751042937121 0.023215433517583164 0.023204925132449719 0.037785823345184329 -0.0023298285210698578 0.0039576183812678432 -0.010781565334440933 0.0038190380822859813 0.0047757950565609775 0.024489629126208671 -0.0043676465749740599 0.023006966218669364 0.0073866900746376923 0.018935907048148081 -0.0021330044488422572 0.016021712789268689 0.00030267814682288606 -0.0014266624643995956 0.0052297176298132728 -0.010168978030670364 -0.00021067525446414947 -0.0098869973848409523 -0.00090798613424343988 0.0037815690289010363 0.020543964160606266 -0.0070212266984440025 -0.013821206282442197 0.011730636704352594 -0.013814713854868061
leaf_weight=3896 103 63 166 64 50 1957 1292 36 222 61 34 20 47 374 74 32 172 55 37 182 53 50 136 473 56 32 21 39 155 39
leaf_count=3896 103 63 166 64 50 1957 1292 36 222 61 34 20 47 374 74 32 172 55 37 182 53 50 136 473 56 32 21 39 155 39
internal_value=0 -0.00209393 0.0126492 0.0101464 0.0265882 -0.00399533 0.00199907 0.00355806 0.00822569 0.0145911 0.0127473 0.00980866 0.0102828 0.00919741 0.0130235 0.0147904 0.0131739 0.000510695 0.00603343 8.29078e-05 0.000525614 0.00357503 -0.00103957 -0.00291315 0.00563857 0.00123447 0.00962191 -0.00344483 0.00881812 -0.00555454
internal_weight=0 8572 1419 1203 216 5853 2719 1328 840 363 299 618 598 551 177 238 204 1391 100 1291 1197 406 791 609 353 148 53 95 205 94
internal_count=9991 8572 1419 1203 216 5853 2719 1328 840 363 299 618 598 551 177 238 204 1391 100 1291 1197 406 791 609 353 148 53 95 205 94
is_linear=0
shrinkage=0.05


Tree=33
num_leaves=31
num_cat=0
split_feature=0 0 0 0 0 0 0 0 0 0 1 0 0 0 1 0 0 0 0 0 0 0 1 0 0 0 1 0 1 0
split_gain=95.5698 21.8928 18.0501 5.85722 2.94492 2.94407 1.25661 1.3573 5.5495 2.29429 2.34304 1.56601 1.47652 2.05401 2.02488 8.25656 1.45072 2.40944 4.6215 1.69679 1.27442 1.25263 1.31324 1.24708 1.23238 1.18636 1.17993 1.16314 2.06245 4.15682
threshold=245.50000000000003 625.00000000000011 56.500000000000007 408.50000000000006 861.50000000000011 -75.499999999999986 159.50000000000003 195.50000000000003 199.50000000000003 187.50000000000003 1.0000000180025095e-35 175.50000000000003 209.50000000000003 206.50000000000003 1.0000000180025095e-35 203.50000000000003 183.50000000000003 175.50000000000003 171.50000000000003 167.50000000000003 163.50000000000003 -82.499999999999986 1.0000000180025095e-35 -174.49999999999997 -167.49999999999997 63.500000000000007 1.0000000180025095e-35 70.500000000000014 1.0000000180025095e-35 80.500000000000014
decision_type=2 2 2 2 2 2 2 2 2 2 2 2 2 2 2 2 2 2 2 2 2 2 2 2 2 2 2 2 2 2
left_child=2 3 5 -2 -3 21 25 9 -9 10 16 -12 13 14 15 -10 17 18 19 20 -8 23 -23 -1 -25 26 -4 -27 -29 -30
right_child=1 4 6 -5 -6 -7 7 8 12 -11 11 -13 -14 -15 -16 -17 -18 -19 -20 -21 -22 22 -24 24 -26 27 -28 28 29 -31
